{"learner":{"attributes":{"scikit_learn":"{\"n_estimators\": 100, \"objective\": \"binary:logistic\", \"max_depth\": 14, \"learning_rate\": 0.1, \"verbosity\": null, \"booster\": \"gbtree\", \"tree_method\": null, \"gamma\": 0.4, \"min_child_weight\": 7, \"max_delta_step\": 0, \"subsample\": 1, \"colsample_bytree\": 0.5, \"colsample_bylevel\": 1, \"colsample_bynode\": null, \"reg_alpha\": 0, \"reg_lambda\": 1, \"scale_pos_weight\": 1, \"base_score\": 0.5, \"missing\": null, \"num_parallel_tree\": null, \"kwargs\": {\"nthread\": null, \"seed\": null}, \"random_state\": 69, \"n_jobs\": 1, \"monotone_constraints\": null, \"interaction_constraints\": null, \"importance_type\": \"gain\", \"gpu_id\": null, \"validate_parameters\": null, \"classes_\": [0, 1], \"n_classes_\": 2, \"_le\": {\"classes_\": [0, 1]}, \"_features_count\": 4225, \"n_features_in_\": 4225, \"_estimator_type\": \"classifier\"}"},"feature_names":[],"feature_types":[],"gradient_booster":{"model":{"gbtree_model_param":{"num_trees":"100","size_leaf_vector":"0"},"tree_info":[0,0,0,0,0,0,0,0,0,0,0,0,0,0,0,0,0,0,0,0,0,0,0,0,0,0,0,0,0,0,0,0,0,0,0,0,0,0,0,0,0,0,0,0,0,0,0,0,0,0,0,0,0,0,0,0,0,0,0,0,0,0,0,0,0,0,0,0,0,0,0,0,0,0,0,0,0,0,0,0,0,0,0,0,0,0,0,0,0,0,0,0,0,0,0,0,0,0,0,0],"trees":[{"base_weights":[-0E0,-1.5586776E0,1.3162152E0,-1.8157244E0,6.278027E-2,-1.0374426E0,1.5623468E0,-1.9195502E0,-6.038143E-1,-1.1081761E0,1.6148396E0,-1.9415693E0,-3.954023E-2,6.122449E-2,1.6862336E0,-1.9284805E0,-3.821656E-2,-1.9336735E0,1.1144032E0,-1.7569757E0,3.9501038E-1,-1.7925926E0,1.8148148E0,-1.9746622E0,7.5E-1,-8.8276947E-1,1.1409692E0,-1.2618557E0,6.035503E-1,1.7258433E0,-1.8230089E0,-1.9373167E0,-3.5675675E-1,-1.3846154E0,1.7142857E0,-1.9738392E0,-3.255814E-1,1.772152E0,-1.202952E0,-1.8531235E0,-1.3953489E-1,-1.6317992E0,1.0591472E0,-1.9252336E0,-1.125E0,-1.5471698E0,1.8918432E0,-1.9880341E0,-7.5E-1,-1.3155893E0,1.1748879E0,-4.8E-1,1.5898876E0,-1.7210401E0,1.8125E0,-1.0738255E0,1.1657271E0,-3.0068967E-1,1.7631915E0,5E-1,-1.981132E0,-1.9434044E0,2.6086956E-1,-1.9245284E0,1.6626506E0,-1.8730159E0,-2.5E-1,-1E0,-1.9893404E0,-1.1578947E0,1.8862145E0,-1.7196262E0,6.885246E-1,-1.943867E0,-8.248588E-1,-1.8431373E0,9.268293E-1,-1.9241706E0,5E-1,-1.0476191E0,1.4057508E0,-1E0,1.9306253E0,-1.4653267E0,1.2131147E0,1.5897436E0,-1.5E0,1.6551725E0,-1.3150685E0,-1.3939394E0,1.7247437E0,-1.8298969E0,-4.864865E-1,-1.532258E0,1.1538461E0,-1.3846154E0,1.3640777E0,-9.6E-1,1.7318436E0,1.3298665E0,1.8591893E0,-1.9467268E0,9.74359E-1,1.7142857E0,-1.8E0,1.8545455E0,1.125E0,1.959276E0,-2.3529412E-1,-1.25E-1,-1.9569893E0,1.7575758E0,-5E-1,-1.9680341E0,-9.019608E-1,-1.2857143E0,8.292683E-1,1.8222222E0,-1.4634146E-1,2.2222222E-1,-1.875E0,-8.75E-1,1.5183946E0,1.9519186E0,2.5E-1,-8.429752E-1,-1.8113208E0,1.7575758E0,5E-1,1.875E0,2.5641027E-1,1.7142858E-1,-1.7217392E0,-1.25E-1,1.8045802E0,-1.8930482E0,-1.25E-1,-1.4666667E0,9.0909094E-1,-1.7670887E0,-5.904762E-1,1.8421053E0,-6.25E-1,-1.826087E0,-2.857143E-1,-1.0857143E0,1.4690266E0,-1.3560091E0,6.1946905E-1,5E-1,1.9470198E0,6.0082304E-1,1.6027054E0,-1.4532374E0,1.873386E0,-1.9549314E0,-7.826087E-1,1.9813085E0,1.125E0,-1.98053E0,-1E0,-1.5925926E0,-2.2222222E-1,-3.773585E-2,1.6575592E0,1.9699531E0,7.027027E-1,-1.381295E0,8.764045E-1,-1.919192E0,-2.6086956E-1,-1.862069E0,-1.125E0,1.8888888E0,5.531915E-1,-1.9479016E0,-1.1475409E0,-1.8448753E0,-8.4210527E-1,-1.3766234E0,1.375E0,-1.25E-1,-1.7142857E0,1.5424837E0,-6.4285713E-1,7.368421E-1,-1.5380836E0,-7.906977E-1,1.4054054E0,7.9574704E-1,-1.5776397E0,1.6785201E0,4.0764332E-1,3.030303E-1,-1.9272727E0,-1.7974683E0,1.8822606E0,-1.960598E0,-3.5897437E-1,-1.8509316E0,1.6164384E0,-8.75E-1,-1.8E0,1.7446809E0,2.2222222E-1,1.1111112E0,1.9809343E0,-1.7953489E0,2.9850746E-2,-4.864865E-1,1.7142857E0,-1.9575971E0,-1E0,1.9315069E0,8.75E-1,-1.2727273E0,-1.9697886E0,-5E-1,-1.6363636E0,-1.9030303E0,-1.0857143E0,-6.25E-1,-1.755102E0,-1.25E0,1.5978695E0,-4.0816326E-2,-1.7237569E0,1.826087E0,6.25E-1,3.1768233E-1,1.3974683E0,-1.9398496E0,1.25E-1,1.8259906E0,1.2507937E0,9.0128756E-1,-9.647059E-1,8.411215E-1,1.896208E0,-1.969447E0,-1.2805755E0,-1.4545455E0,9.818182E-1,1.803681E0,6.25E-1,1.25E0,1.9884058E0,-1.9120879E0,-1.027027E0,1.5151515E0,-1.2631578E0,1.125E0,1.9640288E0,1.6520548E0,-2.6086956E-1,-1.8807946E0,-8.75E-1,7.582697E-1,-1.2694064E0,1.670886E0,2.962963E-1,6.216216E-1,1.8753247E0,1.3957597E0,-3.0303031E-2,1.3089005E0,-8.695652E-1,-1.5833334E0,-1.4634146E-1,-1.3904762E0,1.5474006E0,1.3919308E0,1.9192673E0,-1.971346E0,6.0606062E-2,-1.5555556E0,-2.5316456E-2,-8.75E-1,-1.7894737E0,1.8611714E0,7.5E-1,-2E-1,1.6994382E0,-1.9562044E0,-1E0,-1.7647059E0,1.1764706E-1,1.2516556E0,-8.6021507E-1,-1.5604396E0,1.4634146E-1,1.7643098E0,1.904762E-1,1.0545454E0,-1.2142857E0,-8.5714287E-1,1.4583334E0,-0E0,1.8906022E0,1.5075188E0,-3.3333334E-1,7.906977E-1,-1.44E0,1.6413794E0,2.4E-1,-0E0,-1.8961039E0,1.7190635E0,-2.5E-1,1.5321101E0,-8.5714287E-1,1.6489493E0,1.9427577E0,-1.9751922E0,-1.25E0,-1.7916666E0,-2.7586207E-1,8.8E-1,-1.3939394E0,1.0769231E0,1.915493E0,1.7520058E0,3.1578946E-1,-1.6571429E0,1.4205934E0,-1.2368422E0,7.368421E-1,-1.7866666E0,-4.4444445E-1,5.833333E-1,1.8545455E0,1.7142857E0,-9.090909E-2,3.75E-1,1.882353E0,3.75E-1,1.9026108E0,1.5637065E0,-5E-1,-1.3636364E0,1.125E0,-3.783784E-1,1.5471698E0,7.5E-1,1.8290598E0,2.857143E-1,1.880597E0,1.6286389E0,-1.6097561E0,6.666667E-1,-1.709091E0,3.7974682E-1,1.7342719E0,1.9450207E0,-2.5E-1,-1.9876949E0,-1.7932053E0,-1.884058E0,9.5238096E-1,-1.9292035E0,-1.2121212E0,1.9589744E0,1.3E0,1.8129385E0,8.2608694E-1,1.5522935E0,-1E0,-1.6E0,1.1111111E-1,1.9342916E0,1.1641791E0,1.9147172E0,5.555556E-1,1.6196196E0,4.8780486E-2,1.95E0,1.125E0,7.5092936E-1,1.8568588E0,-1.3454546E0,1.2523365E0,1.7706093E0,-2.2222222E-1,3E-1,1.9471276E0,-1.9890668E0,-5E-1,-7.079646E-1,-1.9248203E0,-4.2424244E-1,-1.7837838E0,1.8491172E0,5.365854E-1,-4E-1,1.4754099E0,1.6750484E0,-6.25E-1,-7.4285716E-1,-1.8651686E0,1.25E0,1.9651417E0,2.5E-1,1.7948718E0,1.9269242E0,7.619048E-1,1.6659794E0,6.0606062E-2,1.4285715E0,-1.012987E0,1.9094651E0,3.1578946E-1,-0E0,1.6962025E0,1.8241347E0,5.3061223E-1,1.4959786E0,1.9530348E0],"categories":[],"categories_nodes":[],"categories_segments":[],"categories_sizes":[],"default_left":[true,true,true,true,true,true,true,true,true,true,true,true,true,true,true,true,true,true,true,true,true,true,true,true,false,true,true,true,true,true,true,true,true,true,false,true,false,true,true,true,true,true,true,false,false,false,true,false,false,true,true,true,true,true,false,true,true,true,true,false,false,true,true,false,true,false,false,false,false,false,true,true,true,true,true,false,true,false,false,true,true,false,true,true,true,true,false,false,true,false,true,true,true,true,true,true,true,true,true,true,true,true,false,false,false,true,true,true,false,false,false,false,false,true,false,true,false,false,false,false,false,false,true,true,false,true,true,false,false,false,false,false,true,false,true,true,false,false,false,true,true,false,false,false,false,true,true,true,true,false,false,true,true,true,true,true,true,false,false,false,false,true,false,false,true,true,false,true,true,true,false,true,true,true,false,true,true,true,false,true,false,false,false,true,false,false,true,false,true,true,true,true,true,false,false,false,true,true,true,false,false,false,false,true,false,false,true,true,true,false,false,false,false,true,false,true,true,false,false,false,false,false,false,false,true,false,true,false,false,true,true,false,false,true,true,true,true,true,true,true,true,true,false,true,false,true,true,false,false,false,false,false,false,true,false,true,true,true,true,true,true,true,true,true,true,true,false,false,false,true,true,true,true,true,false,true,true,false,false,true,false,false,true,false,false,false,false,true,true,true,false,true,false,true,false,false,true,false,true,true,true,true,false,true,false,false,false,true,false,true,true,true,true,true,true,true,false,false,false,false,true,true,false,false,true,true,false,false,false,false,true,false,false,false,false,false,true,true,false,false,false,false,false,false,false,false,true,true,false,false,false,true,true,true,false,true,true,false,false,false,true,true,true,true,true,true,false,true,false,true,true,true,false,true,false,false,false,true,true,false,true,true,false,false,true,false,false,false,false,false,false,false,false,false,false,false,false,false,false,true,true,false,false,false,false,false,false,false,false,false,false,false,false,false,false,false,false],"id":0,"left_children":[1,3,5,7,9,11,13,15,17,19,21,23,25,27,29,31,33,35,37,39,41,43,45,47,-1,49,51,53,55,57,59,61,63,65,-1,67,-1,69,71,73,75,77,79,-1,-1,-1,81,-1,-1,83,85,87,89,91,-1,93,95,97,99,-1,-1,101,103,-1,-1,-1,-1,-1,-1,-1,107,109,111,113,115,-1,117,-1,-1,119,121,-1,123,125,127,129,-1,-1,131,-1,133,135,137,139,141,143,145,147,149,151,153,155,-1,-1,-1,-1,-1,157,-1,-1,-1,-1,-1,159,-1,161,-1,-1,-1,-1,-1,-1,163,165,-1,167,169,-1,-1,-1,-1,-1,-1,-1,173,175,-1,-1,-1,177,179,-1,-1,-1,-1,181,183,185,187,-1,-1,189,191,193,195,197,199,-1,-1,-1,-1,201,-1,-1,203,205,-1,207,209,211,-1,-1,-1,213,-1,-1,217,219,-1,221,-1,-1,-1,223,-1,-1,225,-1,227,229,231,233,235,-1,-1,-1,237,239,241,-1,-1,-1,-1,243,-1,-1,-1,247,249,-1,-1,-1,-1,251,-1,-1,-1,-1,-1,-1,-1,-1,-1,-1,253,-1,255,-1,-1,257,259,-1,-1,261,263,265,267,269,271,273,275,277,-1,279,-1,-1,-1,-1,-1,-1,-1,-1,-1,281,-1,283,285,287,289,291,293,295,297,299,301,303,-1,-1,-1,305,307,309,311,313,-1,315,317,-1,-1,319,-1,-1,321,-1,-1,-1,-1,323,325,327,-1,329,-1,331,-1,-1,333,-1,335,337,339,341,-1,343,-1,-1,-1,345,-1,347,349,351,353,355,357,359,-1,-1,-1,-1,-1,363,-1,-1,365,367,-1,-1,-1,-1,369,-1,-1,-1,-1,-1,371,373,-1,-1,-1,-1,-1,-1,-1,-1,375,377,-1,-1,-1,379,381,383,-1,385,387,-1,-1,-1,389,-1,-1,391,393,395,-1,397,-1,-1,401,403,-1,405,-1,-1,-1,407,409,-1,411,413,-1,-1,415,-1,-1,-1,-1,-1,-1,-1,-1,-1,-1,-1,-1,-1,-1,-1,-1,-1,-1,-1,-1,-1,-1,-1,-1,-1,-1,-1,-1,-1,-1,-1,-1],"loss_changes":[4.561017E4,4.242416E3,6.98433E3,1.104332E3,2.534782E3,1.0300446E3,2.029334E3,1.358789E2,1.5896499E3,7.7603107E2,4.1192432E2,5.483496E1,5.422778E2,5.9847284E2,1.4043652E3,1.111582E2,9.4986626E1,2.4676636E1,4.6511884E2,8.612915E1,3.2546027E2,8.2268524E-1,1.4976196E2,8.203613E0,0E0,2.8453223E2,1.6594717E2,3.4545578E2,5.590256E2,7.5503906E2,4.2497925E1,1.0767969E2,1.496259E2,1.2138584E1,0E0,3.7810059E0,0E0,8.139148E1,6.739453E1,4.7313477E1,6.0295574E1,3.8202896E1,1.3418887E2,0E0,0E0,0E0,6.414685E1,0E0,0E0,1.0136029E2,6.4249985E1,9.132742E1,7.4029144E1,2.7533142E1,0E0,1.5393233E2,2.2623834E2,2.4455028E2,4.0471094E2,0E0,0E0,7.931445E1,7.1977646E1,0E0,5.4462433E-2,0E0,0E0,0E0,0E0,0E0,3.5878662E1,2.0005417E1,2.025534E1,1.0336426E1,3.4798576E1,0E0,1.9965313E1,0E0,0E0,2.7996033E1,4.153543E1,0E0,1.911377E1,5.2036438E1,5.042225E0,1.806089E1,0E0,0E0,2.2359943E1,0E0,2.5441376E1,2.0650635E1,2.6639805E1,2.638031E1,3.2983303E1,1.5245102E1,1.075213E2,8.684407E1,1.0888077E1,3.5285083E2,3.7943555E2,7.4666016E1,0E0,0E0,0E0,0E0,0E0,1.833252E0,0E0,0E0,0E0,0E0,0E0,3.6956787E0,0E0,1.1068783E1,0E0,0E0,0E0,0E0,0E0,0E0,3.243799E1,1.079834E1,0E0,8.52066E1,2.6091919E1,0E0,0E0,0E0,0E0,0E0,3.12706E-1,0E0,1.6231262E1,5.411804E0,0E0,0E0,0E0,5.5516357E0,4.2453136E1,0E0,0E0,0E0,0E0,1.0353573E1,6.234668E1,4.3144608E1,3.242076E1,0E0,0E0,2.0762788E2,1.16533936E2,2.9514542E1,2.6325195E2,7.093359E1,1.5036195E2,0E0,0E0,0E0,0E0,2.4435196E0,0E0,0E0,1.6775269E1,2.821045E0,0E0,4.0661774E1,2.6242159E1,3.284668E0,0E0,0E0,0E0,4.9210205E0,0E0,4.5837402E-2,4.0089436E0,1.9182739E0,0E0,4.379177E0,0E0,0E0,0E0,6.115631E1,0E0,0E0,2.8216415E1,0E0,4.932289E0,1.2806891E2,2.5065178E1,7.443359E1,5.4049484E1,0E0,0E0,0E0,1.1396875E2,4.497461E1,4.4394405E1,0E0,0E0,0E0,0E0,7.411133E0,0E0,0E0,3.7890625E-1,2.857254E0,3.4082363E1,0E0,0E0,0E0,0E0,1.6199341E0,0E0,0E0,0E0,0E0,0E0,0E0,0E0,0E0,0E0,0E0,3.824994E1,0E0,1.0416779E1,0E0,0E0,1.759502E2,5.89682E1,0E0,0E0,5.2442627E1,5.8542633E1,4.318434E1,1.0526377E1,1.707976E2,8.863672E1,3.015039E1,3.5944717E1,1.6369591E0,0E0,6.0095825E0,0E0,0E0,0E0,0E0,0E0,0E0,0E0,0E0,0E0,3.2371155E1,0E0,3.0585327E0,1.4338236E1,1.5798935E2,2.2786972E1,2.1516174E1,4.7669117E1,4.7030083E1,2.4818604E1,5.518994E1,3.933156E1,1.657579E1,0E0,0E0,0E0,1.8455414E1,2.5653488E1,1.10713135E2,4.4460938E1,1.9123047E1,0E0,2.533957E1,2.5697645E1,0E0,0E0,2.8469849E0,0E0,0E0,2.5340332E1,0E0,0E0,0E0,0E0,7.655641E1,2.888087E1,1.0693237E1,0E0,1.4743286E1,0E0,2.093766E1,0E0,0E0,1.0318626E1,0E0,1.4924805E1,3.0786133E1,2.8579546E1,1.9599445E1,0E0,4.692627E0,0E0,0E0,0E0,1.6769852E1,0E0,1.0179443E2,2.8401731E1,6.504736E1,3.4726562E1,1.4044922E1,6.323758E1,3.4006042E0,0E0,0E0,0E0,0E0,3.0352783E-1,1.7839966E1,0E0,0E0,4.721933E1,1.8779537E1,0E0,0E0,0E0,0E0,5.3180847E0,0E0,0E0,0E0,0E0,0E0,1.2834961E1,2.1859375E1,0E0,0E0,0E0,0E0,0E0,0E0,0E0,0E0,1.3197632E0,6.2254395E1,0E0,0E0,0E0,6.1147976E1,4.0792603E1,2.3308594E1,0E0,1.3767578E1,7.1161255E1,0E0,0E0,0E0,6.674856E0,0E0,0E0,1.381897E1,1.890107E1,3.746289E1,0E0,5.4330597E0,0E0,1.1376953E-1,9.208765E0,1.04123535E1,0E0,1.794983E1,0E0,0E0,0E0,8.1831314E1,1.9786072E1,0E0,1.4869514E1,3.606726E1,0E0,0E0,1.5425781E1,0E0,0E0,0E0,0E0,0E0,0E0,0E0,0E0,0E0,0E0,0E0,0E0,0E0,0E0,0E0,0E0,0E0,0E0,0E0,0E0,0E0,0E0,0E0,0E0,0E0,0E0,0E0,0E0,0E0,0E0,0E0,0E0],"parents":[2147483647,0,0,1,1,2,2,3,3,4,4,5,5,6,6,7,7,8,8,9,9,10,10,11,11,12,12,13,13,14,14,15,15,16,16,17,17,18,18,19,19,20,20,21,21,22,22,23,23,25,25,26,26,27,27,28,28,29,29,30,30,31,31,32,32,33,33,35,35,37,37,38,38,39,39,40,40,41,41,42,42,46,46,49,49,50,50,51,51,52,52,53,53,55,55,56,56,57,57,58,58,61,61,62,62,64,64,70,70,71,71,72,72,73,73,74,74,76,76,79,79,80,80,82,82,83,83,84,84,85,85,88,88,90,90,91,91,92,92,93,93,94,94,95,95,96,96,97,97,98,98,99,99,100,100,101,101,107,107,113,113,115,115,122,122,123,123,125,125,126,126,132,132,134,134,135,135,139,139,140,140,145,145,146,146,147,147,148,148,151,151,152,152,153,153,154,154,155,155,156,156,161,161,164,164,165,165,167,167,168,168,169,169,173,173,175,175,176,176,177,177,179,179,183,183,186,186,188,188,189,189,190,190,191,191,192,192,196,196,197,197,198,198,203,203,206,206,207,207,208,208,213,213,224,224,226,226,229,229,230,230,233,233,234,234,235,235,236,236,237,237,238,238,239,239,240,240,241,241,243,243,253,253,255,255,256,256,257,257,258,258,259,259,260,260,261,261,262,262,263,263,264,264,265,265,269,269,270,270,271,271,272,272,273,273,275,275,276,276,279,279,282,282,287,287,288,288,289,289,291,291,293,293,296,296,298,298,299,299,300,300,301,301,303,303,307,307,309,309,310,310,311,311,312,312,313,313,314,314,315,315,320,320,321,321,324,324,325,325,330,330,336,336,337,337,346,346,347,347,351,351,352,352,353,353,355,355,356,356,360,360,363,363,364,364,365,365,367,367,369,369,370,370,371,371,373,373,377,377,378,378,380,380,381,381,384,384],"right_children":[2,4,6,8,10,12,14,16,18,20,22,24,26,28,30,32,34,36,38,40,42,44,46,48,-1,50,52,54,56,58,60,62,64,66,-1,68,-1,70,72,74,76,78,80,-1,-1,-1,82,-1,-1,84,86,88,90,92,-1,94,96,98,100,-1,-1,102,104,-1,-1,-1,-1,-1,-1,-1,108,110,112,114,116,-1,118,-1,-1,120,122,-1,124,126,128,130,-1,-1,132,-1,134,136,138,140,142,144,146,148,150,152,154,156,-1,-1,-1,-1,-1,158,-1,-1,-1,-1,-1,160,-1,162,-1,-1,-1,-1,-1,-1,164,166,-1,168,170,-1,-1,-1,-1,-1,-1,-1,174,176,-1,-1,-1,178,180,-1,-1,-1,-1,182,184,186,188,-1,-1,190,192,194,196,198,200,-1,-1,-1,-1,202,-1,-1,204,206,-1,208,210,212,-1,-1,-1,214,-1,-1,218,220,-1,222,-1,-1,-1,224,-1,-1,226,-1,228,230,232,234,236,-1,-1,-1,238,240,242,-1,-1,-1,-1,244,-1,-1,-1,248,250,-1,-1,-1,-1,252,-1,-1,-1,-1,-1,-1,-1,-1,-1,-1,254,-1,256,-1,-1,258,260,-1,-1,262,264,266,268,270,272,274,276,278,-1,280,-1,-1,-1,-1,-1,-1,-1,-1,-1,282,-1,284,286,288,290,292,294,296,298,300,302,304,-1,-1,-1,306,308,310,312,314,-1,316,318,-1,-1,320,-1,-1,322,-1,-1,-1,-1,324,326,328,-1,330,-1,332,-1,-1,334,-1,336,338,340,342,-1,344,-1,-1,-1,346,-1,348,350,352,354,356,358,360,-1,-1,-1,-1,-1,364,-1,-1,366,368,-1,-1,-1,-1,370,-1,-1,-1,-1,-1,372,374,-1,-1,-1,-1,-1,-1,-1,-1,376,378,-1,-1,-1,380,382,384,-1,386,388,-1,-1,-1,390,-1,-1,392,394,396,-1,398,-1,-1,402,404,-1,406,-1,-1,-1,408,410,-1,412,414,-1,-1,416,-1,-1,-1,-1,-1,-1,-1,-1,-1,-1,-1,-1,-1,-1,-1,-1,-1,-1,-1,-1,-1,-1,-1,-1,-1,-1,-1,-1,-1,-1,-1,-1],"split_conditions":[-3.1969857E-1,1.0863777E0,-2.0003453E-1,-1.5737161E-1,-4.1502523E-1,-6.0488755E-1,-3.8156387E-1,3.6245685E0,-2.810415E-2,5.717112E-1,-1.8903825E-1,1.090512E1,-1.895684E-1,1.8975973E-1,1.5162244E-1,4.320733E0,2.804255E-1,6.6219914E-1,1.5066307E0,-1.7128614E-1,5.524051E-1,7.8806156E-1,1.5315056E-1,4.2595778E0,7.5E-2,-3.9962906E-2,-1.8364756E-1,-2.3617174E-2,-6.799658E-1,-4.7950104E-1,1.2671557E-1,3.1895924E-1,2.4694963E0,-1.5500659E-1,1.7142858E-1,3.7143674E-1,-3.255814E-2,-4.911641E-1,-1.8254858E-1,1.6267235E0,-1.4411336E-1,-1.1187896E-1,-7.5059044E-1,-1.9252336E-1,-1.12500004E-1,-1.5471698E-1,-6.2712246E-1,-1.9880341E-1,-7.5E-2,2.229968E0,-1.9260833E-1,-1.6705503E0,-6.9358456E-1,7.596486E-1,1.8125E-1,2.592818E-1,-4.1369054E-1,1.7199137E0,-4.016553E-1,5E-2,-1.981132E-1,1.5092268E1,3.8444648E0,-1.9245283E-1,1.6626506E-1,-1.8730159E-1,-2.5E-2,-1E-1,-1.9893405E-1,-1.1578947E-1,2.0247784E-1,-5.267759E-1,4.8607983E-2,6.6298807E-1,6.0566235E-1,-1.8431373E-1,6.1831906E-2,-1.9241707E-1,5E-2,-5.463117E-1,6.702472E-1,-1E-1,3.3180672E-1,-4.7865805E-1,-1.3524384E0,-4.304827E-1,-1.5E-1,1.6551726E-1,1.429692E-1,-1.3939394E-1,-3.24318E-1,2.20578E0,2.3043154E-1,-2.656076E-1,-5.6372964E-1,-5.169225E-1,1.5513521E-1,4.0260255E-1,-1.4708912E-1,-2.4474016E-1,-2.5137558E0,-2.5709976E-2,9.74359E-2,1.7142858E-1,-1.7999999E-1,1.8545455E-1,1.12500004E-1,1.3057206E0,-2.3529412E-2,-1.25E-2,-1.9569893E-1,1.7575757E-1,-5E-2,1.6602488E0,-9.019608E-2,-1.1890077E-1,8.292683E-2,1.8222223E-1,-1.4634146E-2,2.2222223E-2,-1.875E-1,-8.75E-2,-1.0164434E0,4.534093E-1,2.5E-2,4.5151246E-1,3.6262736E-2,1.7575757E-1,5E-2,1.875E-1,2.5641028E-2,1.7142858E-2,-1.7217392E-1,-1.25E-2,2.0992175E-1,1.07576266E-1,-1.25E-2,-1.4666668E-1,9.090909E-2,-3.5696277E-1,-2.7332014E-1,1.8421052E-1,-6.25E-2,-1.8260871E-1,-2.857143E-2,-1.4211962E-1,1.3806744E0,-1.0196888E0,-3.579064E-1,5E-2,1.9470198E-1,6.620766E-2,4.5378983E-2,1.2931231E0,-4.898224E-1,5.4414287E0,-6.234204E-2,1.9813085E-1,1.12500004E-1,-1.98053E-1,-1E-1,-6.89785E-1,-2.2222223E-2,-3.773585E-3,8.125682E-1,-7.4751234E-1,7.027027E-2,1.9198436E-2,-6.8613076E-1,-3.5995472E-2,-2.6086956E-2,-1.862069E-1,-1.12500004E-1,1.0532858E0,5.531915E-2,-1.9479017E-1,-3.987681E-4,6.1366446E-2,-8.421053E-2,-2.8709027E-1,1.375E-1,-1.25E-2,-1.7142858E-1,-6.958916E-1,-6.428572E-2,7.368421E-2,-2.1252601E-1,-7.906977E-2,1.539554E-2,-2.9925314E-1,3.797913E-2,2.6205804E-2,6.7191637E-1,3.0303031E-2,-1.9272727E-1,-1.7974684E-1,-8.91815E-1,1.3129706E0,-2.5441635E-1,-1.8509316E-1,1.6164385E-1,-8.75E-2,-1.7999999E-1,5.9770036E-1,2.2222223E-2,1.1111112E-1,1.9809343E-1,1.048255E0,-6.833821E-2,-4.864865E-2,1.7142858E-1,-1.9575971E-1,-1E-1,-2.1827415E-1,8.75E-2,-1.2727273E-1,-1.9697885E-1,-5E-2,-1.6363637E-1,-1.9030303E-1,-1.0857143E-1,-6.25E-2,-1.7551021E-1,-1.25E-1,1.7046607E0,-4.0816325E-3,3.9893362E-1,1.8260871E-1,6.25E-2,-5.5066355E-2,5.5789235E-3,-1.9398497E-1,1.25E-2,-5.800771E-1,9.1119254E-1,1.6160813E-1,1.3008986E-1,-5.77453E-1,-4.787345E-1,3.9234946E0,-1.2765801E-1,-6.954591E-1,9.818182E-2,1.2051399E0,6.25E-2,1.25E-1,1.9884059E-1,-1.912088E-1,-1.027027E-1,1.5151516E-1,-1.2631579E-1,1.12500004E-1,1.9640289E-1,-7.395723E-1,-2.6086956E-2,-1.3005915E-2,5.873213E-1,-2.6999032E-1,1.8255364E0,1.565275E-1,2.6979706E-1,-1.688829E-1,-5.690154E-1,3.6150925E-2,1.6508487E-1,4.944179E-1,-8.695652E-2,-1.5833335E-1,-1.4634146E-2,-8.607663E-1,1.2329783E0,4.5979536E-1,8.2702175E-2,-1.3604023E-2,6.0606063E-3,6.379907E0,4.1092044E-1,-8.75E-2,-1.7894737E-1,-1.1695446E0,7.5E-2,-2.0000001E-2,2.0482075E-1,-1.9562045E-1,-1E-1,-1.764706E-1,1.1764706E-2,-4.6379077E-1,2.631347E-1,1.3566847E-1,1.4634146E-2,-8.6309195E-1,1.904762E-2,-8.643141E-1,-1.2142857E-1,-8.571429E-2,-3.1400132E-1,-0E0,-7.374598E-1,8.7494886E-1,-9.196389E-2,1.4985436E-1,-1.4400001E-1,-7.658352E-1,2.4E-2,-0E0,-1.8961039E-1,1.0282546E-1,-2.5E-2,8.3772254E-1,-1.3160393E-1,-2.9584455E-1,3.1344023E0,4.3990278E-1,3.6599857E-1,9.3582046E-1,-2.7586207E-2,8.8E-2,-1.3939394E-1,1.07692316E-1,1.915493E-1,2.7739711E-2,3.1578947E-2,-1.657143E-1,-6.062328E-2,6.824748E-2,7.368421E-2,-1.7866667E-1,-4.4444446E-2,5.8333334E-2,4.41988E-1,1.7142858E-1,-9.09091E-3,3.75E-2,1.882353E-1,3.75E-2,1.2232265E0,1.3303177E0,-5E-2,-1.3636364E-1,1.12500004E-1,-3.783784E-2,1.5471698E-1,7.5E-2,1.8290599E-1,2.857143E-2,6.380247E-1,4.6267062E-1,-1.6097562E-1,6.666667E-2,-1.7090909E-1,1.7722826E-1,8.9390785E-1,-1.220468E0,-2.5E-2,1.6735033E1,-4.703971E-1,-1.884058E-1,9.52381E-2,-1.9292036E-1,-2.5684208E-1,1.9589745E-1,1.3E-1,1.4911134E0,-4.7324133E-1,9.9164975E-1,-1E-1,2.2788763E-2,1.1111111E-2,1.9342916E-1,8.427124E-1,1.6723381E0,5.555556E-2,1.4894441E0,4.878049E-3,1.9500001E-1,1.12500004E-1,-4.2323402E-1,1.6700304E0,-1.3454546E-1,-2.1933565E-1,3.6930853E-1,-2.2222223E-2,3.0000001E-2,-1.0662899E0,-1.9890669E-1,-5E-2,-7.079646E-2,-1.9248204E-1,-4.2424243E-2,-1.7837839E-1,1.8491171E-1,5.365854E-2,-4.0000003E-2,1.4754099E-1,1.6750483E-1,-6.25E-2,-7.4285716E-2,-1.8651687E-1,1.25E-1,1.9651417E-1,2.5E-2,1.7948718E-1,1.9269243E-1,7.619048E-2,1.6659795E-1,6.0606063E-3,1.4285715E-1,-1.01298705E-1,1.909465E-1,3.1578947E-2,-0E0,1.6962026E-1,1.8241347E-1,5.3061225E-2,1.4959787E-1,1.9530348E-1],"split_indices":[740,545,575,1057,777,575,721,1539,575,587,587,550,1005,545,2815,2397,575,709,1057,641,575,575,575,685,0,1865,709,1104,630,587,1135,3056,614,681,0,1057,0,614,709,681,587,759,630,0,0,0,755,0,0,685,541,603,500,731,0,665,685,755,993,0,0,1015,3056,0,277,0,0,0,0,0,574,571,709,760,659,0,500,0,0,561,546,0,612,634,552,599,0,0,1005,0,1014,507,681,657,561,685,575,670,1345,681,507,1424,0,0,0,2147483647,2147483647,492,0,0,0,0,0,531,0,704,0,0,0,0,0,0,503,840,0,588,1437,0,0,0,0,0,10,0,775,545,0,0,0,1290,604,0,0,0,0,690,502,543,834,0,0,750,1138,853,573,541,1693,0,0,0,0,136,0,0,550,843,0,1137,577,1428,0,2147483647,2147483647,188,0,91,243,788,0,416,0,0,0,599,0,0,740,0,144,1003,920,577,521,0,0,0,599,681,700,0,0,0,0,609,0,0,680,277,587,0,0,0,0,507,0,2147483647,2147483647,0,0,0,0,0,0,0,819,0,681,0,0,617,614,0,0,655,679,781,354,609,821,533,993,186,0,445,0,2147483647,2147483647,0,0,0,0,0,0,540,0,644,475,755,575,689,1290,788,500,845,499,567,0,0,0,655,845,689,575,1774,0,681,476,0,0,113,0,0,678,0,0,0,0,685,680,1251,0,405,0,503,0,0,611,0,680,775,1225,614,0,463,0,0,0,681,0,1077,1143,700,2489,575,545,575,0,0,0,0,363,1143,0,0,605,518,0,0,0,0,521,0,0,0,0,0,1251,258,0,0,0,0,0,0,0,0,6,575,0,0,0,755,1193,630,0,700,633,0,0,0,419,2147483647,2147483647,273,821,674,0,755,0,64,222,133,0,245,0,0,0,634,574,0,370,884,0,0,708,0,0,0,0,0,0,0,0,0,0,0,0,0,0,2147483647,2147483647,0,0,0,0,0,0,0,0,0,0,0,0,0,0,0,0],"split_type":[0,0,0,0,0,0,0,0,0,0,0,0,0,0,0,0,0,0,0,0,0,0,0,0,0,0,0,0,0,0,0,0,0,0,0,0,0,0,0,0,0,0,0,0,0,0,0,0,0,0,0,0,0,0,0,0,0,0,0,0,0,0,0,0,0,0,0,0,0,0,0,0,0,0,0,0,0,0,0,0,0,0,0,0,0,0,0,0,0,0,0,0,0,0,0,0,0,0,0,0,0,0,0,0,0,0,0,0,0,0,0,0,0,0,0,0,0,0,0,0,0,0,0,0,0,0,0,0,0,0,0,0,0,0,0,0,0,0,0,0,0,0,0,0,0,0,0,0,0,0,0,0,0,0,0,0,0,0,0,0,0,0,0,0,0,0,0,0,0,0,0,0,0,0,0,0,0,0,0,0,0,0,0,0,0,0,0,0,0,0,0,0,0,0,0,0,0,0,0,0,0,0,0,0,0,0,0,0,0,0,0,0,0,0,0,0,0,0,0,0,0,0,0,0,0,0,0,0,0,0,0,0,0,0,0,0,0,0,0,0,0,0,0,0,0,0,0,0,0,0,0,0,0,0,0,0,0,0,0,0,0,0,0,0,0,0,0,0,0,0,0,0,0,0,0,0,0,0,0,0,0,0,0,0,0,0,0,0,0,0,0,0,0,0,0,0,0,0,0,0,0,0,0,0,0,0,0,0,0,0,0,0,0,0,0,0,0,0,0,0,0,0,0,0,0,0,0,0,0,0,0,0,0,0,0,0,0,0,0,0,0,0,0,0,0,0,0,0,0,0,0,0,0,0,0,0,0,0,0,0,0,0,0,0,0,0,0,0,0,0,0,0,0,0,0,0,0,0,0,0,0,0,0,0,0,0,0,0,0,0,0,0,0,0,0,0,0,0,0,0,0,0,0,0,0,0,0,0,0,0,0,0,0,0,0,0,0],"sum_hessian":[2.223E4,1.01775E4,1.20525E4,8.78475E3,1.39275E3,1.14075E3,1.091175E4,8.091E3,6.9375E2,7.94E2,5.9875E2,5.98E2,5.4275E2,8.32E2,1.007975E4,8.05275E3,3.825E1,3.91E2,3.0275E2,5.545E2,2.395E2,3.275E1,5.66E2,5.91E2,7E0,3.1675E2,2.26E2,2.415E2,5.905E2,9.96775E3,1.12E2,8.0075E3,4.525E1,2.175E1,1.65E1,3.8125E2,9.75E0,2.36E2,6.675E1,5.2325E2,3.125E1,5.875E1,1.8075E2,2.575E1,7E0,1.225E1,5.5375E2,5.84E2,7E0,2.62E2,5.475E1,4.9E1,1.77E2,2.105E2,3.1E1,1.48E2,4.425E2,1.8025E2,9.7875E3,7E0,1.05E2,7.9855E3,2.2E1,2.55E1,1.975E1,1.475E1,7E0,7E0,3.7425E2,8.5E0,2.275E2,5.25E1,1.425E1,4.8E2,4.325E1,1.175E1,1.95E1,5.175E1,7E0,2.525E1,1.555E2,7E0,5.4675E2,2.4775E2,1.425E1,4.775E1,7E0,1.35E1,3.55E1,7.25E0,1.6975E2,1.93E2,1.75E1,1.23E2,2.5E1,3.15E1,4.11E2,1.365E2,4.375E1,1.77775E3,8.00975E3,7.97675E3,8.75E0,1.3E1,9E0,1.275E1,7E0,2.2E2,7.5E0,7E0,4.55E1,7.25E0,7E0,4.6825E2,1.175E1,3.4E1,9.25E0,1.025E1,9.25E0,1.025E1,1.5E1,7E0,1.485E2,5.3975E2,7E0,8.975E1,1.58E2,7.25E0,7E0,3.9E1,8.75E0,7.75E0,2.775E1,7E0,1.6275E2,1.86E2,7E0,1.025E1,7.25E0,9.775E1,2.525E1,1.8E1,7E0,2.2E1,9.5E0,1.65E1,3.945E2,1.0925E2,2.725E1,7E0,3.675E1,4.85E2,1.29275E3,3.375E1,7.976E3,7.92025E3,5.65E1,2.13E2,7E0,4.6125E2,7E0,2.6E1,8E0,1.225E1,1.3625E2,5.315E2,8.25E0,6.85E1,2.125E1,1.475E2,1.05E1,2.075E1,7E0,1.52E2,1.075E1,1.7175E2,1.425E1,8.925E1,8.5E0,1.825E1,7E0,7E0,9.5E0,3.815E2,1.3E1,8.5E0,1.0075E2,9.75E0,1.75E1,4.4575E2,3.925E1,1.21525E3,7.75E1,7.25E0,2.65E1,1.875E1,7.95725E3,7.892E3,2.825E1,3.925E1,1.725E1,7E0,1.9E1,1.2825E2,8E0,8E0,5.235E2,5.275E1,1.575E1,8.25E0,1.3E1,1.405E2,7E0,1.45E2,7E0,7.25E0,1.645E2,7E0,7.25E0,8.15E1,7.75E0,7E0,1.125E1,7E0,3.745E2,1.125E1,8.95E1,1.05E1,7E0,2.4925E2,1.965E2,3.225E1,7E0,9.0125E2,3.14E2,5.725E1,2.025E1,1.06E2,7.85125E3,7.78875E3,1.0325E2,1.55E1,1.275E1,1.2125E2,7E0,7E0,5.165E2,4.45E1,8.25E0,7.25E0,8.5E0,7E0,1.38E2,3.64E2,1.05E1,7.45E1,1.5E1,1.955E2,5.375E1,1.57E2,3.95E1,3.6E1,8.6525E2,2.82E2,3.2E1,4.675E1,1.05E1,1.1E1,9.25E0,2.525E1,8.075E1,3.46E2,7.50525E3,7.7815E3,7.25E0,8.45E1,1.875E1,7E0,8.5E0,1.1425E2,7E0,9E0,3.55E2,6.75E1,7E0,7.5E0,7.5E0,1.5E2,4.55E1,4.45E1,9.25E0,1.475E2,9.5E0,2.65E1,1.3E1,1.3E1,2.3E1,7E0,8.5825E2,2.65E2,1.7E1,2.05E1,1.15E1,3.525E1,1.15E1,7E0,1.825E1,7.375E1,7E0,3.26E2,2E1,6.0575E2,6.8995E3,7.7385E3,4.3E1,7.1E1,1.35E1,1.15E1,7.25E0,8.75E0,1.055E2,3.4175E2,1.325E1,7.75E0,1.4225E2,3.7E1,8.5E0,3.65E1,8E0,1.1E1,1.365E2,1.65E1,1E1,7E0,1.6E1,7E0,8.5125E2,2.58E2,7E0,1E1,7E0,8.25E0,1.225E1,7E0,2.825E1,7.75E0,6.6E1,3.1675E2,9.25E0,7.25E0,1.275E1,3.85E1,5.6725E2,6.8925E3,7E0,7.23175E3,5.0675E2,3.35E1,9.5E0,5.55E1,1.55E1,9.65E1,9E0,3.1975E2,2.2E1,1.3525E2,7E0,2.9E1,8E0,1.2075E2,1.575E1,8.4325E2,8E0,2.4875E2,9.25E0,5.9E1,7E0,6.625E1,2.505E2,1.275E1,2.575E1,5.57E2,1.025E1,9E0,6.8835E3,7.22475E3,7E0,5.55E1,4.5125E2,7.25E0,8.25E0,3.105E2,9.25E0,7.75E0,1.425E1,1.2825E2,7E0,7.75E0,2.125E1,7E0,1.1375E2,7E0,8.75E0,8.3375E2,9.5E0,2.415E2,7.25E0,4.8E1,1.825E1,2.42E2,8.5E0,7E0,1.875E1,5.335E2,2.35E1,9.225E1,6.79125E3],"tree_param":{"num_deleted":"12","num_feature":"4225","num_nodes":"417","size_leaf_vector":"0"}},{"base_weights":[-1.293198E-4,-1.0730168E0,9.450441E-1,-1.4268308E0,2.8628793E-1,-1.602087E0,1.1413352E0,-1.649034E0,6.4776605E-1,-1.594908E0,8.223126E-1,1.4005786E0,-1.7181937E0,-5.157423E-1,1.3976095E0,-1.7087969E0,-6.8104583E-1,-1.5600685E0,1.1671845E0,-1.6585581E0,3.4020314E-1,-1.7317888E0,9.9182665E-1,1.3649498E-1,1.7819834E0,-1.7500015E0,8.730357E-1,-1.5945262E0,3.6880538E-1,-1.6725099E0,1.4860042E0,-1.7273378E0,7.281081E-1,-1.2958913E0,7.4529904E-1,-8.551444E-1,-1.8250515E0,-1.1902918E0,1.3633924E0,-1.7261431E0,-7.981174E-1,-8.19589E-1,1.4565536E0,-1.8201414E0,-4.794857E-1,1.334596E0,2.2184592E-1,-1.7689627E0,-3.7965363E-1,-1.661616E0,1.6315782E0,8.932254E-1,-1.2845696E0,-1.7662364E0,1.2035863E0,1.21181324E-1,1.5724474E0,-1.7348872E0,5.5464745E-1,-1.7246127E0,1.7899517E0,-1.4719875E0,1.282716E0,-8.445823E-1,1.4732007E0,-1.4077599E0,5.8793396E-1,2.2398047E-1,-1.4640834E0,-1.4192305E0,1.4646984E0,-1.7585264E0,1.2844002E-1,4.4339463E-1,-1.6279348E0,-3.831943E-1,1.4342939E0,-3.685188E-1,9.355833E-1,-4.469242E-1,-1.7835542E0,-1.7096388E0,9.195262E-1,-1.3166231E0,1.1143272E0,-1.6136962E0,1.0455912E0,-1.8110032E0,-6.2380743E-1,-1.1457922E0,1.2077953E0,1.6030896E0,-1.4590259E0,-1.7540082E0,-8.404914E-1,1.6075673E0,-1.6157774E0,-1.6645794E0,7.4661267E-1,5.1542E-1,1.6791943E0,-1.7908379E0,1.0724518E0,1.6419001E0,-4.0962574E-1,-1.7034558E0,-3.575857E-1,-1.6737064E0,-7.575979E-1,-6.674727E-1,-1.75447E0,-1.5350821E0,1.5338871E0,-1.7782689E0,-1.1384189E0,-1.6353533E0,3.6755046E-1,1.4986274E0,-9.5298314E-1,6.662592E-1,-8.6042607E-1,-7.810597E-1,1.3892884E0,-1.8059661E0,-1.2779199E0,2.9329634E-1,-1.7331337E0,4.80038E-1,-1.6926761E0,-1.2811718E0,1.2952263E0,-1.7754531E0,1.329857E0,-6.039853E-1,1.7647768E0,-1.088979E0,-1.8282038E0,-1.614491E0,1.2134988E-1,1.4631319E0,-1.0724207E0,4.872172E-1,1.654001E0,-1.7407857E0,7.117586E-1,-1.7648512E0,-1.05666146E-1,-1.5467237E0,7.204186E-1,1.1054499E0,-1.7700316E0,-1.0939378E0,1.7212282E0,1.7490312E0,4.5255584E-1,-1.1512613E0,1.5904981E0,-1.807248E0,-1.468219E0,-1.651937E0,-4.7004217E-1,-1.0856736E0,-1.8220841E0,9.365584E-1,-1.5985521E0,1.5451956E0,-5.412643E-1,-8.670659E-3,-1.7412007E0,-3.5143128E-1,1.4844457E0,-1.0335252E0,1.1900382E0,2.4505751E-1,-1.6357914E0,-1.1444027E0,1.5104231E0,-1.8108313E0,-1.1480297E0,-1.6661409E0,-1.495024E-1,1.6848688E-1,-1.7555041E0,-1.8100694E0,-9.257339E-1,-1.7525476E0,7.307239E-1,1.405086E0,-1.2277952E0,-1.8172919E0,-9.9423105E-1,-1.7284874E0,1.0516454E0,-7.886585E-1,1.3023416E0,1.6084392E0,-1.3358147E0,-1.6033709E0,1.3226187E-1,-1.1162254E0,8.831702E-1,1.6858085E0,4.6812552E-1,-1.7981933E0,-1.038105E0,-1.7726163E0,-3.3507174E-1,-1.7507412E0,1.1936564E0,-1.7291945E0,-7.846087E-2,-1.1604129E0,1.2344587E0,-1.7943598E0,-1.1292847E0,1.8062412E0,1.2033209E0,1.6365408E0,-7.218045E-1,-1.6990346E0,-4.8518103E-1,-8.46418E-1,1.530803E0,1.5682237E0,-1.3479245E0,1.9108817E-1,-1.4720364E0,-1.1811967E0,1.1458645E0,-4.827053E-2,1.7583854E0,-1.3932844E0,-5.0295297E-2,-1.1738614E0,1.3660347E0,-1.0839046E0,-1.7950617E0,1.6195583E0,-2.2142638E-1,-1.7695041E0,-7.1908385E-1,-3.023929E-1,1.5035383E0,-1.8339299E-1,-1.7206273E0,-1.8293842E0,-8.351756E-1,7.655542E-1,-1.5014507E0,1.7060797E0,-4.5883204E-3,-6.44775E-1,1.7007043E0,1.2449858E0,-1.5200663E0,1.1715707E0,-1.203638E0,-5.9041446E-3,1.6994373E0,-1.266483E0,9.380429E-1,-9.9210197E-1,-1.785117E0,-1.5983709E0,1.3883884E0,1.7159486E0,-1.3853708E-1,-1.8000617E0,-1.036116E0,-3.6795205E-1,1.6885518E0,1.6882857E0,9.551242E-3,9.46992E-1,1.7354931E0,1.5883783E0,-9.658626E-1,-1.7281452E0,1.9032224E-1,-1.6286142E0,-2.1594885E-1,-1.6724681E0,4.6586758E-1,3.8517204E-1,1.6790411E0,-1.7805412E0,-8.007403E-1,1.3108547E0,-1.6912428E0,-8.206493E-1,1.5595422E0,3.479442E-1,-1.5728191E0,-1.7365241E0,-7.345614E-1,1.7792835E0,3.5218248E-1,-1.6889019E0,-3.998322E-1,1.4023942E0,5.858435E-2,3.180311E-1,-1.5818826E0,-9.510131E-1,1.1292722E0,1.4058012E0,1.7404541E0,-1.630022E-1,-1.7490817E0,-9.71734E-1,1.4554611E0,-1.5159671E0,1.5866435E0,-1.7890275E0,1.5004611E-1,9.4018734E-1,1.6365179E0,1.7220359E0,4.023769E-1,1.5264896E0,-1.3162448E0,1.6193382E0,3.2562494E-1,-1.733098E0,-6.1108106E-1,-1.4984533E0,7.801603E-1,1.1201061E0,-8.649911E-1,1.7352728E0,6.1022854E-1,-1.7905825E0,-9.5944613E-1,1.6011932E0,-4.809983E-1,7.9777765E-1,1.8074752E0,-1.7986553E0,-8.931256E-1,-2.05265E-1,1.4963015E0,6.4590806E-1,-1.4718708E0,-8.9419335E-1,-1.7614802E0,-1.5425202E0,7.398171E-1,-2.749535E-1,1.5888808E0,1.5435476E0,-4.328167E-1,1.7482136E0,7.011956E-1,1.1247578E0,-1.6134464E0,-5.632488E-2,1.5937673E0,-1.7056159E0,4.7384005E-2,-1.7955338E0,-7.032612E-1,1.7460375E0,4.8029646E-2,1.2043705E0,1.7181815E0,1.1367992E0,-1.3851588E0,-1.8181274E0,-9.636744E-1,3.1244975E-1,1.5552095E0,9.63989E-1,1.7773881E0,-1.8013263E0,-9.974757E-1,-5.2264124E-1,1.6369907E0,1.5753565E0,-3.736381E-1,1.2178451E0,-6.0220134E-1,-1.7644844E0,-8.235181E-1,1.6262848E0,-2.1857397E-1,-1.3925925E0,1.2085189E0,1.7514461E0,-4.9088958E-1,1.0973314E0,-1.1750289E0,-9.604648E-1,-1.788396E0,7.0746297E-1,1.6937973E0,-1.7661015E0,-9.5947814E-1,-1.7986405E0,-5.4861426E-1,-1.5198096E0,1.5876079E0,1.7823496E0,1.1330934E0,2.99177E-1,1.476206E0,7.776587E-1,1.7439896E0,2.933392E-1,1.7320577E0,1.8039159E0,1.1567501E0,-1.8090467E0,-1.0368886E0,3.1161195E-1,1.6793252E0,1.6665788E0,7.5032127E-1,4.6685869E-1,1.6567321E0,1.6503319E0,-7.239531E-1,-1.3523949E0,1.1119494E0,4.041163E-1,-1.7580607E0,1.7032871E0,-6.314379E-2,-7.3668355E-1,1.7541685E0,1.5515809E0,-1.2132676E-1,8.273066E-1,1.7466906E0,-1.8005632E0,-5.5117555E-2,-1.6655056E0,9.393494E-1,-1.7430537E0,-6.9878656E-1,9.837347E-1,1.80044E0,-3.1495202E-1,1.5885094E0,-3.61494E-1,1.4972448E0,1.5749866E0,-1.4920512E-1,-7.029475E-1,1.7177773E0,1.7624967E0,5.332933E-1,-1.8185471E0,-1.351189E0,1.7113589E0,2.6895124E-1,1.7040763E0,6.8087345E-1,-3.3447337E-1,1.3164508E0,1.7213471E0,8.766757E-1,-1.7168262E0,-4.9182686E-1,7.252096E-2,1.709492E0,3.9299121E-1,1.7586218E0,8.3338076E-1,1.7245437E0,1.7994559E0,9.214541E-1],"categories":[],"categories_nodes":[],"categories_segments":[],"categories_sizes":[],"default_left":[true,true,true,true,true,true,true,true,true,true,true,true,true,true,true,true,true,true,true,true,true,true,true,false,false,true,false,true,true,true,true,true,true,true,true,true,false,true,true,true,true,false,false,false,false,true,true,true,false,true,false,true,true,true,false,true,true,true,true,false,false,true,true,true,true,true,false,false,true,true,true,true,false,false,false,true,true,true,true,false,true,true,false,true,true,true,true,true,false,true,true,true,true,true,true,false,false,true,true,false,false,false,false,true,false,false,false,false,false,false,false,false,true,true,true,true,true,true,true,true,true,true,true,true,true,false,true,false,true,true,true,true,false,false,false,false,false,true,true,true,true,true,true,true,false,true,true,true,true,false,true,false,false,true,false,false,true,false,true,false,false,true,true,true,false,true,true,false,false,true,true,true,false,true,true,false,true,true,true,false,false,false,true,false,false,false,false,true,true,false,false,true,false,true,true,true,false,false,false,true,true,true,true,false,false,true,true,false,true,true,false,false,true,false,false,true,true,true,false,false,false,false,true,true,false,false,false,true,false,false,false,true,true,false,false,true,true,true,false,true,false,true,true,false,false,false,true,false,true,false,false,false,true,false,true,true,true,true,true,true,true,true,true,false,true,false,false,false,false,false,false,true,true,false,false,true,false,false,false,true,true,false,true,false,true,true,false,false,false,false,true,false,false,false,false,true,false,true,false,true,true,false,true,true,true,true,true,false,false,true,true,true,false,true,false,true,true,true,false,false,false,true,true,true,false,false,false,true,false,true,false,true,false,true,false,false,false,false,false,false,true,true,false,false,false,true,false,false,false,true,true,true,true,false,true,false,true,true,false,true,true,true,false,true,true,true,false,false,false,false,false,false,true,true,false,false,true,true,false,true,false,false,false,true,true,true,true,true,false,true,false,false,false,false,true,false,false,true,true,true,false,true,true,true,true,true,true,false,false,true,true,true,false,false,true,true,true,false,false,true,false,true,true,false,false,false,false,false,true,true,false,false,true,false,false,false,false,false,false,false,false,false,false,false,false,false,false,false,false,false,false,true,true,false,false,false,false,false,false,false,false,false,false,false,false,false,false,false,false,false,false],"id":1,"left_children":[1,3,5,7,9,11,13,15,17,19,21,23,25,27,29,31,33,35,37,39,41,43,45,-1,-1,47,-1,49,51,53,55,57,59,61,63,65,-1,67,69,71,73,-1,-1,-1,-1,75,77,79,-1,81,-1,83,85,87,-1,89,91,93,95,-1,-1,97,99,101,103,105,-1,-1,107,109,111,113,-1,-1,-1,115,117,119,121,-1,123,125,-1,127,129,131,133,135,-1,137,139,141,143,145,147,-1,-1,149,151,-1,-1,-1,-1,153,-1,-1,-1,-1,-1,-1,-1,-1,155,157,159,-1,163,165,167,169,171,173,175,-1,179,-1,181,-1,183,185,187,189,-1,-1,-1,-1,-1,191,193,195,197,199,201,203,-1,205,207,209,211,-1,213,-1,-1,-1,-1,-1,217,-1,219,-1,-1,-1,-1,221,-1,223,225,-1,-1,227,229,231,-1,233,-1,-1,237,-1,-1,-1,-1,-1,239,-1,-1,-1,-1,241,243,-1,-1,245,-1,247,249,251,-1,-1,-1,253,255,257,259,-1,-1,261,263,-1,265,267,-1,-1,269,-1,-1,-1,-1,271,-1,-1,-1,-1,273,275,-1,-1,-1,277,-1,-1,-1,279,281,-1,-1,-1,-1,283,-1,285,-1,287,289,-1,-1,-1,291,-1,293,-1,-1,-1,295,-1,297,299,301,303,305,307,309,311,313,-1,-1,-1,-1,-1,-1,-1,-1,317,319,-1,-1,321,-1,-1,-1,323,325,-1,327,-1,329,331,-1,-1,-1,-1,333,-1,-1,-1,-1,335,-1,337,-1,339,341,-1,343,345,347,349,351,-1,-1,353,355,357,-1,359,-1,-1,-1,361,-1,-1,-1,363,365,367,-1,-1,-1,369,-1,371,-1,373,-1,375,-1,-1,-1,-1,-1,-1,377,379,-1,-1,-1,381,-1,-1,-1,383,385,387,389,-1,391,-1,393,395,-1,397,399,401,-1,403,405,407,-1,-1,-1,-1,-1,-1,-1,411,-1,-1,413,415,-1,417,-1,-1,-1,419,421,423,425,427,-1,429,-1,-1,-1,-1,431,-1,-1,433,435,437,-1,439,441,443,445,447,449,-1,-1,-1,-1,-1,-1,-1,453,455,457,-1,-1,459,-1,461,463,-1,-1,-1,-1,-1,465,467,-1,-1,469,-1,-1,-1,-1,-1,-1,-1,-1,-1,-1,-1,-1,-1,-1,-1,-1,-1,-1,-1,-1,-1,-1,-1,-1,-1,-1,-1,-1,-1,-1,-1,-1,-1,-1,-1,-1,-1,-1],"loss_changes":[2.2341316E4,4.96304E3,5.8580146E3,3.7754238E3,2.1511028E3,2.947212E2,4.619133E3,4.266797E2,9.110285E2,5.883667E1,7.203584E2,1.5071861E1,6.81001E1,1.3912725E3,2.5586406E3,3.1595703E2,3.7957855E2,2.672461E1,2.987696E2,2.5268677E1,2.1774567E1,1.0597839E1,4.1068286E2,0E0,0E0,2.0069336E1,0E0,1.4486523E2,6.9617896E2,7.3311035E1,1.0800254E3,1.2005469E2,1.4189284E2,1.3904144E2,1.5247482E2,3.5319683E1,0E0,1.964682E1,1.6938733E2,2.5688965E1,3.7016666E1,0E0,0E0,0E0,0E0,1.8504907E2,2.0296625E2,1.4385742E1,0E0,8.138611E1,0E0,2.9910196E2,1.5003705E2,1.1970154E1,0E0,7.5368494E2,8.021738E2,1.1636133E2,5.6419456E1,0E0,0E0,1.2225061E2,5.170994E0,7.751943E1,2.92603E1,9.194344E0,0E0,0E0,4.9420013E0,4.2112083E0,1.21313354E2,3.078003E0,0E0,0E0,0E0,5.6895653E1,1.578396E2,1.3490114E2,1.7085182E2,0E0,6.510498E0,3.0272339E1,0E0,3.8555763E1,2.4185913E2,8.325192E1,3.0187813E1,1.0637817E0,0E0,1.5033554E2,1.7312015E2,4.8349414E2,5.4260437E1,1.2036719E2,1.6221494E2,0E0,0E0,7.816437E1,4.3698635E1,0E0,0E0,0E0,0E0,9.758682E0,0E0,0E0,0E0,0E0,0E0,0E0,0E0,0E0,8.706726E1,9.595947E-1,4.591055E0,3.4459305E-1,4.4293655E1,9.507837E1,2.0331776E1,7.179166E1,6.4871185E1,4.0926373E1,5.475305E1,2.9833984E-1,1.5717518E1,0E0,2.6896362E1,0E0,2.5032806E0,3.8666725E1,1.4471375E2,3.4707947E0,0E0,0E0,0E0,0E0,0E0,5.792636E1,7.5385506E1,1.1008856E2,1.9560066E1,2.3804604E2,3.0671875E2,1.2401581E0,0E0,7.380469E1,9.858355E1,2.6906235E1,4.6105747E1,0E0,1.8973389E0,0E0,0E0,1.8707275E-1,0E0,0E0,5.969153E1,0E0,8.184448E0,0E0,0E0,0E0,0E0,3.3398117E1,0E0,6.675195E1,1.5879652E1,0E0,0E0,4.975063E1,2.008699E1,5.860652E1,0E0,3.6385757E1,2.8157043E-1,0E0,3.160373E1,0E0,0E0,0E0,0E0,0E0,7.696289E0,0E0,0E0,0E0,0E0,8.363513E1,1.1038528E1,0E0,0E0,1.4463318E1,0E0,4.5131073E1,1.6095287E1,5.364264E1,0E0,0E0,0E0,7.282383E1,1.8196272E2,1.8305078E2,1.7589874E2,0E0,0E0,6.3253906E1,8.37119E1,0E0,1.820102E1,2.5421753E0,0E0,0E0,2.7378944E1,0E0,0E0,0E0,0E0,4.5374146E1,0E0,0E0,0E0,0E0,1.1146889E0,5.071826E1,0E0,0E0,0E0,1.950032E1,0E0,0E0,0E0,3.3285767E1,3.8854515E1,0E0,0E0,0E0,0E0,1.0780579E1,0E0,5.0880127E0,0E0,6.452192E1,6.2197144E1,0E0,0E0,0E0,1.7866692E1,0E0,3.6920242E0,0E0,0E0,0E0,2.5132263E1,0E0,1.1424164E1,6.776166E1,2.1752834E1,7.021356E1,9.24082E1,2.4272156E1,1.6863277E2,1.4736911E2,4.9896484E1,0E0,2.8151512E-1,0E0,0E0,0E0,0E0,0E0,0E0,2.198462E1,3.745448E1,0E0,0E0,3.6838623E1,0E0,0E0,0E0,9.682068E0,2.8479288E1,0E0,3.16864E1,0E0,7.8468933E0,3.241455E0,0E0,0E0,0E0,0E0,3.9639526E1,0E0,0E0,0E0,0E0,4.9071655E0,0E0,3.2219696E0,0E0,3.3321198E1,4.2662514E1,0E0,2.0976486E0,3.6854885E1,1.9627735E1,2.4645496E2,5.4466797E1,0E0,0E0,5.115372E1,2.8013489E1,2.667598E1,0E0,4.497461E1,0E0,0E0,0E0,2.0361328E1,0E0,0E0,0E0,3.6185303E1,3.5053402E1,4.2065125E0,0E0,0E0,0E0,7.9788513E0,0E0,2.8417664E0,0E0,3.256958E0,0E0,3.494812E1,0E0,0E0,0E0,0E0,0E0,0E0,3.1149109E1,2.5168285E1,0E0,0E0,0E0,2.8205452E0,0E0,0E0,0E0,1.3201514E2,1.0946671E2,5.046875E1,4.0571E1,0E0,1.5369644E0,0E0,9.652405E0,1.9169617E0,0E0,2.421289E1,7.841778E1,9.14563E0,0E0,4.452948E1,1.6870361E1,7.98419E0,0E0,0E0,0E0,0E0,0E0,0E0,8.306885E-2,1.5704346E0,0E0,0E0,2.4233887E1,1.3691711E1,0E0,7.0724525E0,0E0,0E0,0E0,4.9950195E1,6.39308E1,2.9365448E1,1.6328796E1,4.7654297E1,0E0,2.4631569E1,0E0,0E0,0E0,0E0,3.5625E0,0E0,0E0,2.1654297E1,3.0825594E1,4.3659134E0,0E0,5.0456543E0,2.0812584E1,3.4943615E1,2.2761292E1,3.1634306E1,1.5417725E1,0E0,0E0,0E0,0E0,5.1513672E-2,0E0,0E0,1.8846924E1,5.4171143E0,1.3696485E1,0E0,0E0,4.542456E1,0E0,6.3040504E0,1.2042173E1,0E0,0E0,0E0,0E0,0E0,4.075586E1,2.5674973E0,0E0,0E0,2.7865906E0,0E0,0E0,0E0,0E0,0E0,0E0,0E0,0E0,0E0,0E0,0E0,0E0,0E0,0E0,0E0,0E0,0E0,0E0,0E0,0E0,0E0,0E0,0E0,0E0,0E0,0E0,0E0,0E0,0E0,0E0,0E0,0E0,0E0,0E0,0E0,0E0,0E0,0E0],"parents":[2147483647,0,0,1,1,2,2,3,3,4,4,5,5,6,6,7,7,8,8,9,9,10,10,11,11,12,12,13,13,14,14,15,15,16,16,17,17,18,18,19,19,20,20,21,21,22,22,25,25,27,27,28,28,29,29,30,30,31,31,32,32,33,33,34,34,35,35,37,37,38,38,39,39,40,40,45,45,46,46,47,47,49,49,51,51,52,52,53,53,55,55,56,56,57,57,58,58,61,61,62,62,63,63,64,64,65,65,68,68,69,69,70,70,71,71,75,75,76,76,77,77,78,78,80,80,81,81,83,83,84,84,85,85,86,86,87,87,89,89,90,90,91,91,92,92,93,93,94,94,97,97,98,98,103,103,112,112,113,113,114,114,115,115,116,116,117,117,118,118,119,119,120,120,121,121,122,122,123,123,124,124,126,126,128,128,129,129,130,130,131,131,137,137,138,138,139,139,140,140,141,141,142,142,143,143,145,145,146,146,147,147,148,148,150,150,153,153,156,156,158,158,163,163,165,165,166,166,169,169,170,170,171,171,173,173,174,174,176,176,182,182,187,187,188,188,191,191,193,193,194,194,195,195,199,199,200,200,201,201,202,202,205,205,206,206,208,208,209,209,212,212,217,217,222,222,223,223,227,227,231,231,232,232,237,237,239,239,241,241,242,242,246,246,248,248,252,252,254,254,255,255,256,256,257,257,258,258,259,259,260,260,261,261,262,262,264,264,271,271,272,272,275,275,279,279,280,280,282,282,284,284,285,285,290,290,295,295,297,297,299,299,300,300,302,302,303,303,304,304,305,305,306,306,309,309,310,310,311,311,313,313,317,317,321,321,322,322,323,323,327,327,329,329,331,331,333,333,340,340,341,341,345,345,349,349,350,350,351,351,352,352,354,354,356,356,357,357,359,359,360,360,361,361,363,363,364,364,365,365,372,372,373,373,376,376,377,377,379,379,383,383,384,384,385,385,386,386,387,387,389,389,394,394,397,397,398,398,399,399,401,401,402,402,403,403,404,404,405,405,406,406,411,411,414,414,415,415,416,416,419,419,421,421,422,422,428,428,429,429,432,432],"right_children":[2,4,6,8,10,12,14,16,18,20,22,24,26,28,30,32,34,36,38,40,42,44,46,-1,-1,48,-1,50,52,54,56,58,60,62,64,66,-1,68,70,72,74,-1,-1,-1,-1,76,78,80,-1,82,-1,84,86,88,-1,90,92,94,96,-1,-1,98,100,102,104,106,-1,-1,108,110,112,114,-1,-1,-1,116,118,120,122,-1,124,126,-1,128,130,132,134,136,-1,138,140,142,144,146,148,-1,-1,150,152,-1,-1,-1,-1,154,-1,-1,-1,-1,-1,-1,-1,-1,156,158,160,-1,164,166,168,170,172,174,176,-1,180,-1,182,-1,184,186,188,190,-1,-1,-1,-1,-1,192,194,196,198,200,202,204,-1,206,208,210,212,-1,214,-1,-1,-1,-1,-1,218,-1,220,-1,-1,-1,-1,222,-1,224,226,-1,-1,228,230,232,-1,234,-1,-1,238,-1,-1,-1,-1,-1,240,-1,-1,-1,-1,242,244,-1,-1,246,-1,248,250,252,-1,-1,-1,254,256,258,260,-1,-1,262,264,-1,266,268,-1,-1,270,-1,-1,-1,-1,272,-1,-1,-1,-1,274,276,-1,-1,-1,278,-1,-1,-1,280,282,-1,-1,-1,-1,284,-1,286,-1,288,290,-1,-1,-1,292,-1,294,-1,-1,-1,296,-1,298,300,302,304,306,308,310,312,314,-1,-1,-1,-1,-1,-1,-1,-1,318,320,-1,-1,322,-1,-1,-1,324,326,-1,328,-1,330,332,-1,-1,-1,-1,334,-1,-1,-1,-1,336,-1,338,-1,340,342,-1,344,346,348,350,352,-1,-1,354,356,358,-1,360,-1,-1,-1,362,-1,-1,-1,364,366,368,-1,-1,-1,370,-1,372,-1,374,-1,376,-1,-1,-1,-1,-1,-1,378,380,-1,-1,-1,382,-1,-1,-1,384,386,388,390,-1,392,-1,394,396,-1,398,400,402,-1,404,406,408,-1,-1,-1,-1,-1,-1,-1,412,-1,-1,414,416,-1,418,-1,-1,-1,420,422,424,426,428,-1,430,-1,-1,-1,-1,432,-1,-1,434,436,438,-1,440,442,444,446,448,450,-1,-1,-1,-1,-1,-1,-1,454,456,458,-1,-1,460,-1,462,464,-1,-1,-1,-1,-1,466,468,-1,-1,470,-1,-1,-1,-1,-1,-1,-1,-1,-1,-1,-1,-1,-1,-1,-1,-1,-1,-1,-1,-1,-1,-1,-1,-1,-1,-1,-1,-1,-1,-1,-1,-1,-1,-1,-1,-1,-1,-1],"split_conditions":[-4.016553E-1,5.1295185E-1,-5.134524E-1,6.753249E-1,-4.1131413E-1,-2.0069085E-1,-4.0939307E-1,-1.594119E-1,-4.4197878E-1,-5.7844885E-2,-8.307482E-1,-2.2805801E-1,5.1368704E0,-2.9806787E-1,-7.583029E-1,-2.8277155E-2,2.4346376E-2,-2.2066724E-1,-7.934092E-1,-3.021073E-1,-1.1970323E-1,2.4047756E0,2.3713531E-2,1.3649498E-2,1.7819834E-1,-3.5150126E-3,8.730357E-2,9.727948E-1,1.1596711E-1,4.229708E0,-4.032851E-1,1.4250325E-2,4.910044E-1,-1.5567638E-2,-3.576261E-1,1.4727752E-1,-1.8250516E-1,-9.269099E-1,-4.3725157E-1,1.6915183E0,8.78525E-1,-8.1958905E-2,1.4565536E-1,-1.8201415E-1,-4.794857E-2,-3.3911186E-1,-2.7792776E-1,-5.8039194E-1,-3.7965365E-2,1.831024E0,1.6315782E-1,-8.91815E-1,7.046694E-1,1.7748873E-1,1.2035864E-1,-3.337772E-1,2.842095E-1,2.7567708E0,2.39178E0,-1.7246127E-1,1.7899518E-1,3.3112133E-1,1.8467125E0,3.3882596E-3,1.3131097E-1,1.3572228E-1,5.8793396E-2,2.2398047E-2,6.942028E-1,-2.231984E-1,-8.8932514E-1,6.424866E-1,1.2844003E-2,4.4339463E-2,-1.6279349E-1,-4.8082995E-1,2.696872E-1,-3.259644E-1,-5.5149657E-1,-4.4692423E-2,-1.9621041E-1,-2.682653E-1,9.195262E-2,-1.2838477E-1,-5.668545E-1,7.4857223E-1,2.600413E-1,-4.2485774E-2,-6.2380742E-2,1.07108176E-1,-1.3168243E-1,-3.2793042E-1,2.0656496E-1,3.7625551E0,-8.035095E-1,1.6075674E-1,-1.6157775E-1,3.285386E-1,-3.1478035E-1,5.1542003E-2,1.6791944E-1,-1.790838E-1,1.07245184E-1,5.8169268E-2,-4.0962573E-2,-1.7034559E-1,-3.575857E-2,-1.6737065E-1,-7.575979E-2,-6.674727E-2,-1.75447E-1,-1.5350822E-1,-4.775348E-1,3.149979E-1,2.2147241E-1,-1.6353534E-1,-8.21701E-2,1.3293298E-1,1.2951604E-1,7.4278843E-1,1.8922033E0,-2.9687995E-1,-9.626112E-1,-1.8059662E-1,-9.34128E-2,2.9329633E-2,-2.197825E0,4.80038E-2,1.0424744E0,9.207436E-1,8.292344E-1,-2.0704779E-1,1.329857E-1,-6.039853E-2,1.7647769E-1,-1.088979E-1,-1.8282038E-1,-2.5254756E-2,-8.2447305E-2,5.4331326E-1,1.6366735E-2,-2.502238E-1,6.0359275E-1,2.5391411E-2,7.1175866E-2,5.688452E0,2.0803547E-1,2.5432074E-1,-1.0935205E-1,1.10544994E-1,1.8541189E-1,-1.09393775E-1,1.7212282E-1,1.7490312E-1,4.5255583E-2,-1.1512613E-1,1.9871483E0,-1.807248E-1,-5.056697E-1,-1.651937E-1,-4.700422E-2,-1.0856736E-1,-1.822084E-1,-4.6172637E-1,-1.5985522E-1,2.8098478E0,5.264549E-1,-8.670659E-4,-1.7412007E-1,-2.3593135E-1,-4.1282535E-1,2.785168E0,1.19003825E-1,-1.1067681E0,-1.6357915E-1,-1.1444028E-1,-7.834272E-2,-1.8108313E-1,-1.1480297E-1,-1.666141E-1,-1.495024E-2,1.6848689E-2,-2.9602092E-2,-1.8100695E-1,-9.25734E-2,-1.7525476E-1,7.3072396E-2,-8.123393E-1,1.2636355E-1,-1.8172918E-1,-9.94231E-2,-2.7798176E-1,1.0516454E-1,-7.796005E-1,-2.3338975E-2,-5.557807E-1,-1.3358147E-1,-1.6033709E-1,1.3226188E-2,-7.536346E-1,2.188966E-2,-5.409013E-1,-6.736026E-1,-1.7981933E-1,-1.03810504E-1,-5.2477145E-1,-2.6624268E-1,-1.7507413E-1,-1.651324E-1,1.0549414E0,-7.846087E-3,-1.16041295E-1,-2.3036708E-1,-1.7943598E-1,-1.1292847E-1,1.8062411E-1,1.20332085E-1,9.283469E-1,-7.218045E-2,-1.6990346E-1,-4.8518103E-2,-8.464181E-2,-7.834675E-2,3.7138343E0,-1.3479245E-1,1.9108817E-2,-1.4720364E-1,4.1755265E-1,1.1458645E-1,-4.8270533E-3,1.7583854E-1,-4.190319E-1,-5.495398E-1,-1.1738614E-1,1.3660347E-1,-1.08390465E-1,-1.7950617E-1,-9.5625174E-1,-2.214264E-2,1.3105072E-1,-7.1908385E-2,-7.523483E-1,-5.4894865E-1,-1.8339299E-2,-1.7206274E-1,-1.8293843E-1,2.0353411E-1,7.655542E-2,-4.8127708E-1,1.7060797E-1,-4.5883204E-4,-6.4477496E-2,1.975196E-1,1.2449858E-1,1.8369606E0,-1.11664906E-1,6.850935E-2,-1.1559406E-1,-1.4202805E-1,-1.7022654E-1,-1.9402237E-1,4.744076E-1,4.7630606E0,-1.598371E-1,1.3883884E-1,1.7159486E-1,-1.3853708E-2,-1.8000618E-1,-1.036116E-1,-3.6795206E-2,1.6885518E-1,1.606493E0,-1.0591855E0,9.46992E-2,1.7354931E-1,8.5565954E-1,-9.658626E-2,-1.7281453E-1,1.9032223E-2,-2.5092715E-1,-7.306549E-2,-1.672468E-1,7.2525847E-1,3.8517203E-2,-3.8158476E-1,2.659384E0,-8.0074035E-2,1.3108547E-1,-1.6912429E-1,-8.2064934E-2,7.7836335E-1,3.479442E-2,-1.5728192E-1,-1.7365241E-1,-7.345614E-2,-1.1851411E0,3.521825E-2,2.4615033E-3,-3.998322E-2,-9.198893E-1,2.0111775E-1,3.1803112E-2,-3.571484E-1,2.5900158E-1,-6.307852E-1,6.453304E-1,2.5923238E0,-1.630022E-2,-1.7490818E-1,3.6531724E-2,-3.3229345E-1,2.539772E0,1.5866435E-1,6.4480352E0,1.5004612E-2,9.4018735E-2,1.636518E-1,1.4667597E0,4.023769E-2,1.5264897E-1,-1.3162449E-1,-1.1068956E0,-1.2628314E-1,1.2997851E0,-6.110811E-2,-1.4984533E-1,7.8016035E-2,2.5848773E-1,-8.649912E-2,-8.564226E-1,6.1022855E-2,2.2651201E-2,-9.594461E-2,-7.269298E-1,-4.809983E-2,7.977777E-2,1.8074752E-1,-1.7986552E-1,-8.931256E-2,-2.05265E-2,1.4751581E0,1.517385E-1,-1.4718708E-1,-8.9419335E-2,-1.7614803E-1,5.527734E-1,7.398171E-2,-2.7495353E-2,1.5888809E-1,7.610415E-1,9.103199E-2,3.0209875E0,3.469068E-2,1.12475775E-1,-6.206172E-2,-5.632488E-3,-3.410901E-2,1.6971476E-1,4.7384007E-3,4.1376276E0,3.4353454E0,2.260271E-1,4.8029646E-3,2.6016825E-1,-7.895653E-1,1.045719E0,-1.3851587E-1,-1.8181275E-1,-9.636744E-2,3.1244976E-2,1.5552096E-1,9.6398905E-2,1.7773882E-1,2.3044116E0,-9.974757E-2,-5.2264124E-2,-7.992556E-1,8.616484E-1,-3.736381E-2,-1.0853319E-1,-6.0220134E-2,-1.7644845E-1,-8.235181E-2,1.8953619E0,-3.4557736E-1,-6.438387E-1,-1.8531156E-1,-1.6603761E0,-4.908896E-2,-4.0853657E-2,-1.1750289E-1,-9.604648E-2,-1.7883961E-1,7.0746295E-2,-4.160328E-1,-1.7661016E-1,-9.594782E-2,2.3220135E1,6.5743494E-1,1.564774E-2,1.5876079E-1,-4.338032E-1,1.9119197E-1,5.6746113E-1,6.7492455E-1,3.9913068E0,2.325723E0,2.933392E-2,1.7320578E-1,1.803916E-1,1.1567501E-1,-1.8090467E-1,-1.0368886E-1,3.1161195E-2,8.486081E-1,1.1738421E0,-1.4682224E-1,4.668587E-2,1.6567321E-1,-9.946708E-2,-7.239532E-2,-7.2500324E-1,-4.363906E-2,4.0411633E-2,-1.7580608E-1,1.7032872E-1,-6.314379E-3,-7.366835E-2,-6.7930436E-1,-1.1401911E0,-1.2132676E-2,8.2730666E-2,4.129355E-1,-1.8005632E-1,-5.5117556E-3,-1.6655056E-1,9.3934946E-2,-1.7430536E-1,-6.987866E-2,9.837347E-2,1.80044E-1,-3.1495202E-2,1.5885095E-1,-3.61494E-2,1.4972448E-1,1.5749866E-1,-1.4920512E-2,-7.029475E-2,1.7177773E-1,1.7624967E-1,5.332933E-2,-1.8185471E-1,-1.351189E-1,1.7113589E-1,2.6895124E-2,1.7040764E-1,6.808735E-2,-3.3447336E-2,1.3164508E-1,1.7213471E-1,8.766758E-2,-1.7168263E-1,-4.9182687E-2,7.2520957E-3,1.709492E-1,3.9299123E-2,1.7586218E-1,8.3338074E-2,1.7245437E-1,1.7994559E-1,9.2145406E-2],"split_indices":[993,566,587,681,684,993,535,1057,586,1346,538,580,670,566,538,1667,566,553,680,657,1128,504,527,0,0,1765,0,2046,820,824,586,3019,856,880,834,537,0,559,566,1259,657,0,0,0,0,586,704,590,0,681,0,599,566,992,0,672,1135,499,3019,0,0,681,1001,774,634,1141,0,0,250,628,599,587,0,0,0,670,750,628,827,0,1128,993,0,532,586,681,685,993,0,566,786,519,554,880,538,0,0,1057,820,0,0,0,0,753,0,0,0,0,0,0,0,0,684,681,325,410,621,1143,549,586,682,519,530,1580,914,0,505,0,196,1251,1128,666,0,0,0,0,0,1592,783,614,685,684,820,504,0,1266,538,1141,564,0,1001,0,0,620,0,0,695,0,684,0,0,2147483647,2147483647,530,0,553,584,0,0,688,499,566,0,698,508,0,786,2147483647,2147483647,0,0,0,1666,0,0,0,0,595,670,0,0,704,0,375,605,628,0,0,0,527,820,685,734,0,0,590,781,0,593,347,0,0,783,0,0,2147483647,2147483647,600,0,0,0,0,221,522,0,0,0,828,0,0,0,780,444,0,0,2147483647,2147483647,540,0,982,0,603,684,0,0,0,704,0,586,0,0,0,991,0,566,786,993,1522,566,992,587,681,684,0,143,0,0,0,0,0,0,715,623,0,0,731,0,0,0,756,685,0,628,0,605,499,0,0,0,0,781,0,0,0,0,605,0,681,0,632,527,0,590,635,684,717,522,0,0,993,1014,522,0,657,0,2147483647,2147483647,580,0,0,0,698,532,681,0,0,0,621,0,198,0,1337,0,538,0,0,0,0,0,0,761,605,0,0,0,467,0,0,0,1290,681,712,1000,0,699,0,586,566,0,580,1744,634,0,586,680,564,0,0,0,0,0,0,657,709,0,0,553,277,0,456,0,0,0,672,550,508,505,625,0,634,0,0,0,0,684,0,0,2689,664,787,0,579,586,682,683,566,670,0,0,2147483647,2147483647,1275,0,0,756,486,310,0,0,698,0,544,681,0,0,0,0,0,579,638,0,0,879,0,0,0,0,0,0,0,0,0,0,0,0,0,0,0,0,0,0,2147483647,2147483647,0,0,0,0,0,0,0,0,0,0,0,0,0,0,0,0,0,0],"split_type":[0,0,0,0,0,0,0,0,0,0,0,0,0,0,0,0,0,0,0,0,0,0,0,0,0,0,0,0,0,0,0,0,0,0,0,0,0,0,0,0,0,0,0,0,0,0,0,0,0,0,0,0,0,0,0,0,0,0,0,0,0,0,0,0,0,0,0,0,0,0,0,0,0,0,0,0,0,0,0,0,0,0,0,0,0,0,0,0,0,0,0,0,0,0,0,0,0,0,0,0,0,0,0,0,0,0,0,0,0,0,0,0,0,0,0,0,0,0,0,0,0,0,0,0,0,0,0,0,0,0,0,0,0,0,0,0,0,0,0,0,0,0,0,0,0,0,0,0,0,0,0,0,0,0,0,0,0,0,0,0,0,0,0,0,0,0,0,0,0,0,0,0,0,0,0,0,0,0,0,0,0,0,0,0,0,0,0,0,0,0,0,0,0,0,0,0,0,0,0,0,0,0,0,0,0,0,0,0,0,0,0,0,0,0,0,0,0,0,0,0,0,0,0,0,0,0,0,0,0,0,0,0,0,0,0,0,0,0,0,0,0,0,0,0,0,0,0,0,0,0,0,0,0,0,0,0,0,0,0,0,0,0,0,0,0,0,0,0,0,0,0,0,0,0,0,0,0,0,0,0,0,0,0,0,0,0,0,0,0,0,0,0,0,0,0,0,0,0,0,0,0,0,0,0,0,0,0,0,0,0,0,0,0,0,0,0,0,0,0,0,0,0,0,0,0,0,0,0,0,0,0,0,0,0,0,0,0,0,0,0,0,0,0,0,0,0,0,0,0,0,0,0,0,0,0,0,0,0,0,0,0,0,0,0,0,0,0,0,0,0,0,0,0,0,0,0,0,0,0,0,0,0,0,0,0,0,0,0,0,0,0,0,0,0,0,0,0,0,0,0,0,0,0,0,0,0,0,0,0,0,0,0,0,0,0,0,0,0,0,0,0,0,0,0,0,0,0,0,0,0,0,0,0,0,0,0,0,0,0,0,0,0,0,0,0,0,0,0,0,0,0,0,0,0,0,0,0,0,0,0,0,0,0,0,0,0,0,0,0,0,0],"sum_hessian":[2.202945E4,1.0317588E4,1.171186E4,8.1866357E3,2.1309524E3,8.374679E2,1.0874393E4,7.3948076E3,7.9182837E2,4.7210593E2,1.6588466E3,3.0765654E1,8.067022E2,1.4563802E3,9.418012E3,6.964085E3,4.307225E2,1.5042595E2,6.414024E2,4.5721017E2,1.4895762E1,1.0267072E2,1.5561758E3,7.445854E0,2.33198E1,7.9724054E2,9.461676E0,6.5578723E2,8.0059296E2,2.630726E2,9.154939E3,6.9117886E3,5.229655E1,3.010446E2,1.2967792E2,4.225194E1,1.0817401E2,4.8891777E1,5.925106E2,4.2298026E2,3.422991E1,7.4361124E0,7.45965E0,9.548091E1,7.1898108E0,1.076307E3,4.798688E2,7.86073E2,1.1167561E1,6.429024E2,1.2884804E1,6.081567E2,1.924363E2,2.5514383E2,7.928767E0,5.4544806E2,8.609491E3,6.889237E3,2.2551558E1,1.5611605E1,3.6684948E1,2.8220184E2,1.8842749E1,4.0675117E1,8.90028E1,3.056991E1,1.1682032E1,7.959398E0,4.0932377E1,2.0356596E1,5.7215405E2,4.1577213E2,7.208112E0,1.3899767E1,2.0330143E1,5.888455E1,1.0174224E3,2.6289777E2,2.1697104E2,8.926514E0,7.771465E2,6.31491E2,1.1411399E1,5.4862907E1,5.5329376E2,1.6888884E2,2.3547453E1,2.4495973E2,1.01841E1,2.5179953E2,2.936485E2,8.523805E3,8.568732E1,6.7440957E3,1.4514093E2,1.535961E1,7.191948E0,2.5989096E2,2.2310871E1,7.2029777E0,1.1639771E1,2.727694E1,1.3398177E1,8.180143E1,7.201368E0,2.3368116E1,7.2017927E0,3.051048E1,1.0421897E1,7.200614E0,1.3155983E1,1.2421343E1,5.597327E2,4.0113354E2,1.4638594E1,2.1629923E1,3.7254623E1,9.9108636E2,2.6336052E1,8.459305E1,1.783047E2,4.5206352E1,1.717647E2,7.416993E2,3.5447174E1,7.188496E0,6.2430255E2,9.4478035E0,4.5415104E1,3.842189E1,5.148719E2,1.6046751E2,8.421326E0,7.197933E0,1.634952E1,7.196248E0,2.3776349E2,1.8361041E2,6.818912E1,2.643996E2,2.9248909E1,3.723891E2,8.151415E3,7.6018486E1,9.668836E0,6.699952E3,4.4143635E1,9.993467E1,4.520626E1,9.183176E0,2.507078E2,7.681679E0,1.4629192E1,7.461027E1,7.1911616E0,1.1157914E1,5.4857477E2,3.624298E2,3.8703724E1,7.4461226E0,7.192471E0,7.2125206E0,1.4417402E1,2.9298903E1,7.9557214E0,9.6920325E2,2.1883135E1,1.2441589E1,1.3894464E1,3.7954422E1,4.663863E1,1.6488145E2,1.3423252E1,2.0867693E1,2.4338657E1,7.451859E0,1.6431282E2,7.3451556E2,7.183722E0,2.6019045E1,9.428127E0,7.182902E0,6.171196E2,3.8206806E1,7.2082996E0,3.1233068E1,7.1888227E0,4.938129E2,2.1058971E1,1.5105165E2,9.41587E0,1.7641893E2,7.1914787E0,3.8700676E1,2.9488443E1,2.5175507E2,1.2644521E1,2.007162E1,9.177288E0,7.338634E1,2.9900278E2,7.9380786E3,2.1333673E2,6.88357E1,7.1827803E0,6.663523E3,3.642928E1,1.9326672E1,2.4816965E1,8.87299E1,1.1204768E1,9.433265E0,3.5772995E1,2.398024E2,1.0905382E1,6.543993E1,9.170335E0,5.381513E2,1.0423454E1,3.0754316E1,7.9494085E0,7.2178993E0,2.2081003E1,9.62004E2,7.199254E0,1.269171E1,9.191424E0,2.4556765E1,1.3397656E1,7.196634E0,3.9441998E1,1.2040776E2,4.4473694E1,9.189087E0,1.1678606E1,7.1989717E0,1.7139687E1,1.5463321E2,9.679624E0,6.0819684E2,8.922807E0,2.6807774E1,4.6700513E2,7.191331E0,1.386764E1,1.575736E2,1.884534E1,1.2145001E1,2.6555676E1,2.2295488E1,7.192956E0,9.667839E0,2.4208723E2,1.0414003E1,6.2972332E1,2.6308286E2,3.5919914E1,6.344388E1,7.8746343E3,4.511359E1,1.6822314E2,1.0630789E2,6.5572153E3,2.1062796E1,1.5366486E1,1.7620651E1,7.196314E0,7.904986E1,9.68004E0,7.9408607E0,2.7832132E1,5.21527E2,1.6624357E1,7.192689E0,1.4888315E1,9.5478345E2,7.2205667E0,1.7369822E1,7.1869426E0,1.0003011E2,2.037765E1,1.0194548E1,3.427915E1,7.4525776E0,1.4718063E2,6.0051715E2,7.6796756E0,1.2427967E1,1.43798065E1,1.0666995E1,4.5633813E2,7.44019E0,1.1405151E1,1.9357635E1,7.1980405E0,2.2845557E2,1.3631673E1,5.4283394E1,8.688936E0,2.1767825E2,4.54046E1,7.1828146E0,2.8737099E1,3.4708775E1,2.8735104E1,9.6948035E2,6.9051543E3,1.4133821E1,3.0979767E1,3.567386E1,1.3254929E2,8.8700714E1,1.760718E1,6.544067E3,1.3148045E1,7.1822147E0,8.184271E0,5.078585E2,1.3668499E1,7.6826777E0,8.941679E0,9.316589E2,2.3124592E1,9.0077415E1,9.952698E0,8.687748E0,1.1689902E1,2.3087763E1,1.1191383E1,1.392319E2,7.9487214E0,5.920956E2,8.421552E0,4.474208E2,8.917329E0,7.1967363E0,2.2125882E2,4.659655E1,7.686844E0,1.1947947E1,2.0573032E2,3.3230213E1,1.2174382E1,7.1889772E0,2.1548122E1,2.577838E1,8.930395E0,7.18495E0,2.1550154E1,9.020599E2,6.7420456E1,6.8533022E3,5.1851864E1,8.183945E0,2.7489912E1,1.11595955E1,1.2138969E2,7.9023445E1,9.677266E0,6.504436E3,3.9631187E1,5.006374E2,7.2210784E0,1.8176224E2,7.498966E2,1.5914287E1,7.210306E0,7.988618E1,1.0191236E1,8.684799E0,1.4402965E1,8.445926E0,1.3078598E2,5.8292773E2,9.167871E0,7.1909027E0,4.4022992E2,1.9753664E2,8.193667E0,2.2804478E1,1.0425737E1,1.8586452E1,7.191927E0,8.6167847E2,4.038143E1,4.263883E1,2.4781631E1,6.8436406E3,9.6619215E0,4.3155403E1,8.696459E0,7.1802635E0,2.0309649E1,1.312953E1,1.08260155E2,7.183329E1,7.1901555E0,6.4878286E3,1.6607082E1,2.9465279E1,1.0165909E1,4.7083615E2,2.9801235E1,4.2463203E1,1.3929903E2,2.085919E1,7.290374E2,7.202042E0,8.712244E0,1.2359658E2,7.1893997E0,5.757465E2,7.181221E0,1.388515E1,4.2634476E2,1.7695152E2,2.0585125E1,9.172686E0,1.3631792E1,8.5324603E2,8.432417E0,2.179345E1,1.858798E1,7.1892753E0,3.544955E1,1.7596075E1,7.185556E0,7.1851387E0,6.836455E3,3.1238281E1,1.1917122E1,7.1857224E0,1.0107443E2,6.4806494E3,7.1793523E0,9.418257E0,7.188826E0,2.2283228E1,7.182051E0,1.1655855E1,4.591803E2,7.203942E0,2.2597294E1,2.7820137E1,1.46430645E1,1.313477E2,7.9513364E0,8.198901E0,1.266029E1,7.17612E2,1.1425447E1,5.6113135E2,1.4615137E1,4.1666763E2,9.677129E0,1.6976466E2,7.186859E0,7.1993036E0,1.3385821E1,7.8038794E2,7.2858086E1,1.461102E1,7.18243E0,7.19449E0,1.139349E1,2.2584478E1,6.8138706E3,7.192179E0,2.4046103E1,9.3890594E1,7.1838427E0],"tree_param":{"num_deleted":"14","num_feature":"4225","num_nodes":"471","size_leaf_vector":"0"}},{"base_weights":[-3.3871635E-4,-1.5305107E0,1.1553912E0,-1.5755025E0,-5.795518E-2,-7.3566145E-1,1.360107E0,-8.714966E-1,-1.6450927E0,-8.267537E-1,1.1923279E0,-1.0725117E0,1.3479617E0,-1.1988733E0,1.4136091E0,-1.1484127E0,6.111937E-1,-1.648661E0,1.1102815E0,-1.0579149E0,1.0138301E0,-1.0650417E0,1.4156842E0,-1.5622362E0,3.2034967E-2,-5.8702004E-1,1.5207734E0,7.715595E-1,-1.3803495E0,1.4427416E0,-1.5650262E0,-1.3631194E0,4.681137E-1,-1.6582247E0,1.0204579E0,-1.65411E0,-2.884353E-1,-1.2679317E0,5.220746E-1,1.6649426E0,-1.1644656E-1,1.5576879E0,-3.2400256E-1,-1.5872463E0,8.067821E-1,-5.736261E-1,1.3495387E0,-1.6854756E-1,1.6034137E0,-3.563933E-1,1.4962001E0,-1.5170827E0,1.068389E0,7.6632196E-1,1.5369806E0,-1.696937E0,2.3020937E-1,-1.4823493E0,1.0417572E0,-1.1827593E0,1.1395445E0,-1.5838945E0,1.2370359E0,-1.6579229E0,6.670184E-2,-1.624405E0,1.5664043E0,-1.4936272E0,6.716885E-1,-9.3586737E-1,1.6144295E0,1.6586955E0,3.425128E-1,-1.6173192E0,4.255347E-1,-1.0085484E0,8.2392555E-1,-8.0165845E-1,1.5389321E0,1.6552376E0,5.775547E-1,-1.6365005E0,3.00221E-1,1.1328038E0,-8.0169246E-2,-1.5817769E0,1.5474793E0,-1.5343037E0,2.9915813E-1,-3.8978446E-1,1.5819352E0,-1.6277777E0,-1.1021738E-1,2.3846896E-1,1.4381365E0,1.4896783E0,-7.7631783E-1,-1.6611166E0,-1.2484461E-1,-1.5219593E0,1.4937822E0,-1.6575418E0,2.892623E-1,-1.6518954E0,-8.618792E-1,-1.2339453E0,1.1123903E0,-1.0158421E0,1.5050137E0,1.9913143E-1,1.6523087E0,8.835945E-1,1.6901585E0,-1.6643683E0,-9.438625E-1,-9.0473473E-1,1.2160244E0,4.871706E-1,-7.7185684E-1,-1.7295412E0,-9.306881E-1,-1.3919214E0,1.5566761E0,-1.5679648E0,3.3133408E-1,-8.112771E-1,1.4046807E0,-9.4640726E-1,1.3327338E0,1.600807E0,7.775282E-1,1.6102806E0,5.017523E-2,-1.6712248E0,-1.3037794E0,-1.1474872E0,1.1413753E0,-9.918084E-1,-1.7053139E0,-1.668087E0,-1.2780674E-1,-1.3529444E0,7.9038566E-1,-1.5334216E-1,-1.5181222E0,1.5516005E0,4.5694274E-1,1.6736331E0,8.3243024E-1,1.6990919E0,9.940108E-1,-1.5209298E0,4.3588796E-1,-1.4684371E0,1.2725186E0,-1.4761603E0,8.038959E-1,2.0767069E-1,-1.4110128E0,-1.6339896E0,-5.292798E-1,1.1511471E0,1.5913451E0,-1.5969232E0,5.7122755E-1,1.6561978E0,9.7557914E-1,-1.6725601E0,-4.47041E-1,-1.5819665E0,1.3400611E-1,-1.7447451E0,-1.0249834E0,-1.6764582E0,-7.816086E-1,-1.6424592E0,-5.1889384E-1,1.1750493E0,-1.4112813E0,-1.5886674E0,-3.4420612E-1,-1.6843704E0,-9.805472E-1,1.4390063E0,5.870869E-1,-6.997785E-1,-1.7314569E0,1.3209579E0,1.2178157E-1,-1.191867E0,7.2001696E-1,-6.063238E-1,-1.6460365E0,-1.4450829E0,1.2260674E0,1.5963777E0,-7.6356363E-1,-1.6128346E0,-3.384769E-1,-1.6736896E0,-3.9493433E-1,-3.3740202E-1,-1.6613811E0,-1.5985223E0,1.4403539E0,-1.684946E0,-8.1383604E-1,1.6015946E0,5.9749126E-1,-4.5984828E-1,-1.684584E0,1.4909533E0,2.1735605E-2,1.0888915E0,-6.247244E-1,1.4753624E0,-1.566189E-1,-1.3557669E0,6.71415E-1,-1.608433E0,-3.995772E-1,-9.404896E-1,1.1502396E0,1.1462153E-1,-1.5687159E0,-1.7050334E0,-8.8727623E-1,-1.6552545E0,-8.986753E-1,1.4016783E0,4.3642086E-1,1.0591589E0,1.6171684E0,-1.6393048E0,6.363521E-1,-1.6279275E0,-5.513373E-1,-1.6748616E0,-6.099374E-1,1.5964447E0,9.6707827E-1,-1.7215472E0,-1.0940504E0,1.5181388E0,-3.4971276E-1,9.464554E-1,-9.0437204E-1,-9.413562E-1,1.3205793E0,-1.241726E0,1.165121E0,1.567114E0,2.7491528E-1,-7.814612E-1,-1.66027E0,1.0707761E0,-8.2359767E-1,1.4886878E0,-3.1880847E-1,-7.870291E-1,1.0296296E0,-1.1964631E0,1.4473658E0,1.346446E0,-3.104182E-1,1.3665663E0,-7.8827345E-1,-1.9291827E-2,1.6206936E0,-6.313001E-1,-1.6411692E0,-1.6762991E0,-8.41658E-1,1.5475577E0,7.401395E-2,1.462077E0,-6.2387866E-1,-1.581884E0,-6.4396195E-2,1.6580324E0,4.3570197E-1,1.3254383E0,-2.6616275E-1,7.4084145E-1,1.6524016E0,1.4775544E0,-7.359285E-1,-2.3421703E-1,1.5621252E0,-1.2865489E0,1.2045399E0,1.4400593E0,-4.512771E-1,4.893242E-1,-1.5549481E0,-1.1048937E0,1.4977177E0,1.0917124E0,1.630919E0,-1.6531761E0,-6.962842E-1,-1.6773173E0,-5.871815E-1,-1.5129365E0,-2.4675734E-2,1.5686647E0,1.6214432E-1,1.5938625E0,-2.6913533E-1,-1.7731408E0,-8.615119E-1,1.052646E0,1.7002817E0,1.586048E0,3.6345905E-1,5.465083E-1,1.5238278E0,1.676952E0,8.858973E-1,-1.5598049E0,-5.0592035E-1,1.5996021E0,-2.5365938E-2,1.5013179E0,-4.7975254E-1,-7.4117935E-1,1.4794614E0,-1.6901637E0,-9.860107E-1,1.2144713E0,-1.26247E0,3.7624225E-1,1.6332059E0,-1.670309E0,-9.575893E-1,-1.6781874E0,-7.60073E-1,1.5871524E0,2.18379E-1,1.668167E0,7.9748017E-1,1.4155053E0,-1.3545008E0,1.5485973E0,-2.55076E-1,-9.0671664E-1,-1.7039104E0,1.5563426E0,-4.0273625E-1,1.3844051E0,-1.955265E-1,-5.82742E-1,1.4094349E0,1.8020366E-1,1.6349537E0],"categories":[],"categories_nodes":[],"categories_segments":[],"categories_sizes":[],"default_left":[true,true,true,true,true,true,true,true,true,true,true,true,true,true,true,true,true,true,false,true,true,false,true,true,true,false,true,true,true,true,true,true,true,false,true,true,true,true,true,false,false,true,false,true,false,true,true,false,true,false,false,true,false,true,true,false,false,true,true,true,true,false,true,true,true,false,false,true,false,false,false,false,false,true,false,true,true,false,true,true,false,true,false,true,true,true,true,true,true,false,false,false,false,true,true,true,false,true,true,false,false,true,false,true,true,true,true,false,true,false,true,false,false,false,false,true,true,true,true,false,false,true,true,true,false,false,false,false,false,false,false,true,false,true,true,false,false,false,true,true,false,true,false,true,true,false,false,false,false,false,false,false,false,true,true,true,true,true,true,false,false,true,true,true,false,false,false,true,false,true,true,false,false,true,false,false,false,true,false,true,false,true,true,true,true,false,false,true,true,true,true,true,true,true,true,true,true,true,false,true,false,false,false,false,true,false,false,false,false,false,true,true,true,true,true,true,false,true,true,false,false,false,true,true,false,false,false,false,false,true,true,true,true,false,false,true,false,true,false,true,true,true,true,true,false,false,false,false,true,true,false,true,false,false,false,true,false,true,false,false,false,false,true,true,true,true,true,true,true,false,true,true,true,true,false,true,false,true,false,true,false,true,false,false,false,true,false,false,true,true,true,true,false,true,true,false,false,true,true,true,false,true,false,false,false,true,false,true,false,false,false,true,true,false,false,true,true,false,false,true,false,false,false,true,false,false,false,false,false,true,false,true,true,false,false,false,false,false,false,false,false,false,false,false,false,false,false,false,false,false,false,false,false,false,false],"id":2,"left_children":[1,3,5,7,9,11,13,15,17,19,21,23,25,27,29,31,33,35,-1,37,39,-1,41,43,45,-1,47,49,51,53,55,57,59,-1,61,63,65,67,69,-1,-1,71,-1,73,-1,75,77,-1,79,-1,-1,81,-1,83,85,-1,-1,87,89,91,93,-1,95,97,99,-1,-1,101,-1,-1,-1,-1,-1,103,-1,105,107,-1,109,111,-1,113,-1,115,117,119,121,123,125,-1,-1,-1,-1,127,129,131,-1,133,135,-1,-1,137,-1,139,141,143,145,-1,147,-1,149,-1,-1,-1,-1,151,153,155,157,-1,-1,159,161,163,-1,-1,-1,-1,-1,-1,-1,165,-1,167,169,-1,-1,-1,171,173,-1,175,-1,177,179,-1,-1,-1,-1,-1,-1,-1,-1,-1,183,185,187,189,191,-1,-1,193,195,197,-1,-1,-1,199,-1,201,203,-1,-1,205,-1,-1,-1,207,-1,209,-1,-1,-1,211,213,-1,-1,215,217,219,221,223,225,227,229,231,233,235,-1,237,-1,-1,-1,-1,-1,-1,-1,-1,-1,-1,-1,243,245,247,249,251,-1,253,255,-1,-1,-1,257,259,-1,-1,-1,-1,-1,261,263,265,267,-1,-1,269,-1,271,-1,-1,-1,-1,-1,273,-1,-1,-1,-1,275,277,-1,279,-1,-1,-1,281,-1,283,-1,-1,-1,-1,285,287,289,291,293,295,297,-1,299,301,303,305,-1,307,-1,309,-1,-1,-1,313,-1,-1,-1,315,-1,-1,317,319,321,323,-1,325,327,-1,-1,329,331,333,-1,335,-1,-1,-1,337,-1,339,-1,-1,-1,-1,-1,-1,-1,341,343,-1,-1,345,-1,-1,-1,347,-1,-1,-1,-1,-1,349,-1,351,353,-1,-1,-1,-1,-1,-1,-1,-1,-1,-1,-1,-1,-1,-1,-1,-1,-1,-1,-1,-1,-1,-1],"loss_changes":[3.8085453E4,6.138613E2,4.750715E3,4.390996E2,2.6606714E2,8.430571E2,1.5174375E3,3.336902E2,8.227539E1,7.398178E1,5.4658356E1,5.587063E2,5.684192E1,8.2333374E1,9.433125E2,2.3794696E2,1.20842766E2,6.0089844E1,0E0,5.1341568E1,1.4640884E1,0E0,2.4308212E1,4.3676758E1,2.5470723E2,0E0,2.1752686E1,1.6723227E1,7.141867E1,6.8345703E2,2.5378815E1,1.7468018E2,9.103213E1,0E0,6.3612038E1,5.351367E1,8.634152E1,6.0146225E1,3.1177317E1,0E0,0E0,1.0387192E1,0E0,4.356897E1,0E0,1.3376875E2,4.2186783E1,0E0,6.8483276E0,0E0,0E0,4.3428436E1,0E0,4.081421E2,3.1107617E2,0E0,0E0,5.374524E1,2.312678E1,1.1220249E1,1.5269249E1,0E0,5.277214E1,3.9554688E1,4.5248665E1,0E0,0E0,3.5937347E1,0E0,0E0,0E0,0E0,0E0,1.6813232E1,0E0,8.132733E1,6.726278E1,0E0,1.3756317E1,2.2576294E0,0E0,2.0155334E0,0E0,1.5676099E2,1.5669579E2,1.4803543E0,2.5613867E2,3.5659668E1,2.2193914E1,0E0,0E0,0E0,0E0,2.154128E1,3.4175491E0,1.5631195E1,0E0,2.7091797E1,2.457067E1,0E0,0E0,1.847229E0,0E0,1.6235596E1,2.755928E1,4.633876E1,4.067663E0,0E0,2.9945374E0,0E0,9.3977356E-1,0E0,0E0,0E0,0E0,3.089484E1,1.356908E2,1.376533E2,1.1291608E2,0E0,0E0,5.3643913E0,1.298457E2,3.497229E1,0E0,0E0,0E0,0E0,0E0,0E0,0E0,8.1700134E-1,0E0,1.2128906E1,9.120123E1,0E0,0E0,0E0,9.5928955E-1,3.583496E0,0E0,5.3141556E0,0E0,5.6285954E1,9.388153E0,0E0,0E0,0E0,0E0,0E0,0E0,0E0,0E0,3.1336975E-1,9.7837036E1,4.900627E0,6.6717155E1,5.241594E1,1.9613495E1,0E0,0E0,1.4595294E2,1.0344531E2,1.0321777E1,0E0,0E0,0E0,1.06953125E1,0E0,1.8286285E1,8.785787E1,0E0,0E0,3.4055176E0,0E0,0E0,0E0,3.094574E0,0E0,1.1448242E1,0E0,0E0,0E0,5.114038E1,1.0447224E2,0E0,0E0,2.481543E1,6.820332E1,5.840996E0,3.9128433E1,1.8371445E1,2.2369385E0,9.52755E-1,9.937012E1,9.4427734E1,2.4423256E1,7.6848145E0,0E0,8.779297E0,0E0,0E0,0E0,0E0,8.7062836E-2,0E0,0E0,0E0,0E0,0E0,3.795166E-1,3.4081055E1,2.2771114E1,5.8191025E1,5.7345707E1,1.0325592E1,0E0,2.6893806E0,3.73403E1,0E0,0E0,0E0,2.1728954E1,1.3946105E1,0E0,0E0,0E0,0E0,0E0,7.169238E1,9.055579E1,1.8485767E2,4.782617E1,0E0,0E0,5.9276123E0,0E0,7.9941406E0,0E0,0E0,0E0,0E0,0E0,2.7963745E1,0E0,0E0,0E0,0E0,3.0924683E1,1.5166668E1,0E0,8.588181E0,0E0,0E0,0E0,1.6908298E1,0E0,3.0512238E0,0E0,0E0,0E0,0E0,3.9292114E1,2.0810219E1,1.1047278E2,3.7764526E1,4.6601074E1,3.2611217E1,4.29375E1,0E0,4.749878E0,7.7070312E0,8.481197E0,1.8684448E1,0E0,2.3696E1,0E0,2.5419235E0,0E0,3.439331E-1,0E0,9.705475E0,0E0,0E0,0E0,2.3813599E1,0E0,0E0,2.6219482E0,8.869148E0,1.4315372E1,3.2150208E1,0E0,2.3407429E1,6.019211E-1,0E0,0E0,4.7715485E1,2.265039E1,4.5126953E0,0E0,4.9726562E0,0E0,0E0,0E0,1.5575928E1,0E0,4.286087E0,0E0,0E0,0E0,0E0,0E0,0E0,0E0,4.9238422E1,2.4383911E1,0E0,0E0,1.5662384E0,0E0,0E0,0E0,2.7786194E1,0E0,0E0,0E0,0E0,0E0,3.6784683E1,0E0,1.672535E1,2.0257812E1,0E0,0E0,0E0,0E0,0E0,0E0,0E0,0E0,0E0,0E0,0E0,0E0,0E0,0E0,0E0,0E0,0E0,0E0,0E0,0E0,0E0,0E0],"parents":[2147483647,0,0,1,1,2,2,3,3,4,4,5,5,6,6,7,7,8,8,9,9,10,10,11,11,12,12,13,13,14,14,15,15,16,16,17,17,19,19,20,20,22,22,23,23,24,24,26,26,27,27,28,28,29,29,30,30,31,31,32,32,34,34,35,35,36,36,37,37,38,38,41,41,43,43,45,45,46,46,48,48,51,51,53,53,54,54,57,57,58,58,59,59,60,60,62,62,63,63,64,64,67,67,73,73,75,75,76,76,78,78,79,79,81,81,83,83,84,84,85,85,86,86,87,87,88,88,93,93,94,94,95,95,97,97,98,98,101,101,103,103,104,104,105,105,106,106,108,108,110,110,115,115,116,116,117,117,118,118,121,121,122,122,123,123,131,131,133,133,134,134,138,138,139,139,141,141,143,143,144,144,153,153,154,154,155,155,156,156,157,157,158,158,161,161,162,162,163,163,167,167,169,169,170,170,173,173,177,177,179,179,183,183,184,184,187,187,188,188,189,189,190,190,191,191,192,192,193,193,194,194,195,195,196,196,197,197,199,199,204,204,210,210,211,211,212,212,213,213,214,214,215,215,217,217,218,218,222,222,223,223,229,229,230,230,231,231,232,232,235,235,237,237,243,243,248,248,249,249,251,251,255,255,257,257,262,262,263,263,264,264,265,265,266,266,267,267,268,268,270,270,271,271,272,272,273,273,275,275,277,277,279,279,281,281,285,285,288,288,289,289,290,290,291,291,293,293,294,294,297,297,298,298,299,299,301,301,305,305,307,307,315,315,316,316,319,319,323,323,329,329,331,331,332,332],"right_children":[2,4,6,8,10,12,14,16,18,20,22,24,26,28,30,32,34,36,-1,38,40,-1,42,44,46,-1,48,50,52,54,56,58,60,-1,62,64,66,68,70,-1,-1,72,-1,74,-1,76,78,-1,80,-1,-1,82,-1,84,86,-1,-1,88,90,92,94,-1,96,98,100,-1,-1,102,-1,-1,-1,-1,-1,104,-1,106,108,-1,110,112,-1,114,-1,116,118,120,122,124,126,-1,-1,-1,-1,128,130,132,-1,134,136,-1,-1,138,-1,140,142,144,146,-1,148,-1,150,-1,-1,-1,-1,152,154,156,158,-1,-1,160,162,164,-1,-1,-1,-1,-1,-1,-1,166,-1,168,170,-1,-1,-1,172,174,-1,176,-1,178,180,-1,-1,-1,-1,-1,-1,-1,-1,-1,184,186,188,190,192,-1,-1,194,196,198,-1,-1,-1,200,-1,202,204,-1,-1,206,-1,-1,-1,208,-1,210,-1,-1,-1,212,214,-1,-1,216,218,220,222,224,226,228,230,232,234,236,-1,238,-1,-1,-1,-1,-1,-1,-1,-1,-1,-1,-1,244,246,248,250,252,-1,254,256,-1,-1,-1,258,260,-1,-1,-1,-1,-1,262,264,266,268,-1,-1,270,-1,272,-1,-1,-1,-1,-1,274,-1,-1,-1,-1,276,278,-1,280,-1,-1,-1,282,-1,284,-1,-1,-1,-1,286,288,290,292,294,296,298,-1,300,302,304,306,-1,308,-1,310,-1,-1,-1,314,-1,-1,-1,316,-1,-1,318,320,322,324,-1,326,328,-1,-1,330,332,334,-1,336,-1,-1,-1,338,-1,340,-1,-1,-1,-1,-1,-1,-1,342,344,-1,-1,346,-1,-1,-1,348,-1,-1,-1,-1,-1,350,-1,352,354,-1,-1,-1,-1,-1,-1,-1,-1,-1,-1,-1,-1,-1,-1,-1,-1,-1,-1,-1,-1,-1,-1],"split_conditions":[-3.438361E-1,1.1883289E0,-4.4963855E-1,-1.2903216E0,-4.2992833E-1,-1.8879709E-1,-5.3964937E-1,3.9364928E-1,-9.319949E-3,6.399069E-1,-7.8321934E-1,-2.0824994E-1,-4.9098635E-1,-1.2822759E-1,1.9077599E-1,2.5391612E0,-3.8800085E-1,5.3396683E0,1.1102815E-1,6.6935426E-1,-2.0377043E-1,-1.06504165E-1,-3.6497477E-2,2.1480536E0,-1.19442284E-1,-5.8702003E-2,-1.925664E-1,-1.2565207E-1,7.1310854E-1,-1.107111E0,-1.5516916E-1,-1.7434898E-1,2.3083057E0,-1.6582248E-1,-6.619575E-1,3.9573126E-2,5.9699535E-1,5.302739E0,8.931828E-2,1.6649427E-1,-1.1644657E-2,7.448286E-2,-3.2400258E-2,4.9942292E-2,8.067822E-2,-5.619572E-2,-3.725053E-1,-1.6854756E-2,5.338541E-1,-3.563933E-2,1.4962001E-1,-7.6481596E-2,1.06838904E-1,-8.437426E-1,-5.091397E-1,-1.696937E-1,2.3020936E-2,6.3732467E0,8.6840844E-1,7.439728E-1,-5.8652747E-1,-1.5838945E-1,3.0433434E-1,-5.7621007E-3,-1.5505697E-2,-1.6244051E-1,1.5664044E-1,1.103902E0,6.7168854E-2,-9.3586735E-2,1.6144295E-1,1.6586955E-1,3.425128E-2,-4.8195952E-1,4.255347E-2,-4.6534613E-2,-1.8495351E-1,-8.016585E-2,-5.952978E-1,-1.0261061E0,5.775547E-2,-3.228381E-1,3.00221E-2,-4.0747768E-1,6.96899E-3,9.0778255E-1,-9.7456145E-1,-1.2750359E-1,-1.1483356E0,-3.8978446E-2,1.5819351E-1,-1.6277777E-1,-1.1021738E-2,9.1691697E-1,-1.9703512E-1,4.9612397E-1,-7.763179E-2,1.6804581E0,-3.9236285E-2,-1.5219593E-1,1.4937823E-1,-1.3890891E0,2.892623E-2,2.4057064E0,1.0434955E0,-1.621424E0,-7.23083E-1,-1.0158421E-1,2.1758194E-1,1.9913143E-2,4.4365332E-1,8.835945E-2,1.6901585E-1,-1.6643684E-1,-9.438625E-2,5.772744E-2,-4.7003952E-1,-3.9516395E-1,1.5380886E-1,-1.7295413E-1,-9.306881E-2,-8.177604E-2,-7.605734E-1,4.3793335E0,3.313341E-2,-8.112771E-2,1.4046808E-1,-9.4640724E-2,1.3327338E-1,1.600807E-1,7.775282E-2,1.0450228E0,5.017523E-3,1.6327068E-1,7.1730363E-1,-1.1474872E-1,1.1413753E-1,-9.918084E-2,-1.5437284E-1,1.1029483E-1,-1.2780674E-2,1.2702307E0,7.903857E-2,1.7099997E-1,2.7928007E-1,1.5516005E-1,4.5694273E-2,1.6736332E-1,8.324303E-2,1.699092E-1,9.940108E-2,-1.5209298E-1,4.35888E-2,-1.4684372E-1,-5.1687464E-2,-5.19577E-1,-4.5117193E-1,-8.0860776E-1,-3.4234114E-2,-1.6339897E-1,-5.2927982E-2,-3.3773816E-1,1.2568132E0,7.395163E0,5.7122756E-2,1.6561978E-1,9.755792E-2,7.415007E-2,-4.4704102E-2,-3.2170886E-1,8.0955166E-1,-1.7447452E-1,-1.02498345E-1,5.369542E0,-7.816086E-2,-1.6424592E-1,-5.1889386E-2,-7.985013E-3,-1.4112814E-1,-3.2112494E-1,-3.4420613E-2,-1.6843705E-1,-9.805472E-2,1.1459119E0,3.2936466E-1,-6.997785E-2,-1.731457E-1,2.619372E0,-1.0835292E0,-3.7212643E-1,-6.408855E-1,3.926403E-1,9.936601E-2,5.324911E-1,4.120692E-1,-4.1578817E-1,-4.61423E-1,2.2978234E0,-3.384769E-2,2.0970455E-1,-3.9493434E-2,-3.3740204E-2,-1.6613811E-1,-1.5985224E-1,1.4403538E-1,-1.684946E-1,-8.138361E-2,1.6015945E-1,5.9749126E-2,-4.598483E-2,-1.684584E-1,2.9490685E0,2.1885576E0,-5.8201146E-1,-3.050994E-1,-9.30378E-2,-1.566189E-2,-1.6135168E-1,3.0282652E-1,-1.608433E-1,-3.995772E-2,-9.404896E-2,6.8550624E-2,-1.615941E-1,-1.568716E-1,-1.7050335E-1,-8.872762E-2,-1.6552545E-1,-8.986753E-2,-1.4739403E0,-8.9703095E-1,-2.1143213E-1,-5.562525E-1,-1.6393048E-1,6.3635215E-2,-2.4823763E0,-5.513373E-2,-1.8056173E-2,-6.0993742E-2,1.5964447E-1,9.670783E-2,-1.7215472E-1,-1.0940504E-1,8.324756E-1,-3.497128E-2,9.4645545E-2,-9.04372E-2,-9.413562E-2,2.2997299E-1,-1.312886E-1,1.165121E-1,4.5364437E-1,2.7491529E-2,-7.814612E-2,-1.66027E-1,5.869783E-1,-8.235977E-2,-8.621845E-1,-3.1880848E-2,-7.870291E-2,1.0296296E-1,-1.1964631E-1,1.4679997E0,-4.04678E-2,1.4870334E0,1.1040465E-2,-2.3816068E-2,-6.476796E-2,-1.0663062E0,-6.313001E-2,1.4202039E0,6.026987E0,6.5060997E-1,3.0230196E0,7.401395E-3,3.1702626E-1,-6.2387865E-2,-3.1982493E-1,-6.4396197E-3,1.6580324E-1,4.3570198E-2,-1.0101478E-1,-2.6616275E-2,7.408415E-2,1.6524015E-1,-4.9891132E-1,-7.359285E-2,-2.3421703E-2,5.720535E-1,-1.7546242E-1,-6.743558E-1,5.173006E-1,-4.5127712E-2,-2.7836907E-1,8.862666E-1,-1.1048937E-1,1.4977178E-1,1.3255646E0,-1.5051584E0,3.381329E0,-6.962842E-2,6.1061844E-2,-5.8718152E-2,-1.5129365E-1,-2.4675734E-3,1.39958E0,1.6214432E-2,9.6103895E-1,-2.6913533E-2,-1.7731409E-1,-8.615119E-2,1.05264604E-1,1.7002818E-1,1.586048E-1,3.6345907E-2,-6.4368916E-1,9.700732E-1,1.6769521E-1,8.858973E-2,-6.64679E-1,-5.0592035E-2,1.5996021E-1,-2.5365937E-3,1.225077E0,-4.7975253E-2,-7.4117936E-2,1.4794615E-1,-1.6901638E-1,-9.8601066E-2,4.5353594E-1,-1.26247E-1,1.2583942E0,-1.7385734E0,-1.670309E-1,-9.575894E-2,-1.6781874E-1,-7.60073E-2,1.5871523E-1,2.1837901E-2,1.668167E-1,7.974802E-2,1.4155053E-1,-1.3545008E-1,1.5485974E-1,-2.55076E-2,-9.0671666E-2,-1.7039104E-1,1.5563427E-1,-4.0273625E-2,1.3844052E-1,-1.955265E-2,-5.82742E-2,1.409435E-1,1.8020367E-2,1.6349538E-1],"split_indices":[718,743,545,528,626,743,587,968,4094,1243,705,741,967,718,2815,566,677,1313,0,709,589,0,1143,500,838,0,1143,704,743,698,637,743,545,0,546,2213,637,566,611,0,0,619,0,1422,0,1313,566,0,698,0,0,1108,0,528,581,0,0,1141,668,532,671,0,614,2776,1678,0,0,967,0,0,0,0,0,545,0,1865,1109,0,624,545,0,1289,0,685,690,496,546,1001,548,0,0,0,0,581,679,588,0,753,1862,0,0,491,0,1437,612,606,285,0,715,0,718,0,0,0,0,587,581,581,521,0,0,763,878,533,0,0,0,0,0,0,0,334,0,2126,578,0,0,0,1289,1359,0,626,0,1227,1239,0,0,0,0,0,0,0,0,410,840,542,542,503,576,0,0,587,845,702,0,0,0,2445,0,644,546,0,0,614,0,0,0,409,0,619,0,2147483647,2147483647,527,649,0,0,527,597,646,557,533,565,448,527,581,646,20,0,2812,0,0,0,0,527,0,0,0,0,0,1034,679,561,625,611,590,0,290,632,0,0,0,662,581,0,0,0,0,0,625,698,577,644,0,0,470,0,3436,0,2147483647,2147483647,2147483647,2147483647,1007,0,0,0,0,666,645,0,709,0,0,0,237,0,1,0,0,0,0,601,545,743,690,561,1239,708,0,1108,685,285,559,0,527,0,821,0,20,0,699,0,0,0,578,0,0,679,775,588,560,0,685,339,0,0,967,699,1138,0,3698,0,0,0,715,0,58,0,0,0,2147483647,2147483647,0,0,611,1520,0,0,108,0,0,0,522,0,0,0,0,0,741,0,641,625,0,0,0,0,0,0,0,0,0,0,0,0,0,0,0,0,0,0,0,0,0,0],"split_type":[0,0,0,0,0,0,0,0,0,0,0,0,0,0,0,0,0,0,0,0,0,0,0,0,0,0,0,0,0,0,0,0,0,0,0,0,0,0,0,0,0,0,0,0,0,0,0,0,0,0,0,0,0,0,0,0,0,0,0,0,0,0,0,0,0,0,0,0,0,0,0,0,0,0,0,0,0,0,0,0,0,0,0,0,0,0,0,0,0,0,0,0,0,0,0,0,0,0,0,0,0,0,0,0,0,0,0,0,0,0,0,0,0,0,0,0,0,0,0,0,0,0,0,0,0,0,0,0,0,0,0,0,0,0,0,0,0,0,0,0,0,0,0,0,0,0,0,0,0,0,0,0,0,0,0,0,0,0,0,0,0,0,0,0,0,0,0,0,0,0,0,0,0,0,0,0,0,0,0,0,0,0,0,0,0,0,0,0,0,0,0,0,0,0,0,0,0,0,0,0,0,0,0,0,0,0,0,0,0,0,0,0,0,0,0,0,0,0,0,0,0,0,0,0,0,0,0,0,0,0,0,0,0,0,0,0,0,0,0,0,0,0,0,0,0,0,0,0,0,0,0,0,0,0,0,0,0,0,0,0,0,0,0,0,0,0,0,0,0,0,0,0,0,0,0,0,0,0,0,0,0,0,0,0,0,0,0,0,0,0,0,0,0,0,0,0,0,0,0,0,0,0,0,0,0,0,0,0,0,0,0,0,0,0,0,0,0,0,0,0,0,0,0,0,0,0,0,0,0,0,0,0,0,0,0,0,0,0,0,0,0,0,0,0,0,0,0,0,0,0,0,0,0,0,0],"sum_hessian":[2.1533877E4,9.265778E3,1.2268099E4,8.991001E3,2.747772E2,1.1981008E3,1.1069998E4,8.100175E2,8.1809834E3,1.7036102E2,1.0441617E2,1.0317823E3,1.6631844E2,2.2626906E2,1.08437295E4,6.827319E2,1.27285645E2,8.1708037E3,1.0179799E1,1.5173026E2,1.8630762E1,9.061995E0,9.535417E1,7.1455475E2,3.172276E2,1.343944E1,1.52879E2,1.8807652E1,2.0746141E2,1.073921E4,1.0451936E2,6.0282196E2,7.990989E1,1.8981153E1,1.0830449E2,8.1379873E3,3.281627E1,1.3410248E2,1.7627785E1,1.15209255E1,7.1098375E0,8.825489E1,7.09928E0,7.0741644E2,7.1383066E0,2.1771011E2,9.951749E1,7.081456E0,1.4579755E2,7.5553737E0,1.1252278E1,1.9685011E2,1.0611295E1,1.3143456E3,9.424864E3,9.7416145E1,7.1032186E0,5.747123E2,2.810971E1,2.2883585E1,5.7026306E1,7.830415E0,1.00474075E2,8.1200317E3,1.7955626E1,1.9148544E1,1.36677265E1,1.2033066E2,1.3771821E1,7.611774E0,1.001601E1,8.114499E1,7.109902E0,6.971961E2,1.0220353E1,1.6625072E2,5.145939E1,7.7910633E0,9.172642E1,1.3820241E2,7.5951414E0,1.8480573E2,1.2044383E1,9.1699945E2,3.973461E2,3.1118254E1,9.393746E3,5.5856165E2,1.6150648E1,7.777292E0,2.033242E1,1.5807192E1,7.076393E0,1.4641269E1,4.2385036E1,8.950303E1,1.0971044E1,8.1030684E3,1.6963648E1,8.465328E0,9.490297E0,1.10263596E2,1.0067063E1,6.6554767E2,3.164841E1,1.5065816E2,1.5592569E1,1.3770573E1,3.7688816E1,7.371532E0,8.435489E1,7.1224027E0,1.3108E2,1.7630911E2,8.496612E0,3.5596573E1,8.814029E2,2.1845741E2,1.7888869E2,2.4012293E1,7.1059623E0,2.8830883E1,9.364915E3,5.4881903E2,9.742615E0,8.190207E0,7.9604416E0,7.0944633E0,7.5468054E0,3.2868214E1,9.516822E0,8.247463E1,7.0284023E0,7.87658E3,2.2648816E2,9.436321E0,7.5273275E0,8.839614E0,1.0142398E2,6.584579E2,7.089805E0,2.4536995E1,7.111416E0,3.1690882E1,1.1896727E2,8.517694E0,7.0748754E0,2.894406E1,8.744756E0,7.7281685E1,7.073203E0,2.4295195E1,1.1301379E1,1.7651585E1,8.637513E2,2.9837664E1,1.8861975E2,7.090283E1,1.0798585E2,2.1815115E1,7.0157676E0,7.402525E2,8.624662E3,5.417389E2,7.0800805E0,7.540973E1,7.0648966E0,7.8676323E3,8.947567E0,1.8968672E2,3.680145E1,9.438876E1,7.0352163E0,6.514152E2,7.0426607E0,1.7494919E1,7.0420756E0,1.5445856E1,1.6245026E1,1.1189005E2,7.077224E0,1.0536097E1,7.1154885E0,6.940668E2,1.6968452E2,8.309303E0,2.152836E1,1.06757774E2,8.1861984E1,1.8645107E1,5.2257725E1,2.5219074E1,8.276678E1,2.0249613E1,7.2000287E2,8.606592E3,1.8070776E1,5.346968E2,7.042154E0,7.860373E3,7.2593966E0,1.1692572E1,1.7799414E2,1.57240095E1,2.107744E1,6.441241E2,7.291128E0,7.864571E0,7.5812855E0,9.216583E0,1.0267347E2,6.694766E2,2.4590166E1,1.20066895E2,4.961763E1,9.665859E1,1.0099182E1,2.1797722E1,6.006426E1,1.1544953E1,7.1001544E0,1.0509342E1,4.1748383E1,1.4921791E1,1.0297283E1,7.563843E1,7.128347E0,1.3158828E1,7.0907855E0,5.883775E2,1.316254E2,3.2260608E2,8.283985E3,1.1011403E1,7.059373E0,5.266746E2,8.022126E0,7.8511494E3,9.2238455E0,1.4065367E1,7.012072E0,9.482298E1,7.8504868E0,6.5990546E2,9.571151E0,1.2293308E1,1.2296857E1,1.1984589E1,1.08082306E2,3.712575E1,1.2491878E1,8.9511665E1,7.1469235E0,8.78853E0,1.3009191E1,4.7625797E1,1.2438462E1,3.3920258E1,7.8281236E0,7.5862007E0,7.33559E0,9.732363E0,5.7864514E2,5.896885E1,7.265655E1,2.7680655E2,4.579951E1,1.7797129E1,8.266188E3,7.5441303E0,5.191305E2,7.836616E3,1.4532784E1,6.466604E2,1.3245052E1,1.0098196E2,7.1003532E0,2.85371E1,8.588653E0,8.242285E1,7.088819E0,4.0012714E1,7.613082E0,7.084307E0,2.6835953E1,5.710721E2,7.573025E0,7.0698175E0,5.189903E1,4.427784E1,2.8378702E1,2.6625024E2,1.0556322E1,1.7312115E1,2.8487396E1,1.0531934E1,7.265196E0,1.5880186E2,8.1073867E3,5.1187637E2,7.2541466E0,7.828758E3,7.8587E0,7.510158E0,7.0226264E0,6.36826E2,9.834402E0,9.391238E1,7.0695734E0,2.1395288E1,7.1418114E0,7.0675597E0,7.5355286E1,3.097307E1,9.039646E0,2.7645245E1,5.434268E2,4.3100494E1,8.798536E0,3.2057938E1,1.2219903E1,2.1251764E1,7.126939E0,2.5822852E2,8.021739E0,7.83122E0,9.480893E0,2.1424774E1,7.062621E0,1.5139166E2,7.4102035E0,1.5051437E1,8.0923354E3,4.9820386E2,1.3672508E1,7.82051E3,8.248006E0,6.2805145E2,8.774531E0,8.489663E1,9.015753E0,1.9147743E1,8.497501E0,5.360918E2,7.335074E0,7.1131325E0,2.4944805E1,2.511531E2,7.0753894E0,1.3512451E2,1.626714E1,8.032161E0,7.0192766E0,9.847796E0,8.0824873E3],"tree_param":{"num_deleted":"8","num_feature":"4225","num_nodes":"355","size_leaf_vector":"0"}},{"base_weights":[-5.0015945E-4,-1.1020613E0,8.5115004E-1,-1.3532387E0,3.7291148E-1,-7.003222E-1,1.1602196E0,-1.4492276E0,-4.2369685E-1,-1.558001E0,8.401852E-1,5.218391E-1,-1.3942415E0,-1.5830184E0,1.2467732E0,-1.5046066E0,-6.241024E-1,1.3591462E0,-9.3411857E-1,-2.3137054E-1,-1.5947089E0,-1.4596318E-1,1.1777682E0,-1.3351607E0,8.345309E-1,-1.4722973E0,3.3333176E-1,-1.6075541E0,-5.451156E-1,-7.6190835E-1,1.3018843E0,-1.2826204E0,-1.5663124E0,-1.3782705E0,3.007638E-1,-6.350148E-1,1.5372034E0,6.628305E-2,-1.4429035E0,4.9673876E-1,-1.4505008E0,1.2751313E0,-1.2581227E0,-1.4992905E0,5.6639016E-1,9.7999865E-1,-1.4982411E0,-1.4937265E0,7.42404E-2,1.4049981E0,-1.157554E0,-1.2741216E0,8.691654E-1,1.3701024E0,2.1225572E-1,-1.4016827E0,7.550848E-2,-1.5694866E0,6.6571426E-1,6.447037E-1,-1.5381767E0,9.1926545E-1,-1.167651E0,7.11469E-1,1.5822167E0,-6.9877595E-1,1.1712813E0,-1.528538E0,-3.8096884E-1,-9.952216E-1,1.1616753E0,-1.5577521E0,-5.093806E-1,-1.4522436E0,1.32246E0,-1.6351974E0,1.5764713E-2,-1.6409523E0,-1.0998994E0,-1.1012722E0,1.1024103E0,3.0815415E-2,-1.5111597E0,-1.4168047E0,1.3064342E0,6.877602E-1,1.5810684E0,-1.515921E0,-2.9779315E-1,-1.4994277E0,4.366568E-1,-8.965865E-1,1.2799625E0,1.4236217E0,4.679986E-1,1.0512873E0,-9.7664964E-1,-1.4321276E0,1.3211684E0,1.2452496E0,-1.4763163E0,-1.5726405E0,-2.0063218E-1,1.4239448E0,-4.049809E-1,-7.9429364E-1,-1.5679914E0,1.138609E0,-9.9885505E-1,7.1474767E-1,-1.4553502E0,-1.1050104E0,1.2167592E0,1.4745591E0,-2.169031E-1,-1.555491E0,-2.8384304E-1,4.3861157E-1,-1.4313301E0,-1.444384E0,4.104714E-2,-9.40903E-1,1.352926E0,-1.1747742E0,1.3503487E0,2.5229752E-2,-1.5948468E0,-1.5982653E0,5.483214E-1,6.4979434E-1,1.4332485E0,-1.5215744E0,1.8037388E-1,-7.297575E-1,-1.5635318E0,-1.0731093E0,1.5377419E0,1.4820222E0,4.832205E-2,1.4378172E0,-1.5707871E0,-7.725518E-1,1.0300756E0,-1.500166E0,1.2134244E0,-1.4771652E0,1.6974327E-1,-1.4645756E0,-2.2534154E-1,1.542059E0,-3.850293E-1,-1.5903261E0,-6.826224E-1,-1.57559E0,-7.933606E-1,-1.5902257E0,-8.390911E-1,-8.4280974E-1,1.2838063E0,-6.738342E-1,-1.2006912E0,-5.570439E-1,-1.5837001E0,-1.4320743E0,1.3763458E0,1.5722533E0,4.8776942E-1,6.186946E-1,1.5685879E0,-1.5885954E0,-1.2016611E0,-5.130946E-1,1.3651876E0,-7.1476054E-1,-1.6285379E0,-1.125652E0,9.2671686E-1,-2.544861E-1,1.4600532E0,1.3809028E0,-8.768174E-1,8.6346126E-1,-8.924055E-1,-6.9744605E-1,1.5051438E0,-1.5591799E0,-1.1700515E0,-1.8718362E-1,-1.1793232E0,-1.5916723E0,-8.5740054E-1,8.786326E-1,1.5818714E0,1.4515599E0,-6.20901E-1,-1.3265636E0,5.4877096E-1,-4.47885E-1,1.2786208E0,-1.0434086E-1,1.3789029E0,-1.5382488E0,-3.352114E-1,9.560386E-1,-9.5927036E-1,-1.4785997E0,5.1759017E-1,-1.0592973E0,1.0298557E0,-1.5770526E0,-5.352735E-1,-1.494736E0,5.6134415E-1,-1.034487E0,-1.6072725E0,1.4182332E0,-3.547371E-1,-5.7982105E-1,-1.5977184E0,-1.5024563E0,-1.7014608E-1,3.577169E-1,1.5552139E0,-6.380217E-1,1.4125664E0,9.803438E-1,-1.1314421E0,-1.40037E0,3.3265534E-1,1.5441871E0,5.039672E-1,-1.5670034E0,-5.1200765E-1,-1.3335434E0,1.0182137E0,5.714422E-1,1.4697676E0,8.407483E-1,-1.4928904E0,-1.5582812E0,5.872346E-2,-1.3930663E0,1.0098869E0,-1.0638931E0,1.4059247E0,1.3710847E0,-9.119071E-1,-1.083321E0,9.847498E-1,1.4388916E0,-5.888055E-1,-1.5689999E0,-8.918126E-1,1.2527558E0,-4.112913E-1,-1.4760772E0,5.5315953E-1,-1.5280255E0,-1.0529017E0,-1.4568369E0,-2.0055237E-1,-1.5782713E0,-6.0918266E-1,2.0022649E-1,1.5038486E0,3.639145E-1,-1.4544126E0,3.2995343E-1,1.4479095E0,1.0946465E0,-9.0506816E-1,-8.3783334E-1,-1.6336801E0,1.5677626E0,8.083498E-1,-1.5729278E0,-6.5532994E-1,-1.5448072E0,-5.067424E-2,9.2421496E-1,-1.2695214E0,1.1567657E0,1.5101721E0,-2.1609265E-1,1.3795716E0,-1.6017803E0,-9.342048E-1,-1.1916682E0,1.3416835E0,-2.6485223E-1,1.3182603E0,-1.5042603E0,2.4852881E-1,1.4268081E0,-6.123098E-1,-2.8896874E-1,-1.5365883E0,4.0589842E-1,1.4448489E0,1.6287486E-1,1.4910401E0,-1.6021599E0,-8.8410926E-1,1.4790537E0,3.3864984E-1,-1.5378901E0,1.8570855E-2,-1.322074E0,6.0855422E-2,-1.5792354E0,-9.218758E-1,8.179521E-1,1.5460689E0,1.1817963E0,-1.3103405E0,1.4664133E0,-2.0430236E-1,-5.442875E-1,1.1902791E0,1.5815021E0,9.126364E-1,-1.5779601E0,-7.586542E-1,-1.5809553E0,-9.804189E-1,1.2041001E0,-1.4609209E0,-6.154258E-1,1.1404647E0,-5.358128E-1,-1.5516236E0,9.290773E-2,1.3264132E0,7.879208E-1,1.5227363E0,1.5529432E0,4.842026E-1,-1.6730412E0,-8.708365E-1,6.900734E-2,1.4859169E0,5.5700934E-1,1.5206211E0,-1.5615835E0,-1.0271138E0,-2.9804707E-1,-1.5407021E0,-1.3787229E0,7.4260604E-1,-1.5800301E0,-8.788479E-1,1.5788662E0,9.926983E-1,6.566062E-1,1.5129877E0,1.4929719E0,6.876092E-1,1.2708076E0,-5.630624E-1,-1.5830913E0,-1.1655731E0,-1.5129247E0,5.861166E-1,-6.436151E-1,1.3052038E0,-8.787647E-1,1.0499985E0,6.067553E-1,1.4257106E0,1.1301256E0,-1.4485991E0,3.7957337E-1,1.5303674E0,4.9297515E-1,1.5212141E0,1.5724778E0,1.0710915E0,-1.5683768E0,-4.9197933E-1,-1.5748286E0,4.170012E-1,-1.1000159E0,9.724887E-1,1.3965831E0,-2.2037733E-1,-1.5809453E0,-9.4842124E-1,1.5054249E0,3.3716443E-1,1.2176777E0,-3.4194443E-1,1.3610965E0,7.98356E-3,-1.4589621E0,-6.8563116E-1,1.4480397E0,2.9465766E-3,-1.3725504E0,1.3971573E0,-4.9911222E-1,1.4081976E0,-6.671852E-1,1.1102939E0,1.4723344E0,6.425246E-1,-1.107286E0,1.2990812E0,1.483673E0,-1.2472669E0,-2.1828924E-1,1.532724E0,1.551569E0,4.2918918E-1,1.5982126E0,8.3414215E-1,1.3362454E-1,1.3814952E0,-1.5748568E0,-7.002627E-1,1.4048809E0,-6.3896286E-1,-1.5817761E0,-9.016245E-1,5.451496E-1,1.5190374E0,1.4563369E0,7.8698164E-1,1.4414549E0,4.3667826E-1,5.597358E-1,1.5173335E0,-1.5564171E0,-4.394435E-1,1.5488962E0,4.5195514E-1,-1.5220208E0,1.1909283E0,-3.495721E-1,1.2831706E0,2.0176302E-1,1.486136E0,1.408385E0,-1.2427688E0,1.4680312E0,-3.511768E-1,-6.557792E-1,-1.5266572E0,-1.6135612E-1,1.5345178E0,1.5722644E0,7.5354165E-1,1.621741E0,9.0624225E-1,8.7437457E-1,1.5757225E0],"categories":[],"categories_nodes":[],"categories_segments":[],"categories_sizes":[],"default_left":[true,true,true,true,true,true,true,true,true,true,true,true,true,true,true,true,true,true,true,false,false,true,true,true,true,true,true,false,false,true,true,true,true,true,true,false,true,true,true,true,true,true,true,true,false,true,false,true,true,true,true,true,true,true,true,true,true,true,false,true,true,true,true,false,false,true,true,true,true,true,true,false,false,false,true,false,false,false,true,true,true,false,true,false,false,false,false,false,false,true,true,false,true,true,true,true,true,true,false,true,true,true,false,false,false,false,true,true,true,false,true,true,true,true,false,true,false,true,false,true,true,false,true,false,true,false,false,false,false,true,true,true,false,true,true,false,false,true,false,true,false,true,true,false,true,true,true,true,true,false,false,false,false,true,true,true,false,false,true,true,true,false,false,true,false,false,false,false,false,false,true,false,false,false,false,false,false,false,true,true,false,true,true,false,true,true,true,false,false,false,false,false,false,true,true,true,true,true,true,true,true,true,false,true,true,true,false,true,false,true,false,false,false,true,true,true,false,true,false,false,false,false,false,false,true,true,false,true,false,true,false,true,false,true,false,true,true,true,true,false,true,false,true,true,false,true,false,true,true,true,false,true,false,true,false,false,false,true,true,false,false,true,false,false,true,false,false,true,true,true,false,false,false,true,false,true,false,true,true,true,true,true,true,false,false,false,false,false,false,false,true,true,false,true,false,false,false,false,false,false,true,false,false,false,false,true,false,true,true,true,false,false,true,true,false,true,false,false,true,false,false,true,false,true,true,false,false,true,true,false,false,true,true,true,true,false,false,false,false,false,true,false,true,true,true,true,false,false,true,true,false,true,true,false,false,true,true,true,false,false,true,false,false,false,true,true,true,true,true,true,false,true,true,false,true,true,true,true,false,false,true,false,false,false,false,true,false,true,false,true,false,true,false,false,false,true,false,true,false,false,true,true,true,true,true,false,true,false,true,false,true,true,false,true,false,false,true,false,false,false,false,false,false,false,false,false,false,false,false,false,false,false,false,false,false,false,false,false,false,false,false,false,false,false,false,false,false,false,false,false,false,false,false,false,false],"id":3,"left_children":[1,3,5,7,9,11,13,15,17,19,21,23,25,27,29,31,33,35,37,-1,-1,39,41,43,45,47,49,-1,-1,51,53,55,57,59,61,-1,63,65,67,69,71,73,75,77,-1,79,-1,81,83,85,87,89,91,93,95,97,99,101,-1,103,105,107,109,-1,-1,111,113,115,117,119,121,-1,-1,-1,123,-1,-1,-1,125,127,129,-1,131,-1,-1,-1,-1,-1,-1,133,135,-1,137,139,141,143,145,147,-1,149,151,153,-1,-1,-1,-1,155,157,-1,-1,161,163,165,167,-1,169,-1,171,-1,173,175,-1,177,-1,179,-1,-1,-1,-1,181,183,185,-1,187,189,-1,-1,191,-1,193,-1,195,197,-1,199,201,203,205,207,-1,-1,-1,-1,209,211,-1,-1,-1,215,-1,-1,-1,-1,217,-1,-1,-1,-1,-1,-1,219,-1,-1,-1,-1,-1,-1,-1,221,223,-1,225,227,-1,229,231,233,-1,-1,-1,-1,-1,-1,235,237,239,241,243,245,247,249,251,-1,253,255,257,-1,259,-1,261,-1,-1,-1,-1,-1,263,-1,265,-1,-1,-1,-1,-1,-1,267,269,-1,271,-1,273,-1,275,-1,277,-1,279,281,283,285,-1,287,-1,289,291,-1,293,-1,295,297,299,-1,301,-1,303,-1,-1,-1,305,307,-1,-1,309,-1,-1,311,-1,-1,313,315,317,-1,-1,-1,319,-1,321,-1,-1,325,327,329,331,333,-1,-1,-1,-1,-1,-1,-1,335,337,-1,339,-1,-1,-1,-1,-1,-1,341,-1,-1,-1,-1,343,-1,345,347,349,-1,-1,-1,353,-1,355,-1,-1,357,-1,-1,359,-1,-1,-1,-1,-1,361,363,-1,-1,365,367,369,371,-1,-1,-1,-1,-1,373,-1,375,377,379,381,-1,-1,383,385,-1,-1,-1,-1,-1,387,389,391,-1,-1,393,-1,-1,-1,395,397,399,401,403,405,-1,407,409,-1,411,413,415,417,-1,-1,419,-1,-1,-1,-1,421,-1,423,-1,425,-1,427,-1,-1,-1,429,-1,431,-1,-1,433,435,437,439,441,-1,443,-1,445,-1,447,449,-1,451,-1,-1,453,-1,-1,-1,-1,-1,-1,-1,-1,-1,-1,-1,-1,-1,-1,-1,-1,-1,-1,-1,-1,-1,-1,-1,-1,-1,-1,-1,-1,-1,-1,-1,-1,-1,-1,-1,-1,-1,-1],"loss_changes":[1.9539326E4,3.3649727E3,5.633286E3,6.9178906E2,1.1943224E3,1.6560857E3,2.3277598E3,3.2044922E2,6.635288E2,1.2194153E1,3.548047E2,4.120036E2,1.6841211E2,6.7645874E0,1.0522393E3,8.826465E1,3.1015613E2,5.863568E1,2.8837128E2,0E0,0E0,2.2923985E2,1.8984387E2,3.2797302E1,2.0719485E2,3.9602783E1,8.893843E1,0E0,0E0,2.134959E2,6.867705E2,2.327915E2,3.754785E1,8.017709E1,1.8297406E2,0E0,4.426178E0,1.6304291E2,3.3562744E1,1.8304224E2,8.312439E0,1.0050073E2,1.4920784E1,3.5420837E0,0E0,1.467572E2,0E0,3.1285156E1,3.352244E1,2.984703E0,6.7589607E0,7.538141E1,4.5647892E1,4.192871E2,5.45447E2,1.1156836E2,2.1409561E2,2.1898438E1,0E0,1.5820529E1,3.7924805E0,6.0663765E1,3.3425034E1,0E0,0E0,9.00654E1,3.3528374E1,1.1203918E1,2.5894678E1,2.6618015E1,5.245558E1,0E0,0E0,0E0,5.3902832E1,0E0,0E0,0E0,1.5508629E1,2.7302544E1,7.993494E1,0E0,2.0747559E1,0E0,0E0,0E0,0E0,0E0,0E0,7.3223267E0,4.0442535E1,0E0,1.2416885E1,3.5127344E2,3.415138E2,1.3438403E2,1.3011201E2,5.092334E1,0E0,3.3118378E1,3.5035553E0,1.0548828E1,0E0,0E0,0E0,0E0,2.1884766E0,3.774405E1,1.7833614E-1,0E0,5.1363754E0,7.873624E1,4.5262012E0,4.249542E0,0E0,2.0682373E0,0E0,1.5913837E1,0E0,4.1881943E0,1.9876347E1,0E0,2.053244E1,0E0,5.1795654E1,0E0,0E0,0E0,0E0,7.6518684E1,4.871515E1,1.34453125E1,0E0,3.453578E0,1.7643738E0,0E0,0E0,1.2053528E0,0E0,2.3211914E2,0E0,1.1267908E2,1.2425705E2,0E0,6.596631E1,1.0480713E1,6.277401E1,3.6192383E1,3.820327E1,0E0,0E0,0E0,0E0,6.935547E0,2.1144314E1,3.250122E-1,0E0,0E0,2.6742874E1,0E0,0E0,0E0,0E0,1.09409485E1,0E0,0E0,0E0,0E0,0E0,0E0,1.003167E1,0E0,0E0,0E0,0E0,0E0,0E0,0E0,1.097345E1,4.780359E1,0E0,4.8305344E1,1.8179127E1,0E0,1.1000183E1,7.721924E0,4.2728714E1,0E0,0E0,0E0,0E0,0E0,0E0,1.2925977E2,7.1218025E1,3.4773773E1,4.2494434E1,5.7693756E1,5.9682526E1,3.7963516E1,3.251111E1,1.5698242E0,0E0,1.7382462E1,2.3565733E1,2.5023193E1,0E0,7.1480465E0,0E0,5.060547E0,0E0,0E0,0E0,0E0,0E0,1.1200623E1,0E0,1.3115932E1,0E0,0E0,0E0,0E0,0E0,0E0,2.7173706E1,4.2313034E1,0E0,1.2973022E0,0E0,3.75531E0,0E0,4.5446777E0,0E0,2.9200775E1,0E0,1.09102554E2,9.883789E1,1.2342513E1,6.1711884E-1,0E0,2.7982721E1,0E0,1.5153542E1,2.205088E1,0E0,3.1510864E1,0E0,6.289114E0,3.915966E0,1.7098083E1,0E0,1.7917175E0,0E0,6.6168747E0,0E0,0E0,0E0,1.7296875E1,4.0518982E1,0E0,0E0,1.7705078E0,0E0,0E0,1.71521E0,0E0,0E0,3.5281048E1,2.1685669E1,2.9054108E1,0E0,0E0,0E0,1.0722046E0,0E0,3.0024414E0,0E0,3.4169006E-1,3.0618662E1,4.7328377E1,4.787281E0,1.6475952E2,6.2692383E1,0E0,0E0,0E0,0E0,0E0,0E0,0E0,5.216614E0,1.560646E0,0E0,2.1561523E1,0E0,0E0,0E0,0E0,0E0,0E0,6.0671997E0,0E0,0E0,0E0,0E0,1.200708E1,0E0,2.3871689E1,2.77292E1,1.4433594E0,0E0,0E0,1.7150879E-1,1.8618565E0,0E0,1.328479E1,0E0,0E0,2.4938553E1,0E0,0E0,3.083496E-1,0E0,0E0,0E0,0E0,0E0,2.0186142E1,3.7033386E1,0E0,0E0,1.187713E2,5.5434937E1,9.536119E1,5.9780273E1,0E0,0E0,0E0,0E0,0E0,8.31427E0,0E0,3.956726E0,7.024414E0,4.2404175E1,2.1815376E1,0E0,0E0,1.2346182E1,1.4384766E0,0E0,0E0,0E0,0E0,0E0,9.110474E0,1.3880124E1,1.8726105E1,0E0,0E0,1.2946892E0,0E0,0E0,0E0,2.1026993E1,7.319725E1,3.6379814E1,6.313553E1,2.4307251E1,4.180014E1,0E0,8.665429E1,2.8657227E1,0E0,7.5968018E0,2.7486572E0,8.010944E0,4.89209E0,0E0,0E0,1.686256E1,0E0,0E0,0E0,0E0,1.4375E0,0E0,7.8100586E0,0E0,5.504589E-1,0E0,1.0762909E1,0E0,0E0,0E0,5.4223022E0,0E0,8.344437E0,0E0,0E0,6.3610306E0,4.6572052E1,1.8137123E1,1.11328125E1,6.0417362E1,0E0,2.8322495E1,0E0,2.243019E0,0E0,2.1106445E1,2.814331E0,0E0,1.8922119E0,0E0,0E0,6.957016E-1,0E0,0E0,0E0,0E0,0E0,0E0,0E0,0E0,0E0,0E0,0E0,0E0,0E0,0E0,0E0,0E0,0E0,0E0,0E0,0E0,0E0,0E0,0E0,0E0,0E0,0E0,0E0,0E0,0E0,0E0,0E0,0E0,0E0,0E0,0E0,0E0,0E0,0E0],"parents":[2147483647,0,0,1,1,2,2,3,3,4,4,5,5,6,6,7,7,8,8,9,9,10,10,11,11,12,12,13,13,14,14,15,15,16,16,17,17,18,18,21,21,22,22,23,23,24,24,25,25,26,26,29,29,30,30,31,31,32,32,33,33,34,34,36,36,37,37,38,38,39,39,40,40,41,41,42,42,43,43,45,45,47,47,48,48,49,49,50,50,51,51,52,52,53,53,54,54,55,55,56,56,57,57,59,59,60,60,61,61,62,62,65,65,66,66,67,67,68,68,69,69,70,70,74,74,78,78,79,79,80,80,82,82,89,89,90,90,92,92,93,93,94,94,95,95,96,96,97,97,99,99,100,100,101,101,106,106,107,107,108,108,110,110,111,111,112,112,113,113,115,115,117,117,119,119,120,120,122,122,124,124,129,129,130,130,131,131,133,133,134,134,137,137,139,139,141,141,142,142,144,144,145,145,146,146,147,147,148,148,153,153,154,154,155,155,158,158,163,163,170,170,178,178,179,179,181,181,182,182,184,184,185,185,186,186,193,193,194,194,195,195,196,196,197,197,198,198,199,199,200,200,201,201,203,203,204,204,205,205,207,207,209,209,215,215,217,217,224,224,225,225,227,227,229,229,231,231,233,233,235,235,236,236,237,237,238,238,240,240,242,242,243,243,245,245,247,247,248,248,249,249,251,251,253,253,257,257,258,258,261,261,264,264,267,267,268,268,269,269,273,273,275,275,277,277,278,278,279,279,280,280,281,281,282,282,290,290,291,291,293,293,300,300,305,305,307,307,308,308,309,309,312,312,313,313,315,315,318,318,321,321,327,327,328,328,331,331,332,332,333,333,334,334,340,340,342,342,343,343,344,344,345,345,348,348,349,349,355,355,356,356,357,357,360,360,364,364,365,365,366,366,367,367,368,368,369,369,371,371,372,372,374,374,375,375,376,376,377,377,380,380,385,385,387,387,389,389,391,391,395,395,397,397,400,400,401,401,402,402,403,403,404,404,406,406,408,408,410,410,411,411,413,413,416,416],"right_children":[2,4,6,8,10,12,14,16,18,20,22,24,26,28,30,32,34,36,38,-1,-1,40,42,44,46,48,50,-1,-1,52,54,56,58,60,62,-1,64,66,68,70,72,74,76,78,-1,80,-1,82,84,86,88,90,92,94,96,98,100,102,-1,104,106,108,110,-1,-1,112,114,116,118,120,122,-1,-1,-1,124,-1,-1,-1,126,128,130,-1,132,-1,-1,-1,-1,-1,-1,134,136,-1,138,140,142,144,146,148,-1,150,152,154,-1,-1,-1,-1,156,158,-1,-1,162,164,166,168,-1,170,-1,172,-1,174,176,-1,178,-1,180,-1,-1,-1,-1,182,184,186,-1,188,190,-1,-1,192,-1,194,-1,196,198,-1,200,202,204,206,208,-1,-1,-1,-1,210,212,-1,-1,-1,216,-1,-1,-1,-1,218,-1,-1,-1,-1,-1,-1,220,-1,-1,-1,-1,-1,-1,-1,222,224,-1,226,228,-1,230,232,234,-1,-1,-1,-1,-1,-1,236,238,240,242,244,246,248,250,252,-1,254,256,258,-1,260,-1,262,-1,-1,-1,-1,-1,264,-1,266,-1,-1,-1,-1,-1,-1,268,270,-1,272,-1,274,-1,276,-1,278,-1,280,282,284,286,-1,288,-1,290,292,-1,294,-1,296,298,300,-1,302,-1,304,-1,-1,-1,306,308,-1,-1,310,-1,-1,312,-1,-1,314,316,318,-1,-1,-1,320,-1,322,-1,-1,326,328,330,332,334,-1,-1,-1,-1,-1,-1,-1,336,338,-1,340,-1,-1,-1,-1,-1,-1,342,-1,-1,-1,-1,344,-1,346,348,350,-1,-1,-1,354,-1,356,-1,-1,358,-1,-1,360,-1,-1,-1,-1,-1,362,364,-1,-1,366,368,370,372,-1,-1,-1,-1,-1,374,-1,376,378,380,382,-1,-1,384,386,-1,-1,-1,-1,-1,388,390,392,-1,-1,394,-1,-1,-1,396,398,400,402,404,406,-1,408,410,-1,412,414,416,418,-1,-1,420,-1,-1,-1,-1,422,-1,424,-1,426,-1,428,-1,-1,-1,430,-1,432,-1,-1,434,436,438,440,442,-1,444,-1,446,-1,448,450,-1,452,-1,-1,454,-1,-1,-1,-1,-1,-1,-1,-1,-1,-1,-1,-1,-1,-1,-1,-1,-1,-1,-1,-1,-1,-1,-1,-1,-1,-1,-1,-1,-1,-1,-1,-1,-1,-1,-1,-1,-1,-1],"split_conditions":[1.4403638E-1,-1.8969911E-1,-3.8158226E-1,-1.583466E-1,-4.841184E-1,4.5153207E-1,-8.4512484E-1,-1.6464497E-1,9.775627E-2,-1.3810472E0,-2.4465579E-1,-4.2389792E-1,3.5455585E0,2.676477E0,-6.890479E-1,-3.8183773E-1,-1.7923357E-1,-3.7918723E-1,-3.5502186E-1,-2.3137053E-2,-1.594709E-1,-3.0081725E-1,1.0667071E0,5.0968957E-1,2.6091086E-2,2.324857E0,3.5213337E0,-1.6075541E-1,-5.451156E-2,-1.7133018E-1,-1.9921526E-2,8.160041E-2,1.7519646E1,1.3724053E-1,-1.01468064E-1,-6.350148E-2,-2.8817034E-1,-6.0030833E-2,-1.31367E-1,-4.517472E-2,-1.6147602E-1,-7.79073E-1,-2.9252684E-1,-5.288112E-1,5.6639016E-2,-7.874342E-1,-1.4982411E-1,-4.1275597E-1,8.60255E-1,1.9258988E-1,6.8654954E-1,1.8728637E0,-2.9669812E-1,1.063756E0,3.8952735E-1,-1.1912408E-2,-1.2910281E-1,1.9568294E-2,6.657143E-2,-2.501691E-1,-5.4801995E-1,6.1481882E-2,4.5210603E-1,7.11469E-2,1.5822168E-1,1.0207311E-1,-1.4441982E-1,9.9643874E-1,2.974795E-1,3.9794925E-1,-6.739211E-1,-1.5577522E-1,-5.093806E-2,-1.4522436E-1,-6.861587E-1,-1.6351974E-1,1.5764714E-3,-1.6409524E-1,-3.8014913E-1,7.022402E-1,-2.960251E-1,3.0815415E-3,2.9747238E0,-1.4168046E-1,1.3064341E-1,6.877602E-2,1.5810685E-1,-1.515921E-1,-2.9779315E-2,