{"learner":{"attributes":{"scikit_learn":"{\"n_estimators\": 100, \"objective\": \"binary:logistic\", \"max_depth\": 14, \"learning_rate\": 0.1, \"verbosity\": null, \"booster\": \"gbtree\", \"tree_method\": null, \"gamma\": 0.4, \"min_child_weight\": 7, \"max_delta_step\": 0, \"subsample\": 1, \"colsample_bytree\": 0.5, \"colsample_bylevel\": 1, \"colsample_bynode\": null, \"reg_alpha\": 0, \"reg_lambda\": 1, \"scale_pos_weight\": 1, \"base_score\": 0.5, \"missing\": null, \"num_parallel_tree\": null, \"kwargs\": {\"nthread\": null, \"seed\": null}, \"random_state\": 69, \"n_jobs\": 1, \"monotone_constraints\": null, \"interaction_constraints\": null, \"importance_type\": \"gain\", \"gpu_id\": null, \"validate_parameters\": null, \"classes_\": [0, 1], \"n_classes_\": 2, \"_le\": {\"classes_\": [0, 1]}, \"_features_count\": 4225, \"n_features_in_\": 4225, \"_estimator_type\": \"classifier\"}"},"feature_names":[],"feature_types":[],"gradient_booster":{"model":{"gbtree_model_param":{"num_trees":"100","size_leaf_vector":"0"},"tree_info":[0,0,0,0,0,0,0,0,0,0,0,0,0,0,0,0,0,0,0,0,0,0,0,0,0,0,0,0,0,0,0,0,0,0,0,0,0,0,0,0,0,0,0,0,0,0,0,0,0,0,0,0,0,0,0,0,0,0,0,0,0,0,0,0,0,0,0,0,0,0,0,0,0,0,0,0,0,0,0,0,0,0,0,0,0,0,0,0,0,0,0,0,0,0,0,0,0,0,0,0],"trees":[{"base_weights":[-0E0,-1.9418597E0,9.1265935E-1,-1.9991271E0,-1.2535886E0,-8.865604E-1,1.3844439E0,-1.7465259E0,5.15873E-1,-1.569977E0,6.699826E-1,4.7922763E-1,1.7229002E0,-1.8241005E0,1E0,-1.6535434E0,1.2335958E0,-1.8334565E0,4.9470645E-1,-1.1026157E0,1.2504125E0,9.19447E-1,-1.2116065E0,3.264095E-2,1.7874227E0,-1.9045346E0,-2.5316456E-2,-7.5E-1,-1.8787879E0,-1.7272727E0,1.601173E0,-1.9309031E0,1.2771084E0,-1.971831E0,1.4150198E0,-1.5006435E0,3.167421E-1,-1.6676558E0,1.6130466E0,-7.4594593E-1,1.1819928E0,-1.469656E0,1.5555556E0,-1.2347826E0,1.3534744E0,-1.100346E0,1.8111166E0,-1.9530284E0,-5.16129E-1,-1.804878E0,1.7142857E0,1.7948718E0,-4.2424244E-1,-1.9437772E0,1.9607843E-1,-1.75E0,1.9609756E0,-1.8461539E0,1.6455696E0,-1.6973865E0,1.2592592E0,1.2647059E0,-1.1460674E0,-1.947541E0,8.888889E-1,-1.483871E0,1.7209659E0,-1.6277974E0,4.3779528E-1,-1.9552239E0,1.2737651E0,-1.6777964E0,1.1179488E0,-6.25E-1,1.8511628E0,-1.825784E0,1.6333333E0,1.7253522E0,-8.5714287E-1,-1.9292035E0,1.761194E0,1.4414387E0,1.8972728E0,-1.9870551E0,-1.1688311E0,-1.6363636E0,6.666667E-1,5E-1,1.915493E0,-1.958683E0,-4.9411765E-1,-8E-1,1.8195488E0,-1.7873564E0,2.857143E-1,-3.529412E-1,1.735849E0,-1.862069E0,1.7142858E-1,-5E-1,-1.8769231E0,-1.1698114E0,1.778125E0,-1.7320341E0,1.25E0,1.3318872E0,-1.8876405E0,1.3727096E0,-1.4006116E0,-1.7934355E0,6.7826086E-1,-1.6444445E0,1.8961039E0,1.9572192E0,1E0,-1.9120879E0,-1.25E-1,6.25E-1,1.9130435E0,1.8501873E0,-2.1052632E-1,-1.7058823E0,9.411765E-1,-9.457364E-1,1.5887071E0,-1.5121951E0,1.901949E0,-1.8367347E0,-0E0,1.25E0,1.96875E0,-1.9642255E0,-4.7058824E-1,-1.5471698E0,1.1111112E0,-6.25E-1,1.9309262E0,-0E0,-1.8622755E0,1.8974359E0,1.125E0,1.4814815E-1,1.8469056E0,-1.8701298E0,3.272727E-1,-4.7826087E-1,1.764075E0,1.4298979E0,-1.4742857E0,-1.8213059E0,1.8E0,-1.9179908E0,-1.0532545E0,-1.2173913E0,1.8356165E0,-1.9689922E0,-8.235294E-1,6.25E-1,1.9130435E0,-1.5921053E0,1.3563218E0,1.6963543E0,-1.2380953E0,1.906094E0,-1.7647059E0,-1.9702739E0,-8.5714287E-1,1.9671593E0,1E0,-1.9599333E0,-9.589041E-1,-1.8095238E0,1.3142858E0,-2.2222222E-1,1.8745874E0,-1.9185889E0,-7.027027E-1,-1.4666667E0,1.2222222E0,6.0606062E-2,1.9069767E0,1.475348E0,-1.3239436E0,2.2222222E-1,-1.8601398E0,-3.75E-1,-1.9695817E0,-1.9577167E0,-6.031746E-1,-1.8243903E0,1.3138686E-1,1.0769231E0,1.9660298E0,-1.9272727E0,1.3939394E0,1.8644068E0,2.5E-1,1.753304E0,-1.4495413E0,-1.718593E0,1.5555556E0,-5.915493E-1,1.9121176E0,-1.9748757E0,-6.25E-1,-1.8E0,5.4054055E-2,5E-1,1.8095238E0,1.8964942E0,-0E0,-1.9544159E0,-1.0769231E0,-1.75E0,-1E0,1.125E0,1.9620253E0,-1.9E0,1.5067841E0,-1.9285715E0,8.235294E-1,-1.9742489E0,-7.5E-1,7.5E-1,-1.7714286E0,-1.125E0,-1.9096045E0,9.4736844E-1,-1.5652174E0,1.8057852E0,-1.4285715E0,-1.9012346E0,-1.25E-1,-1.925926E0,-7.3170733E-1,-1.8139535E0,1.125E0,1.4213036E0,1.9347696E0,-1.978986E0,-7.5E-1,3.3333334E-1,1.9170897E0,-1.7297298E0,1.5348055E0,-4E-1,1.7966101E0,1.8384401E0,-1.0588236E0,-2.5E-1,-1.8857143E0,1.5996608E0,-1.1807228E0,1.9372281E0,-3.030303E-1,-1.9825742E0,-1.1627907E0,1.9349315E0,3.75E-1,1.5605565E0,-1.5492958E0,-1.037037E0,1.8644187E0,-1.8E0,-0E0,-9E-1,1.6815398E0,6.0606062E-2,-1.8518518E0,1.9396648E0,3.1111112E-1,-1.9866595E0,-1.5180722E0,6.25E-1,1.94974E0,1.590987E0,-9.126214E-1,-1.8139535E0,-1E0,1.9013679E0,3.6619717E-1,-3.75E-1,1.7345291E0,1.9415252E0,4.6153846E-1,-1.8545455E0,-7.5E-1,9.0909094E-1,1.9613866E0,1.6525761E0,3.3591732E-1,-1.887324E0,1.1111112E0,1.9160637E0,-8.75E-1,1.65E0,-1.2121212E0,1.7824885E0,-0E0,1.9433821E0,6.0465115E-1],"categories":[],"categories_nodes":[],"categories_segments":[],"categories_sizes":[],"default_left":[true,true,true,false,true,true,true,true,true,true,true,true,true,true,false,true,true,true,true,true,true,true,true,true,true,true,true,false,false,false,true,true,true,false,true,true,true,true,true,true,true,true,true,true,true,true,true,true,true,false,false,true,false,true,false,false,false,false,true,true,false,true,true,false,false,true,true,true,true,false,true,true,true,false,true,true,true,true,true,false,false,true,true,false,true,false,false,false,true,true,true,false,true,true,false,false,true,false,false,false,false,false,true,true,false,true,false,true,true,true,true,false,false,false,false,true,false,false,false,true,false,false,false,true,true,false,true,false,false,true,true,true,false,false,false,false,true,false,true,false,false,true,true,true,false,true,true,true,true,true,false,true,true,false,false,false,false,false,true,true,true,true,true,true,false,true,false,false,false,false,true,false,true,false,true,true,false,true,false,false,true,true,true,false,false,false,false,true,true,true,true,false,false,false,false,false,false,true,true,true,false,true,true,true,false,false,false,false,false,true,false,false,false,true,true,false,false,false,true,false,false,false,false,false,false,false,false,true,false,true,true,false,false,false,false,false,false,true,true,true,false,false,true,false,true,false,false,true,true,false,false,true,true,true,false,true,false,true,false,true,true,false,true,false,false,false,true,false,false,true,false,false,true,false,true,true,true,false,false,true,true,false,true,true,false,false,false,false,false,false,false,false,false,false,false,false,false,false,false,false,false],"id":0,"left_children":[1,3,5,-1,7,9,11,13,15,17,19,21,23,25,-1,27,29,31,33,35,37,39,41,43,45,47,49,-1,-1,-1,51,53,55,-1,57,59,61,63,65,67,69,71,73,75,77,79,81,83,85,-1,-1,87,-1,89,-1,-1,-1,-1,91,93,-1,95,97,-1,-1,99,101,103,105,-1,107,109,111,-1,113,115,117,119,121,-1,-1,123,125,-1,127,-1,-1,-1,-1,131,133,-1,135,137,-1,-1,139,-1,-1,-1,-1,-1,141,143,-1,145,-1,147,149,151,153,-1,-1,-1,-1,155,-1,-1,-1,157,-1,-1,-1,159,161,-1,163,-1,-1,-1,-1,165,-1,-1,-1,-1,167,-1,169,-1,-1,171,173,175,-1,177,179,181,183,185,-1,187,189,-1,-1,-1,-1,-1,191,193,195,197,199,201,-1,203,-1,-1,-1,-1,205,-1,207,-1,209,211,-1,-1,-1,-1,215,217,219,-1,-1,-1,-1,221,223,225,227,-1,-1,-1,-1,-1,-1,229,231,233,-1,235,237,239,-1,-1,-1,-1,-1,241,-1,-1,-1,-1,-1,-1,-1,-1,243,-1,-1,-1,-1,-1,-1,-1,-1,245,-1,247,249,-1,-1,-1,-1,-1,-1,251,253,255,-1,-1,257,-1,259,-1,-1,261,263,-1,-1,265,267,269,-1,271,-1,273,-1,275,277,-1,279,-1,-1,-1,281,-1,-1,283,-1,-1,285,-1,287,289,291,-1,-1,293,295,-1,297,299,-1,-1,-1,-1,-1,-1,-1,-1,-1,-1,-1,-1,-1,-1,-1,-1,-1],"loss_changes":[4.1282055E4,2.9104297E2,1.3452007E4,0E0,5.0221722E2,3.5035063E3,3.8455742E3,9.7648315E1,1.9822678E2,1.2457188E3,1.0356492E3,2.545261E3,9.964746E2,6.3286987E1,0E0,5.05262E0,1.06430786E2,6.1763574E2,5.924194E2,1.4086389E2,8.0453467E2,1.1869001E3,5.0677283E2,5.658279E2,6.042129E2,2.720288E1,6.423473E1,0E0,0E0,0E0,3.4206787E1,5.4277832E1,1.3229793E2,0E0,1.4570398E2,1.07613556E2,7.806409E1,6.201532E1,2.2798303E2,3.8694965E2,6.7720703E2,3.5020557E2,4.0315704E1,2.9538004E2,1.3753302E2,1.747609E2,2.7532617E2,8.470947E0,2.1628544E1,0E0,0E0,1.1224991E1,0E0,4.1309082E1,0E0,0E0,0E0,0E0,7.708441E1,3.2938354E1,0E0,2.6525528E1,2.1308285E1,0E0,0E0,8.052605E0,1.09854126E2,6.583411E1,3.325797E2,0E0,6.0458374E2,1.644154E2,1.0790961E2,0E0,2.8948517E0,2.0824524E1,7.265579E0,3.4706024E1,3.9E1,0E0,0E0,5.83063E2,1.1570508E2,0E0,1.5027828E1,0E0,0E0,0E0,5.545044E-2,1.504541E1,3.763986E1,0E0,4.6471313E1,2.3299866E1,0E0,0E0,4.8107147E-1,0E0,0E0,0E0,0E0,0E0,7.147717E1,5.8981384E1,0E0,9.1006516E1,0E0,3.597705E2,1.13353E2,5.0645386E1,6.531054E1,0E0,0E0,0E0,0E0,6.8338013E0,0E0,0E0,0E0,9.085266E0,0E0,0E0,0E0,1.4612134E2,4.7634766E2,0E0,1.1078125E2,0E0,0E0,0E0,0E0,1.1226074E1,0E0,0E0,0E0,0E0,3.404358E0,0E0,1.2853577E1,0E0,0E0,6.401693E1,3.5584717E1,9.541992E0,0E0,4.0450245E1,2.2584137E1,2.7155322E2,2.9052315E1,1.48628235E1,0E0,2.429541E1,7.743209E1,0E0,0E0,0E0,0E0,0E0,3.4870605E0,7.874919E1,1.1759693E1,2.715918E2,8.019366E1,1.0734961E2,0E0,1.0636719E1,0E0,0E0,0E0,0E0,1.5646206E1,0E0,6.15238E0,0E0,2.488623E1,3.4511719E0,0E0,2.3333359E-1,0E0,0E0,1.494751E0,2.2775879E2,4.768221E1,0E0,0E0,0E0,0E0,7.963257E0,2.6226986E1,9.060974E-1,4.8898464E1,0E0,0E0,0E0,0E0,0E0,0E0,2.4897119E2,1.606565E1,8.77034E0,0E0,3.9285828E1,7.556055E1,8.134277E0,0E0,0E0,0E0,0E0,0E0,1.864502E1,0E0,0E0,0E0,0E0,0E0,0E0,0E0,0E0,1.9315332E2,0E0,0E0,0E0,0E0,0E0,0E0,0E0,0E0,2.7894377E1,0E0,1.3777197E2,1.2728573E1,0E0,0E0,0E0,0E0,0E0,0E0,1.4784503E2,3.761133E1,3.2695312E0,0E0,0E0,1.5535156E1,0E0,1.6784668E2,0E0,0E0,1.0920361E2,1.3341179E1,0E0,0E0,6.1839783E1,1.7398888E1,2.6035156E1,0E0,5.776367E-1,0E0,1.0109863E1,0E0,1.5695801E2,7.664604E-1,0E0,7.8106445E1,0E0,0E0,0E0,3.1789978E1,0E0,0E0,1.75625E1,0E0,0E0,3.97163E0,0E0,5.210205E0,1.5725E2,5.2889862E1,0E0,0E0,5.834912E1,7.393186E1,0E0,2.3188354E1,1.5466797E1,0E0,0E0,0E0,0E0,0E0,0E0,0E0,0E0,0E0,0E0,0E0,0E0,0E0,0E0,0E0,0E0,0E0],"parents":[2147483647,0,0,1,1,2,2,4,4,5,5,6,6,7,7,8,8,9,9,10,10,11,11,12,12,13,13,15,15,16,16,17,17,18,18,19,19,20,20,21,21,22,22,23,23,24,24,25,25,26,26,30,30,31,31,32,32,34,34,35,35,36,36,37,37,38,38,39,39,40,40,41,41,42,42,43,43,44,44,45,45,46,46,47,47,48,48,51,51,53,53,58,58,59,59,61,61,62,62,65,65,66,66,67,67,68,68,70,70,71,71,72,72,74,74,75,75,76,76,77,77,78,78,81,81,82,82,84,84,88,88,89,89,90,90,92,92,93,93,96,96,102,102,103,103,105,105,107,107,108,108,109,109,110,110,115,115,119,119,123,123,124,124,126,126,131,131,136,136,138,138,141,141,142,142,143,143,145,145,146,146,147,147,148,148,149,149,151,151,152,152,158,158,159,159,160,160,161,161,162,162,163,163,165,165,170,170,172,172,174,174,175,175,177,177,180,180,181,181,182,182,187,187,188,188,189,189,190,190,197,197,198,198,199,199,201,201,202,202,203,203,209,209,218,218,227,227,229,229,230,230,237,237,238,238,239,239,242,242,244,244,247,247,248,248,251,251,252,252,253,253,255,255,257,257,259,259,260,260,262,262,266,266,269,269,272,272,274,274,275,275,276,276,279,279,280,280,282,282,283,283],"right_children":[2,4,6,-1,8,10,12,14,16,18,20,22,24,26,-1,28,30,32,34,36,38,40,42,44,46,48,50,-1,-1,-1,52,54,56,-1,58,60,62,64,66,68,70,72,74,76,78,80,82,84,86,-1,-1,88,-1,90,-1,-1,-1,-1,92,94,-1,96,98,-1,-1,100,102,104,106,-1,108,110,112,-1,114,116,118,120,122,-1,-1,124,126,-1,128,-1,-1,-1,-1,132,134,-1,136,138,-1,-1,140,-1,-1,-1,-1,-1,142,144,-1,146,-1,148,150,152,154,-1,-1,-1,-1,156,-1,-1,-1,158,-1,-1,-1,160,162,-1,164,-1,-1,-1,-1,166,-1,-1,-1,-1,168,-1,170,-1,-1,172,174,176,-1,178,180,182,184,186,-1,188,190,-1,-1,-1,-1,-1,192,194,196,198,200,202,-1,204,-1,-1,-1,-1,206,-1,208,-1,210,212,-1,-1,-1,-1,216,218,220,-1,-1,-1,-1,222,224,226,228,-1,-1,-1,-1,-1,-1,230,232,234,-1,236,238,240,-1,-1,-1,-1,-1,242,-1,-1,-1,-1,-1,-1,-1,-1,244,-1,-1,-1,-1,-1,-1,-1,-1,246,-1,248,250,-1,-1,-1,-1,-1,-1,252,254,256,-1,-1,258,-1,260,-1,-1,262,264,-1,-1,266,268,270,-1,272,-1,274,-1,276,278,-1,280,-1,-1,-1,282,-1,-1,284,-1,-1,286,-1,288,290,292,-1,-1,294,296,-1,298,300,-1,-1,-1,-1,-1,-1,-1,-1,-1,-1,-1,-1,-1,-1,-1,-1,-1],"split_conditions":[-1.6813989E-1,-2.612077E-1,-2.3972926E-1,-1.9991271E-1,1.0332029E0,-3.1934053E-1,-2.3870754E-1,5.672296E-1,1.6422161E-1,-1.3908592E-1,3.0317414E-1,-5.7715725E-2,-5.026393E-1,1.2333348E0,1E-1,-1.198087E0,-3.5915043E-2,-1.3361117E-1,-5.01994E-1,6.6142124E-1,-5.026546E-1,-2.6385477E-1,-7.818824E-2,5.2641964E-1,-6.099644E-1,-3.287678E-2,9.5533156E-1,-7.5E-2,-1.8787879E-1,-1.7272727E-1,-1.4717275E-1,4.1329637E0,-1.3192737E-2,-1.971831E-1,-4.0023828E-1,5.896021E-1,-2.965953E-1,-1.2449092E-1,-7.1492827E-1,-1.3296965E-1,-5.2083445E-1,-4.6289414E-2,-2.1727696E-2,1.1667616E0,-1.8713072E-1,2.1713781E0,5.944885E-2,3.514232E-1,-6.9705797E-3,-1.804878E-1,1.7142858E-1,-1.0640543E0,-4.2424243E-2,1.8878378E0,1.9607844E-2,-1.75E-1,1.9609757E-1,-1.8461539E-1,-5.1611125E-1,-6.0397234E-2,1.2592593E-1,8.2447894E-2,-1.6259682E-1,-1.9475411E-1,8.888889E-2,-7.772908E-2,-5.097854E-1,2.5277777E0,2.395595E-1,-1.955224E-1,2.2729726E0,-5.0362222E-2,3.496233E-1,-6.25E-2,1.4871696E-1,1.7065566E0,-2.3408486E-2,1.2925054E0,1.8274519E-1,-1.9292036E-1,1.761194E-1,-5.016503E-1,-8.069315E-1,-1.9870551E-1,6.4679205E-1,-1.6363637E-1,6.666667E-2,5E-2,1.915493E-1,1.9070157E0,6.575212E-1,-8.0000006E-2,-3.1169224E-1,-1.8177016E0,2.857143E-2,-3.529412E-2,-8.366922E-2,-1.862069E-1,1.7142858E-2,-5E-2,-1.8769231E-1,-1.1698114E-1,-1.1296482E0,8.389313E-3,1.25E-1,-3.3141568E-1,-1.8876405E-1,6.569387E-1,-4.3319422E-1,-3.045432E-1,-3.1958386E-2,-1.6444445E-1,1.8961039E-1,1.9572192E-1,1E-1,1.7817883E0,-1.25E-2,6.25E-2,1.9130436E-1,-6.0587966E-1,-2.1052632E-2,-1.7058824E-1,9.411765E-2,1.3393006E0,7.0424415E-2,-1.5121952E-1,9.378191E-1,-1.8367347E-1,-0E0,1.25E-1,1.96875E-1,-1.3491614E-3,-4.7058824E-2,-1.5471698E-1,1.1111112E-1,-6.25E-2,7.7364343E-1,-0E0,2.3852608E-1,1.897436E-1,1.12500004E-1,-2.338135E-1,-4.0358973E-1,1.8049185E0,3.272727E-2,7.123291E-1,-3.3652675E-1,6.974385E-1,-5.464823E-1,-1.5420265E0,1.7999999E-1,1.291801E0,2.3612347E-1,-1.2173913E-1,1.8356165E-1,-1.9689922E-1,-8.235294E-2,6.25E-2,-8.943479E-1,2.5609848E-1,-6.515062E-1,1.060921E0,9.157826E-2,-6.6227895E-1,-1.764706E-1,5.661232E0,-8.571429E-2,1.9671594E-1,1E-1,-1.9599333E-1,-3.6925852E-1,-1.8095239E-1,6.7191446E-1,-2.2222223E-2,1.5273521E0,2.7380908E-1,-7.027027E-2,-1.4666668E-1,1.2222222E-1,6.0606063E-3,6.2641287E-1,-5.525534E-1,1.4123123E0,2.2222223E-2,-1.8601398E-1,-3.75E-2,-1.9695817E-1,9.5005226E-1,-4.20433E-1,-9.9853384E-1,6.0228664E-2,1.07692316E-1,1.9660299E-1,-1.9272727E-1,1.3939394E-1,1.8644069E-1,2.5E-2,6.81403E-2,8.670585E-1,8.197059E-3,1.5555556E-1,6.28793E-1,-3.0332056E-1,6.527663E0,-6.25E-2,-1.7999999E-1,5.4054055E-3,5E-2,1.8095239E-1,-1.2492912E0,-0E0,-1.9544159E-1,-1.07692316E-1,-1.75E-1,-1E-1,1.12500004E-1,1.9620253E-1,-1.9E-1,-6.345478E-1,-1.9285715E-1,8.235294E-2,-1.9742489E-1,-7.5E-2,7.5E-2,-1.7714286E-1,-1.12500004E-1,-1.9096045E-1,-4.632343E-1,-1.5652174E-1,3.2795876E-1,2.8151962E-1,-1.9012347E-1,-1.25E-2,-1.925926E-1,-7.317074E-2,-1.8139535E-1,1.12500004E-1,3.9471716E-1,1.3412024E0,1.8038826E0,-7.5E-2,3.3333335E-2,8.0073255E-1,-1.7297298E-1,1.607975E0,-4.0000003E-2,1.7966102E-1,-3.5425735E-1,-3.5945567E-1,-2.5E-2,-1.8857144E-1,-8.4973365E-1,-1.3071446E0,1.3435335E0,-3.0303031E-2,1.152149E0,-1.16279066E-1,-1.1250083E0,3.75E-2,1.5594609E0,3.2166922E-1,-1.037037E-1,4.6490693E-1,-1.7999999E-1,-0E0,-8.9999996E-2,-3.5089678E-1,6.0606063E-3,-1.8518518E-1,2.7428527E0,3.1111112E-2,-1.9866596E-1,-6.9314766E-1,6.25E-2,-1.1997731E0,9.010977E-1,1.8586505E-2,-1.8139535E-1,-1E-1,9.321454E-1,-8.871613E-1,-3.75E-2,1.157599E0,2.299414E0,4.6153847E-2,-1.8545455E-1,-7.5E-2,9.090909E-2,1.9613867E-1,1.6525762E-1,3.3591732E-2,-1.887324E-1,1.1111112E-1,1.9160637E-1,-8.75E-2,1.65E-1,-1.21212125E-1,1.7824885E-1,-0E0,1.9433822E-1,6.0465116E-2],"split_indices":[690,690,578,0,521,740,681,2397,445,1057,690,731,573,1015,0,239,704,2470,573,646,573,500,1080,690,592,1527,666,0,0,0,700,1246,1387,0,685,1656,229,1252,505,683,643,959,587,550,543,838,690,997,575,0,0,708,0,1117,0,0,0,0,500,773,0,397,845,0,0,502,685,614,512,0,811,2321,690,0,540,509,420,509,604,0,0,673,604,0,393,0,0,0,424,870,115,0,1014,143,0,0,12,0,0,0,0,0,665,1391,0,574,0,603,778,740,1283,0,0,0,0,6,0,0,0,190,0,0,0,614,781,0,1430,0,0,2147483647,2147483647,1961,0,0,0,0,222,0,690,0,0,681,644,204,0,777,672,1430,549,62,0,575,690,0,0,0,0,0,370,783,604,655,1527,587,0,988,0,0,0,0,822,0,123,0,1007,1080,0,6,0,0,505,680,431,0,0,0,0,1436,227,261,521,0,0,0,0,0,0,1289,154,675,0,578,520,1147,0,0,0,0,0,65,0,0,0,2147483647,2147483647,0,0,0,685,0,0,0,0,0,0,0,0,614,0,968,502,0,0,0,0,0,0,602,770,575,0,0,518,0,704,0,0,721,499,0,0,557,612,665,0,681,0,253,0,758,3,0,641,0,0,0,685,0,0,588,0,0,578,0,476,540,706,0,0,499,588,0,678,419,0,0,0,0,0,0,0,0,0,0,0,0,0,0,0,0,0],"split_type":[0,0,0,0,0,0,0,0,0,0,0,0,0,0,0,0,0,0,0,0,0,0,0,0,0,0,0,0,0,0,0,0,0,0,0,0,0,0,0,0,0,0,0,0,0,0,0,0,0,0,0,0,0,0,0,0,0,0,0,0,0,0,0,0,0,0,0,0,0,0,0,0,0,0,0,0,0,0,0,0,0,0,0,0,0,0,0,0,0,0,0,0,0,0,0,0,0,0,0,0,0,0,0,0,0,0,0,0,0,0,0,0,0,0,0,0,0,0,0,0,0,0,0,0,0,0,0,0,0,0,0,0,0,0,0,0,0,0,0,0,0,0,0,0,0,0,0,0,0,0,0,0,0,0,0,0,0,0,0,0,0,0,0,0,0,0,0,0,0,0,0,0,0,0,0,0,0,0,0,0,0,0,0,0,0,0,0,0,0,0,0,0,0,0,0,0,0,0,0,0,0,0,0,0,0,0,0,0,0,0,0,0,0,0,0,0,0,0,0,0,0,0,0,0,0,0,0,0,0,0,0,0,0,0,0,0,0,0,0,0,0,0,0,0,0,0,0,0,0,0,0,0,0,0,0,0,0,0,0,0,0,0,0,0,0,0,0,0,0,0,0,0,0,0,0,0,0,0,0,0,0,0,0,0,0,0,0,0,0,0,0,0,0,0,0,0,0,0,0,0,0],"sum_hessian":[2.32915E4,7.4465E3,1.5845E4,6.87275E3,5.7375E2,3.2915E3,1.25535E4,4.4875E2,1.25E2,2.28725E3,1.00425E3,3.417E3,9.1365E3,4.3675E2,1.2E1,3.075E1,9.425E1,2.0285E3,2.5875E2,2.475E2,7.5675E2,2.7115E3,7.055E2,3.36E2,8.8005E3,4.18E2,1.875E1,7E0,2.375E1,1E1,8.425E1,1.96725E3,6.125E1,7E1,1.8875E2,1.9325E2,5.425E1,8.325E1,6.735E2,3.69E2,2.3425E3,6.4575E2,5.975E1,1.715E2,1.645E2,7.125E1,8.72925E3,4.035E2,1.45E1,9.25E0,9.5E0,7.7E1,7.25E0,1.9555E3,1.175E1,1.1E1,5.025E1,1.2E1,1.7675E2,1.8075E2,1.25E1,3.3E1,2.125E1,7.525E1,8E0,2.225E1,6.5125E2,2.1125E2,1.5775E2,6.6E1,2.2765E3,5.98E2,4.775E1,7E0,5.275E1,1.425E2,2.9E1,1.41E2,2.35E1,5.55E1,1.575E1,1.65325E3,7.076E3,3.8525E2,1.825E1,7.25E0,7.25E0,7E0,7E1,1.93525E3,2.025E1,1.15E1,1.6525E2,1.73E2,7.75E0,7.5E0,2.55E1,1.35E1,7.75E0,7E0,1.525E1,1.225E1,6.39E2,2.0425E2,7E0,1.1425E2,4.35E1,2.19575E3,8.075E1,5.7025E2,2.775E1,1.025E1,3.75E1,4.575E1,7E0,1.355E2,7E0,7E0,2.2E1,1.325E2,8.5E0,1.6E1,7.5E0,9.575E1,1.5575E3,9.25E0,7.06675E3,1.125E1,7E0,7E0,6.3E1,1.92775E3,7.5E0,1.225E1,8E0,7E0,1.5825E2,7E0,1.66E2,1.85E1,7E0,2.6E1,6.13E2,1.915E2,1.275E1,2.2E1,9.225E1,2.153E3,4.275E1,7.175E1,9E0,4.8675E2,8.35E1,1.05E1,1.725E1,1.28E2,7.5E0,7E0,1.255E2,7.5E1,2.075E1,1.50075E3,5.675E1,7.05925E3,7.5E0,1.9165E3,1.125E1,1.5125E2,7E0,1.4875E2,1.725E1,9.5E0,1.65E1,8E0,6.05E2,1.8325E2,8.25E0,1.4E1,8E0,7.25E0,8.5E1,2.1185E3,3.45E1,8E0,3.475E1,7E0,6.475E1,4.72E2,1.475E1,5.025E1,3.325E1,8.75E0,1.1675E2,6.775E1,7.25E0,1.375E1,7E0,1.4745E3,2.625E1,4.875E1,8E0,1.675E1,7.0425E3,1.9095E3,7E0,9E0,8.25E0,7E0,9.5E0,5.98E2,7E0,1.745E2,8.75E0,7E0,7E0,7E0,7.8E1,1.9E1,2.0995E3,2.7E1,7.5E0,4.65E2,7E0,7E0,7.75E0,7E0,4.325E1,2.275E1,1.05E1,1.451E3,2.35E1,1.925E1,7E0,3.95E1,9.25E0,9.75E0,7E0,3.135E2,6.729E3,1.9025E3,7E0,8E0,5.9E2,1.75E1,2.082E3,9E0,1.375E1,1.435E3,1.6E1,7E0,1.65E1,2.9375E2,1.975E1,6.72175E3,7.25E0,1.89275E3,9.75E0,5.83E2,7E0,2.06525E3,1.675E1,1.25E1,1.4225E3,9E0,7E0,9E0,2.8475E2,7.25E0,1.25E1,6.7115E3,1.025E1,1.873E3,1.975E1,7E0,5.76E2,2.0405E3,2.475E1,9.75E0,7E0,1.388E3,3.45E1,7E0,2.7775E2,6.70275E3,8.75E0,1.275E1,7E0,7.25E0,5.6875E2,1.94475E3,9.575E1,1.675E1,8E0,1.381E3,7E0,1.9E1,1.55E1,2.7025E2,7.5E0,6.693E3,9.75E0],"tree_param":{"num_deleted":"4","num_feature":"4225","num_nodes":"301","size_leaf_vector":"0"}},{"base_weights":[-2.0344877E-4,-1.7657964E0,8.28661E-1,-1.817947E0,-1.1397231E0,-2.615387E-1,1.4098063E0,-1.6320604E0,2.6612833E-1,5.6720954E-1,-1.1599778E0,-8.839608E-1,1.5135344E0,-1.6914297E0,7.4775857E-1,-1.7674066E0,9.976148E-1,8.9184153E-1,-1.160647E0,-1.4734623E0,2.432883E-1,-1.3896325E0,5.854096E-1,-7.845664E-1,1.5660874E0,-1.7618469E0,2.3900443E-1,-1.5957369E0,1.3073807E0,1.0882556E0,-1.6954627E0,-1.6123307E0,1.2031921E0,-1.6086344E0,-8.8751286E-2,-1.1940498E0,7.6814896E-1,1.5963595E0,-1.550387E0,-9.976551E-1,1.219245E0,-1.4606316E0,8.85295E-1,-9.69159E-1,1.5881484E0,-1.8002522E0,-5.0267583E-1,1.6176877E0,-1.1704886E0,-8.122633E-1,1.5273466E0,-1.6699648E0,1.2032669E0,-1.7826116E0,-4.252945E-1,-1.7351681E0,2.6435685E-1,-9.7425586E-1,1.700069E0,-1.6571556E0,1.6115078E0,-1.776056E0,1.4925355E0,-1.5121678E0,1.2030033E0,-1.0593686E0,1.1859075E0,-1.6867394E0,1.836089E-1,-1.6460373E0,9.440557E-1,-9.306641E-1,1.4862964E0,-1.6653436E0,1.2294482E0,-5.735541E-1,1.6147076E0,-1.566671E0,1.66565E0,2.8695187E-1,1.6233256E0,-1.8148966E0,-9.0392756E-1,1.686611E0,-2.6009533E-1,-3.389541E-1,-1.7865552E0,-1.8153491E0,1.2865213E0,-8.96557E-1,-1.818886E0,-1.7749172E0,-6.517427E-1,-1.7091054E0,1.249124E0,7.1192294E-1,1.8221887E0,-1.720489E0,1.2518325E-1,1.744587E0,1.0518514E0,-1.0165094E0,-1.8277158E0,-9.636866E-1,1.701484E0,-1.7468929E0,-1.529655E-1,6.008788E-1,1.644218E0,-1.470203E0,7.3946685E-1,-1.4826383E-1,1.5359706E0,-1.7630866E0,4.364078E-1,-1.6585847E0,1.6746519E0,-6.882E-2,1.6564853E0,1.128793E-1,-1.7852999E0,-1.6728123E0,5.05897E-1,7.45246E-1,1.7690395E0,-1.7686568E0,2.0900281E-2,-1.6816056E0,1.0774223E0,1.2232864E0,1.7111311E0,1.8034463E0,8.608151E-1,-1.7456089E0,1.334323E0,-1.8039225E0,-5.633178E-1,6.3185984E-1,1.680247E0,-1.7394993E0,1.3095189E0,-1.6668248E0,1.6930722E0,1.7869644E0,6.074183E-1,-1.805339E0,-1.0693642E0,-1.3770324E0,1.2923114E0,-1.7629472E0,-1.5320154E-1,-1.3856977E0,1.5683451E0,1.6236862E0,-1.0052955E0,-1.7933831E0,-1.0761418E0,1.765217E0,6.714579E-1,-1.8309882E0,-8.719371E-1,-8.5154504E-1,-1.8188832E0,-3.854038E-1,1.6103789E0,-1.2298387E0,1.4141593E0,-1.8182582E0,1.7156475E0,1.3863143E0,-1.2957428E0,-1.8311213E0,-9.6914214E-1,-1.7577665E0,2.561611E-1,-1.072975E0,-1.7972406E0,-1.865225E0,-1.1516708E0,-1.7525799E0,6.0799077E-2,9.4519246E-1,1.7585002E0,-3.801959E-1,1.6932027E0,-1.8171254E0,-1.0845275E0,-1.42041E0,1.6644866E0,-6.2955186E-2,1.7074671E0,-1.5749164E0,1.1999983E0,1.5239801E0,-6.118008E-1,1.7197901E0,-1.4542496E0,1.4410985E0,-7.071689E-1,-1.7310416E0,6.091575E-1,-1.769868E0,9.867336E-1,-1.2280424E0,1.6715829E0,1.7355055E0,4.2527443E-1,-1.4441372E-1,-1.7711535E0,7.191529E-1,1.7616847E0,-1.2010965E-1,-1.8058077E0,6.084272E-1,1.6318406E0,1.5890485E0,-1.0249665E0,-1.5768485E0,1.1731089E0,9.4685525E-1,1.7360888E0,-1.6813835E0,1.471481E0,-1.8977098E0,4.11981E-1,-1.7815771E0,1.0440437E0,1.7741332E0,7.1709573E-1,1.7996826E0,1.0331907E0,-1.6132457E0,1.3382745E0,-1.1771828E0,-1.8472338E0,1.6367478E0,-9.7499466E-1,-1.706597E0,1.5018727E0,-1.8232495E0,-2.1241505E-2,-2.1819772E-2,1.6295031E0,-1.1306273E0,1.5660403E0,1.1865879E0,1.7566687E0,1.4987946E0,-1.4656738E0,-1.4606125E0,1.3514942E0,-1.7919853E0,4.600345E-1,1.8048706E0,8.44205E-1,1.6878053E0,-1.6426939E-1,-1.6521887E0,7.623212E-1,-1.7711418E0,7.9375106E-1,3.9402732E-1,1.7623967E0,1.4188663E0,-1.1148884E0,1.7600441E0,-3.2419103E-1,1.5279021E0,-1.227775E0,-1.8431351E0,-7.719189E-1,1.6886361E0,7.355328E-1,-1.8044018E0,-1.741171E-1,1.1525575E0,1.8242077E0,-9.347323E-1,1.705697E0,-1.2076198E0,1.2848339E0,1.6611662E0,-1.1191919E0,1.8073344E0,1.0132573E0,1.5022049E0,-1.1019669E0,9.8352954E-2,-1.60116E0,1.076852E0,1.765085E0,1.5504551E0,-1.478252E0,5.590055E-2,-1.9080985E0,-1.8073566E0,-9.408202E-1,1.7203696E0,-9.203925E-1,-1.8257883E0,1.7806564E-1,6.959286E-1,1.6415575E0,1.5699551E0,-5.294189E-1,-1.0908738E0,1.4278101E0,1.7668205E0,5.0962698E-2],"categories":[],"categories_nodes":[],"categories_segments":[],"categories_sizes":[],"default_left":[true,true,true,false,true,true,true,true,true,true,true,true,true,true,false,false,true,true,true,true,true,true,true,true,true,true,true,false,true,true,true,true,true,true,true,true,true,false,true,true,true,true,true,true,true,true,false,false,false,false,true,true,true,true,false,true,true,false,true,true,true,true,true,true,true,true,true,true,true,false,false,false,true,true,false,true,true,true,false,true,true,false,false,true,false,false,false,false,true,false,false,true,false,false,true,false,false,true,true,true,true,false,false,false,true,true,true,false,false,true,false,true,true,true,false,false,false,false,true,false,true,false,false,false,false,false,false,true,true,true,true,false,false,false,true,true,false,false,false,true,false,true,false,false,false,false,false,false,false,true,false,true,true,true,false,true,false,false,false,false,false,false,false,true,true,true,true,false,true,true,true,false,false,true,true,false,false,false,false,false,false,false,false,false,true,false,false,true,false,false,true,true,true,true,true,true,false,true,true,false,false,true,false,false,false,true,false,false,false,false,true,true,true,false,false,true,true,true,true,true,true,false,true,false,true,true,false,true,false,false,false,false,false,true,true,true,true,false,false,false,false,false,false,true,true,true,true,true,true,false,true,true,false,true,false,true,true,false,false,false,false,true,true,true,true,true,false,true,true,false,false,false,false,true,false,true,true,false,true,true,true,false,false,false,false,true,false,false,false,true,true,false,false,false,false,false,false,false,false,false,false,false,false,false,false,false,false,false,false],"id":1,"left_children":[1,3,5,-1,7,9,11,13,15,17,19,21,23,25,-1,-1,27,29,31,33,35,37,39,41,43,45,47,-1,49,51,53,55,57,59,61,63,65,-1,67,69,71,73,75,77,79,81,-1,-1,-1,-1,83,85,87,89,-1,91,93,-1,95,97,-1,101,103,105,107,109,111,113,115,-1,-1,-1,117,119,-1,121,123,125,-1,127,129,-1,-1,131,-1,-1,-1,-1,133,-1,-1,135,-1,-1,137,-1,-1,139,141,-1,-1,-1,-1,-1,143,145,147,-1,-1,149,-1,151,153,155,-1,-1,-1,-1,157,-1,159,-1,-1,-1,-1,-1,-1,161,163,165,167,-1,-1,-1,169,171,-1,-1,-1,173,-1,175,-1,-1,-1,-1,-1,-1,-1,177,-1,179,181,183,-1,185,-1,-1,-1,-1,-1,-1,-1,187,189,191,193,-1,195,197,199,-1,-1,201,203,-1,-1,-1,-1,-1,-1,-1,-1,-1,205,-1,-1,207,-1,-1,209,211,213,215,217,219,-1,221,223,-1,-1,225,-1,-1,-1,227,-1,-1,-1,-1,229,231,-1,-1,-1,235,237,239,241,243,245,-1,247,-1,249,251,-1,253,-1,-1,-1,-1,-1,-1,-1,255,257,-1,-1,-1,-1,-1,-1,259,261,263,265,267,269,-1,271,273,-1,-1,-1,277,279,-1,-1,-1,-1,281,283,285,287,289,-1,291,293,-1,-1,-1,-1,295,-1,-1,-1,-1,297,299,301,-1,-1,-1,-1,303,-1,-1,-1,305,307,-1,-1,-1,-1,-1,-1,-1,-1,-1,-1,-1,-1,-1,-1,-1,-1,-1,-1],"loss_changes":[3.3779617E4,2.3869727E2,9.952484E3,0E0,3.9476007E2,4.0681023E3,2.439246E3,6.0900024E1,2.2284547E2,1.5953022E3,1.1535569E3,3.3067233E2,1.1852109E3,5.6442383E1,0E0,0E0,9.040977E1,1.2180643E3,4.8238586E2,4.0095996E2,3.6269156E2,1.6115594E2,1.1597247E2,2.4947774E2,5.3760547E2,1.8328857E1,3.17891E1,0E0,4.728961E1,7.07843E2,1.7977417E1,8.7648315E1,8.037822E1,3.0770752E2,5.1397375E2,9.993181E1,2.699079E2,0E0,7.459662E1,4.341311E1,4.8530342E1,8.843002E1,6.900476E1,1.3375763E2,4.3447852E2,3.4205322E0,0E0,0E0,0E0,0E0,2.6010025E1,1.3280655E1,5.392742E2,3.4499817E0,0E0,1.4136353E1,4.8976612E1,0E0,5.89563E0,2.1737793E2,3.6114502E-1,1.7978821E0,5.269136E1,3.611374E1,3.164835E0,4.986313E1,1.342161E2,4.8002502E1,6.817159E1,0E0,0E0,0E0,1.9548248E1,3.1386017E1,0E0,2.7026718E1,4.440071E0,2.1977036E1,0E0,3.9292346E2,3.2288867E2,0E0,0E0,6.4180603E0,0E0,0E0,0E0,0E0,3.0377295E2,0E0,0E0,1.1001587E1,0E0,0E0,3.3710423E0,0E0,0E0,1.0929346E2,1.9092024E2,0E0,0E0,0E0,0E0,0E0,7.52182E0,1.9162292E0,3.342673E1,0E0,0E0,2.057399E1,0E0,1.3077242E2,5.230951E1,3.9281006E0,0E0,0E0,0E0,0E0,5.907837E0,0E0,4.1210938E0,0E0,0E0,0E0,0E0,0E0,0E0,6.7011414E0,1.4090756E2,7.831001E2,1.2401367E2,0E0,0E0,0E0,2.8184912E2,5.7978516E0,0E0,0E0,0E0,6.7771484E1,0E0,5.301361E-1,0E0,0E0,0E0,0E0,0E0,0E0,0E0,6.113281E-1,0E0,1.9058273E1,1.3985176E0,3.1310242E1,0E0,2.5411377E0,0E0,0E0,0E0,0E0,0E0,0E0,0E0,1.0602563E2,2.1565857E1,1.03348465E2,3.455144E2,0E0,1.0197656E2,2.314126E2,3.4403435E1,0E0,0E0,6.252832E1,3.9075012E1,0E0,0E0,0E0,0E0,0E0,0E0,0E0,0E0,0E0,1.0683655E1,0E0,0E0,1.4515923E1,0E0,0E0,5.424408E0,3.5518982E1,2.9962292E0,2.453352E2,1.4025233E2,9.366406E1,0E0,1.8822168E2,6.993227E1,0E0,0E0,6.1905273E1,0E0,0E0,0E0,6.821594E0,0E0,0E0,0E0,0E0,1.398407E0,3.622318E1,2.1463013E-1,0E0,0E0,1.7688086E2,6.6607834E1,2.0114746E1,1.5725708E1,2.0557704E2,8.169336E1,0E0,1.5780078E2,0E0,5.0484653E1,4.317578E1,0E0,4.122925E0,0E0,0E0,0E0,0E0,0E0,0E0,0E0,1.2969507E2,3.279184E1,0E0,0E0,0E0,0E0,0E0,0E0,4.6962353E1,2.749176E1,1.4619614E2,5.071289E1,1.5443164E2,3.3894234E0,0E0,2.678833E0,3.598584E1,0E0,2.984619E-1,0E0,6.5815186E1,6.1590164E1,0E0,0E0,0E0,0E0,3.802855E1,1.6905518E0,5.3368988E1,1.51185875E1,2.2644531E1,0E0,1.3126807E2,1.832274E1,0E0,0E0,0E0,0E0,2.8754883E0,0E0,0E0,0E0,0E0,5.3977295E1,2.0542953E1,2.4514332E0,0E0,0E0,0E0,0E0,3.3687073E1,0E0,0E0,0E0,4.32238E1,2.0953125E1,0E0,0E0,0E0,0E0,0E0,0E0,0E0,0E0,0E0,0E0,0E0,0E0,0E0,0E0,0E0,0E0,0E0,0E0],"parents":[2147483647,0,0,1,1,2,2,4,4,5,5,6,6,7,7,8,8,9,9,10,10,11,11,12,12,13,13,16,16,17,17,18,18,19,19,20,20,21,21,22,22,23,23,24,24,25,25,26,26,28,28,29,29,30,30,31,31,32,32,33,33,34,34,35,35,36,36,38,38,39,39,40,40,41,41,42,42,43,43,44,44,45,45,50,50,51,51,52,52,53,53,55,55,56,56,58,58,59,59,60,60,61,61,62,62,63,63,64,64,65,65,66,66,67,67,68,68,72,72,73,73,75,75,76,76,77,77,79,79,80,80,83,83,88,88,91,91,94,94,97,97,98,98,104,104,105,105,106,106,109,109,111,111,112,112,113,113,118,118,120,120,127,127,128,128,129,129,130,130,134,134,135,135,139,139,141,141,149,149,151,151,152,152,153,153,155,155,163,163,164,164,165,165,166,166,168,168,169,169,170,170,173,173,174,174,184,184,187,187,190,190,191,191,192,192,193,193,194,194,195,195,197,197,198,198,201,201,205,205,210,210,211,211,212,212,215,215,216,216,217,217,218,218,219,219,220,220,222,222,224,224,225,225,227,227,235,235,236,236,243,243,244,244,245,245,246,246,247,247,248,248,250,250,251,251,253,253,255,255,256,256,261,261,262,262,263,263,264,264,265,265,267,267,268,268,273,273,278,278,279,279,280,280,285,285,289,289,290,290],"right_children":[2,4,6,-1,8,10,12,14,16,18,20,22,24,26,-1,-1,28,30,32,34,36,38,40,42,44,46,48,-1,50,52,54,56,58,60,62,64,66,-1,68,70,72,74,76,78,80,82,-1,-1,-1,-1,84,86,88,90,-1,92,94,-1,96,98,-1,102,104,106,108,110,112,114,116,-1,-1,-1,118,120,-1,122,124,126,-1,128,130,-1,-1,132,-1,-1,-1,-1,134,-1,-1,136,-1,-1,138,-1,-1,140,142,-1,-1,-1,-1,-1,144,146,148,-1,-1,150,-1,152,154,156,-1,-1,-1,-1,158,-1,160,-1,-1,-1,-1,-1,-1,162,164,166,168,-1,-1,-1,170,172,-1,-1,-1,174,-1,176,-1,-1,-1,-1,-1,-1,-1,178,-1,180,182,184,-1,186,-1,-1,-1,-1,-1,-1,-1,188,190,192,194,-1,196,198,200,-1,-1,202,204,-1,-1,-1,-1,-1,-1,-1,-1,-1,206,-1,-1,208,-1,-1,210,212,214,216,218,220,-1,222,224,-1,-1,226,-1,-1,-1,228,-1,-1,-1,-1,230,232,-1,-1,-1,236,238,240,242,244,246,-1,248,-1,250,252,-1,254,-1,-1,-1,-1,-1,-1,-1,256,258,-1,-1,-1,-1,-1,-1,260,262,264,266,268,270,-1,272,274,-1,-1,-1,278,280,-1,-1,-1,-1,282,284,286,288,290,-1,292,294,-1,-1,-1,-1,296,-1,-1,-1,-1,298,300,302,-1,-1,-1,-1,304,-1,-1,-1,306,308,-1,-1,-1,-1,-1,-1,-1,-1,-1,-1,-1,-1,-1,-1,-1,-1,-1,-1],"split_conditions":[-1.6813989E-1,-2.612077E-1,-2.3870754E-1,-1.817947E-1,8.027257E-1,-2.7289557E-1,-3.991236E-1,-5.2307047E-2,-3.5915043E-2,-5.013981E-1,-1.4356622E-1,2.7544373E-1,-5.603986E-1,9.157902E-1,7.477586E-2,-1.7674066E-1,-3.2322586E-1,6.497898E-1,1.5546811E0,-2.0924038E-1,-2.903574E-1,-1.9803357E-1,8.3325475E-1,-2.4523807E-1,-6.099644E-1,1.02178134E-1,-4.0139338E-1,-1.5957369E-1,-2.384846E-1,-1.0883498E0,4.0412984E0,2.161651E0,-5.5597484E-1,4.492293E-1,3.2581848E-1,-2.832082E-2,1.6587305E-1,1.5963595E-1,-8.03204E-2,1.3341619E-1,-5.197921E-1,3.5624208E0,-1.8204278E-1,7.5370885E-2,-6.3550377E-1,2.1173067E0,-5.0267585E-2,1.6176878E-1,-1.1704886E-1,-8.1226334E-2,-1.4856033E-1,-1.5941343E0,-9.8118067E-1,-1.7567723E0,-4.252945E-2,2.5491122E-2,2.126072E-1,-9.742559E-2,-2.578436E-1,-1.1940542E-1,1.6115078E-1,-7.1196914E-1,-1.6836253E-1,-8.454092E-2,9.5492625E-1,-9.99006E-2,-5.5388594E-1,1.971505E-1,-2.4423903E-1,-1.6460374E-1,9.440557E-2,-9.306642E-2,-6.9261715E-2,-1.0273662E0,1.22944824E-1,1.5055917E-1,-2.836377E-1,-6.069262E-1,1.66565E-1,4.892002E-1,5.944885E-2,-1.8148966E-1,-9.039276E-2,-3.1545705E-1,-2.6009534E-2,-3.389541E-2,-1.7865552E-1,-1.8153492E-1,-5.2250373E-1,-8.96557E-2,-1.8188861E-1,2.4089382E0,-6.5174274E-2,-1.7091054E-1,-1.8225902E-1,7.1192294E-2,1.8221888E-1,4.153829E-1,-8.906184E-2,1.744587E-1,1.0518514E-1,-1.01650946E-1,-1.8277158E-1,-9.636866E-2,-8.426166E-2,2.1463272E-1,-3.221928E-2,6.008788E-2,1.644218E-1,1.0278393E0,7.3946685E-2,4.1872302E-1,3.8153407E-1,-5.5146724E-2,4.364078E-2,-1.6585848E-1,1.674652E-1,-6.8820002E-3,2.6265657E-1,1.128793E-2,-6.277216E-2,-1.6728124E-1,5.05897E-2,7.4524604E-2,1.7690395E-1,-1.7686568E-1,2.0900283E-3,-1.060545E0,-4.8068976E-1,-3.388661E-1,-1.6186643E-1,1.8034463E-1,8.608151E-2,-1.7456089E-1,1.607975E0,7.7923006E-1,-5.633178E-2,6.318598E-2,1.680247E-1,1.3865671E0,1.309519E-1,-1.933619E-1,1.6930722E-1,1.7869644E-1,6.074183E-2,-1.805339E-1,-1.0693642E-1,-1.3770324E-1,1.2923114E-1,-2.3989934E-1,-1.5320154E-2,2.3829481E-1,2.8951645E-1,-8.05086E-1,-1.0052955E-1,1.782337E0,-1.0761418E-1,1.765217E-1,6.714579E-2,-1.8309882E-1,-8.719371E-2,-8.51545E-2,-1.8188833E-1,1.009225E-1,-6.73326E-1,2.6829824E0,1.9794172E-1,-1.8182582E-1,3.3441808E0,1.090862E0,1.6531136E0,-1.8311213E-1,-9.691422E-2,7.997567E0,2.4880328E0,-1.072975E-1,-1.7972407E-1,-1.865225E-1,-1.1516708E-1,-1.75258E-1,6.079908E-3,9.451925E-2,1.7585002E-1,-3.801959E-2,1.2263892E0,-1.8171255E-1,-1.0845275E-1,-9.800274E-1,1.6644867E-1,-6.2955185E-3,-6.1792743E-1,-9.7352946E-1,7.947449E-1,4.0922245E-1,-6.985452E-2,-6.856713E-1,-1.4542496E-1,-6.242486E-1,-2.7068436E-1,-1.7310415E-1,6.091575E-2,2.329411E0,9.8673366E-2,-1.2280424E-1,1.6715829E-1,6.771604E-1,4.2527445E-2,-1.4441373E-2,-1.7711535E-1,7.191529E-2,4.3161148E-1,3.086491E-1,-1.8058078E-1,6.0842723E-2,1.6318406E-1,1.20036036E-1,7.747452E-1,3.0373821E-2,2.4704471E-1,1.325791E0,-3.0995065E-1,-1.6813836E-1,1.397929E0,-1.8977098E-1,2.522965E-1,2.5483282E0,1.0440437E-1,1.2271253E0,7.170957E-2,1.7996827E-1,1.0331907E-1,-1.6132458E-1,1.3382745E-1,-1.1771828E-1,-1.8472338E-1,9.895455E-1,-1.2737772E-1,-1.706597E-1,1.5018727E-1,-1.8232495E-1,-2.1241505E-3,-2.1819773E-3,1.6295032E-1,-1.3020074E-1,-4.7001123E-1,4.3381274E-1,3.777978E0,6.94646E-1,-1.4518295E-1,-1.4606126E-1,-1.9234213E-1,-3.606687E-2,4.600345E-2,1.8048707E-1,8.44205E-2,-9.9514496E-1,-1.801364E-1,-1.6521887E-1,7.623212E-2,-1.7711417E-1,7.937511E-2,-1.7995472E0,-6.055654E-1,9.718989E-1,2.0849675E-2,-5.4715294E-1,-3.2419104E-2,1.3012717E0,-4.483511E-1,-1.8431352E-1,-7.719189E-2,1.6886361E-1,7.355329E-2,2.4935296E0,-1.741171E-2,1.1525575E-1,1.8242078E-1,-9.347323E-2,8.0322623E-1,6.6001065E-2,8.8103265E-2,1.6611663E-1,-1.1191919E-1,1.8073344E-1,1.0132573E-1,9.783317E-1,-1.1019669E-1,9.835295E-3,-1.60116E-1,-1.0086774E-1,2.1176672E0,1.5504551E-1,-1.4782521E-1,5.590055E-3,-1.9080985E-1,-1.8073566E-1,-9.408202E-2,1.7203696E-1,-9.203925E-2,-1.8257883E-1,1.7806565E-2,6.9592856E-2,1.6415575E-1,1.5699552E-1,-5.294189E-2,-1.09087385E-1,1.42781E-1,1.7668205E-1,5.09627E-3],"split_indices":[690,690,681,0,534,637,684,2397,704,731,707,614,587,855,0,0,692,603,535,879,587,681,522,660,592,3045,843,0,681,625,781,566,755,2631,690,1901,690,0,988,863,166,559,1032,2422,566,437,0,0,0,0,834,426,535,292,0,1509,680,0,638,998,420,559,1128,701,332,650,829,1639,660,0,0,0,530,527,0,691,84,593,0,691,690,0,0,843,0,0,0,0,643,0,0,1129,0,0,992,0,0,2881,1628,2147483647,2147483647,0,0,0,840,519,1193,0,0,443,0,610,989,1378,0,0,0,0,236,0,1193,0,0,0,0,0,0,277,614,1014,692,0,0,0,704,879,0,0,0,535,0,551,0,0,0,0,0,0,0,660,0,590,579,538,0,20,0,0,0,0,0,0,0,580,105,522,699,0,712,554,443,0,0,3723,692,0,0,0,0,0,0,0,0,0,664,0,0,584,0,0,535,699,1,692,969,628,0,684,595,0,0,3467,0,0,0,682,0,0,0,0,780,614,681,0,0,781,505,855,499,690,519,0,774,0,625,572,0,621,0,0,0,0,0,2147483647,2147483647,624,1129,0,0,0,0,0,0,1193,614,699,991,1004,896,0,196,1596,0,359,0,511,1129,0,0,0,0,572,572,353,681,590,0,820,620,0,0,0,0,579,0,2147483647,2147483647,0,1378,717,165,0,0,0,0,239,0,0,0,614,548,0,0,0,0,0,0,0,0,0,0,0,0,0,0,0,0,0,0],"split_type":[0,0,0,0,0,0,0,0,0,0,0,0,0,0,0,0,0,0,0,0,0,0,0,0,0,0,0,0,0,0,0,0,0,0,0,0,0,0,0,0,0,0,0,0,0,0,0,0,0,0,0,0,0,0,0,0,0,0,0,0,0,0,0,0,0,0,0,0,0,0,0,0,0,0,0,0,0,0,0,0,0,0,0,0,0,0,0,0,0,0,0,0,0,0,0,0,0,0,0,0,0,0,0,0,0,0,0,0,0,0,0,0,0,0,0,0,0,0,0,0,0,0,0,0,0,0,0,0,0,0,0,0,0,0,0,0,0,0,0,0,0,0,0,0,0,0,0,0,0,0,0,0,0,0,0,0,0,0,0,0,0,0,0,0,0,0,0,0,0,0,0,0,0,0,0,0,0,0,0,0,0,0,0,0,0,0,0,0,0,0,0,0,0,0,0,0,0,0,0,0,0,0,0,0,0,0,0,0,0,0,0,0,0,0,0,0,0,0,0,0,0,0,0,0,0,0,0,0,0,0,0,0,0,0,0,0,0,0,0,0,0,0,0,0,0,0,0,0,0,0,0,0,0,0,0,0,0,0,0,0,0,0,0,0,0,0,0,0,0,0,0,0,0,0,0,0,0,0,0,0,0,0,0,0,0,0,0,0,0,0,0,0,0,0,0,0,0,0,0,0,0,0,0,0,0,0,0,0,0],"sum_hessian":[2.3080383E4,7.373246E3,1.5707137E4,6.804537E3,5.687088E2,5.4617373E3,1.0245399E4,4.2108243E2,1.476264E2,2.841249E3,2.620488E3,4.4294412E2,9.802455E3,4.111156E2,9.966828E0,3.867992E1,1.0894649E2,2.39227E3,4.48979E2,2.141937E3,4.78551E2,3.2957715E2,1.13366974E2,2.1883957E2,9.583616E3,3.967312E2,1.438438E1,1.1181751E1,9.776474E1,2.2240144E3,1.682557E2,3.7721793E2,7.1761086E1,1.9512949E3,1.9064218E2,1.2766464E2,3.5088635E2,1.638055E1,3.131966E2,3.2248714E1,8.111826E1,1.5586208E2,6.29775E1,8.230408E1,9.501312E3,3.8457187E2,1.2159341E1,7.1969943E0,7.187386E0,8.938503E0,8.882623E1,8.848289E1,2.1355315E3,1.5707503E2,1.1180683E1,3.5411496E2,2.310297E1,1.3154362E1,5.8606724E1,1.9228074E3,2.8487574E1,9.216972E1,9.847246E1,1.1303295E2,1.4631686E1,6.500055E1,2.858858E2,2.9038916E2,2.2807444E1,2.4289997E1,7.9587183E0,8.688245E0,7.2430016E1,1.4519391E2,1.0668156E1,2.1063496E1,4.1914005E1,6.742018E1,1.4883898E1,2.5034317E2,9.250969E3,3.7738132E2,7.19056E0,8.161096E1,7.215277E0,7.441133E0,8.104175E1,5.675944E1,2.078772E3,7.189015E0,1.4988602E2,3.4096716E2,1.3147802E1,7.4459095E0,1.5657061E1,7.197451E0,5.140927E1,1.8568606E3,6.5946724E1,2.1304409E1,7.1831646E0,7.186364E0,8.498336E1,7.4370255E0,9.103543E1,9.614426E1,1.6888699E1,7.186357E0,7.4453297E0,5.3064003E1,1.1936548E1,5.954033E1,2.2634549E2,2.8047308E2,9.91606E0,1.0152096E1,1.2655348E1,7.20345E0,6.522657E1,9.179326E0,1.3601459E2,1.0163656E1,1.089984E1,7.1970034E0,3.4717003E1,5.970933E1,7.7108502E0,7.140114E1,1.7894203E2,1.667737E3,7.5832314E3,7.0458466E1,1.1152494E1,3.1712036E1,2.0470599E3,3.325179E2,8.449258E0,7.452496E0,8.204564E0,1.8457065E3,1.1154082E1,3.0744455E1,3.520227E1,8.385077E1,7.184668E0,8.697674E1,9.167517E0,9.1697035E0,7.718995E0,4.313689E1,9.927111E0,3.47112E1,2.4829128E1,2.1914252E2,7.2029614E0,2.670832E2,1.3389893E1,5.8029022E1,7.197545E0,1.2857819E2,7.4364095E0,1.1154935E1,6.02462E1,4.785886E1,1.3108316E2,1.2000264E2,1.5477344E3,9.178357E0,7.574053E3,2.0078418E3,3.9218204E1,3.208698E2,1.1648075E1,1.8290834E3,1.6623142E1,7.19757E0,2.3546886E1,3.5196507E1,7.940385E0,2.751965E1,7.191551E0,7.2011294E0,1.7627998E1,7.1975245E0,2.1194499E2,2.569146E2,1.0168569E1,3.20059E1,1.585296E1,7.207751E0,1.2387542E2,1.05387665E2,1.4614974E1,1.4683857E3,7.934873E1,7.5646245E3,9.428563E0,1.9569424E3,5.089941E1,3.1997547E1,7.2206583E0,1.8214072E3,7.6761456E0,8.179035E0,8.444107E0,2.0474518E2,7.1998167E0,7.2052183E0,2.4800684E1,7.1840506E0,1.1669137E2,1.4643251E1,9.0744415E1,7.183445E0,7.431529E0,1.4322017E3,3.618407E1,5.1578392E1,2.7770336E1,1.5743825E2,7.4071865E3,1.833437E1,1.938608E3,2.4325987E1,2.6573423E1,1.8142249E3,7.182378E0,1.9654814E2,8.197041E0,1.0950901E2,7.182356E0,7.182951E0,7.460301E0,7.428981E0,8.331544E1,1.4063998E3,2.580182E1,2.8752514E1,7.4315557E0,4.4377197E1,7.2011952E0,7.9383597E0,1.9831976E1,3.5959923E1,1.2147833E2,2.6951773E2,7.1376685E3,1.9212314E3,1.7376513E1,8.692765E0,1.7880657E1,1.8060397E3,8.185196E0,1.8934863E2,7.199509E0,1.3676897E3,3.8710087E1,1.860048E1,7.2013426E0,2.7039623E1,8.9203005E0,1.7863188E1,1.0361514E2,2.4515843E2,2.4359318E1,7.126263E3,1.1405624E1,1.9013729E3,1.9858547E1,1.0180634E1,7.1958785E0,1.0430265E1,7.4503927E0,1.7921703E3,1.386943E1,7.1962247E0,1.821524E2,8.920283E0,1.3587694E3,2.2602785E1,1.61073E1,9.668888E0,8.194299E0,9.641883E1,7.1963124E0,2.3770403E2,7.4543962E0,7.1980405E0,1.7161278E1,5.376774E1,7.072495E3,1.8876952E3,1.3677693E1,7.1968775E0,1.266167E1,1.7849697E3,7.200467E0,1.3515629E3,7.206607E0,1.5410428E1,7.192357E0,7.1894016E0,8.917898E0,2.3025284E2,7.4511857E0,7.198324E0,4.6569412E1,7.065311E3,7.184292E0],"tree_param":{"num_deleted":"6","num_feature":"4225","num_nodes":"309","size_leaf_vector":"0"}},{"base_weights":[-3.8785592E-4,-1.6331519E0,7.632602E-1,-1.6791713E0,-1.0173047E0,-7.50279E-1,1.1597568E0,-1.6818376E0,-1.3334625E0,-1.463408E0,4.744139E-1,-1.2027249E0,7.086909E-1,4.6737707E-1,1.4049797E0,3.9599794E-1,-1.5935879E0,-1.5588598E0,3.9050597E-1,-1.3885968E0,1.1023135E0,-1.4460466E0,7.799231E-1,-7.771779E-1,1.1179979E0,-5.3561157E-1,1.0953122E0,-1.3589865E0,1.4650071E0,-1.6406024E0,6.306772E-2,-8.5752904E-1,1.4761479E0,-1.6479348E0,-4.9486127E-1,-1.4266263E0,1.4003901E0,-1.5629581E0,1.0840433E0,-1.676534E0,1.2085896E0,5.199103E-1,-1.4527327E0,1.3208992E0,-1.4560769E0,-1.0437573E0,5.277556E-1,-2.671936E-1,1.339774E0,-1.6062169E0,1.4437875E0,1.4883E0,-1.3832618E0,-1.6813111E0,-5.909083E-1,-1.5357805E0,1.4221337E0,-1.05212264E-1,1.5517095E0,-1.6086787E0,1.1050391E0,1.5606593E0,-1.5975472E0,-5.0817125E-2,1.5743425E0,-1.5850644E0,9.8848474E-1,-1.6062974E0,-8.984182E-2,-5.044785E-1,1.4802763E0,-1.6937711E0,-1.8929893E-1,8.8071686E-1,-1.3120105E0,-5.575933E-1,1.1239742E0,-8.297648E-1,1.3961561E0,3.0194808E-2,1.481201E0,1.1941692E-1,-1.67944E0,8.69063E-1,1.5598497E0,7.698479E-1,-1.7733918E0,1.6498576E0,5.7282925E-1,-1.6285679E0,1.4995337E-1,-8.859885E-1,1.626647E0,4.1683805E-1,1.6783535E0,-1.3113226E0,1.1527141E0,1.10045925E-1,1.6349612E0,-6.260534E-1,1.4428326E0,-1.6855444E0,-5.238065E-1,-1.5438892E0,8.9180624E-1,-6.045647E-1,1.5769256E0,-1.2377815E0,1.4057722E0,-1.5705684E0,1.5721047E-1,-1.3479239E0,7.0260125E-1,-1.499688E0,1.2993011E0,-1.6486281E0,-2.256806E-1,1.6084164E0,-5.7297397E-1,-1.3043088E0,9.497825E-1,1.5283412E0,-8.920856E-1,-1.3733785E0,1.2167598E0,-5.1318645E-1,1.5693048E0,-1.637982E0,4.244923E-1,-1.5322555E0,1.4149469E0,-1.6178613E0,-4.2946497E-1,2.3319088E-1,1.4929717E0,7.542155E-1,1.6684598E0,1.6976539E0,3.2285196E-1,-9.7068566E-1,-1.7032593E0,-2.2353949E-1,1.5341387E0,9.851663E-1,-1.6041794E0,-5.131667E-1,1.6130815E0,-4.03005E-1,-1.6585525E0,-6.885975E-1,1.6114148E0,-1.6789795E0,-2.2501798E-2,-1.4747972E0,1.210328E0,-1.6730231E0,-1.2505794E-1,-1.5021776E0,1.1795988E0,-1.3034917E0,1.4028345E0,-1.8306313E0,-4.817377E-1,-1.5572438E0,1.8610495E-1,1.6876631E0,7.979834E-1,7.2146094E-1,-1.6429883E0,-1.111473E0,1.3800489E0,5.178655E-1,1.5823312E0,-1.9499146E0,1.3874537E0,-1.6385376E0,1.4052564E0,1.3841536E0,-1.3854398E0,-1.4526932E0,1.1604671E0,1.5731518E0,-1.6330787E0,-1.6549879E0,-8.376497E-1,1.5188015E-1,1.6350147E0,7.7933186E-1,1.6858493E0,-1.6925496E0,-5.1312596E-1,-1.5305359E0,1.3654124E0,-1.7155015E0,-2.0704761E-1,1.4619957E0,-8.2273954E-1,1.3739094E0,-1.6084102E0,-1.9818103E-1,1.5219802E0,-9.8601854E-1,1.495118E0,-7.7855676E-1,-1.7566772E0,5.47936E-1,-1.2623147E0,-1.8100768E0,-8.178982E-1,-2.6148534E-1,-1.6714718E0,1.6017642E0,6.583559E-2,1.2301245E0,-9.05656E-1,1.595362E0,-8.510265E-1,-1.7357011E0,-1.6484016E-1,-9.7184277E-1,1.4806713E0,-1.6380891E0,6.560924E-2,-1.6772695E0,-8.075547E-1,2.082778E-2,1.5805157E0,-1.6602193E0,-2.5746858E-1,-1.5553666E0,1.4166187E0,1.6496402E0,5.9164774E-1,-1.7063192E0,-6.1727476E-1,-8.744858E-1,-1.8170893E0,7.357362E-1,1.6248292E0,1.6245905E0,2.0297457E-1,8.4162825E-1,1.654164E0,1.4129725E-1,1.573545E0,8.5752046E-1,-1.0968473E0,-1.8659165E0,-1.6454875E-1,1.695677E0,6.7706215E-1,-4.174837E-1,1.5051569E0,1.269523E0,-1.8585876E0,2.2332776E-1,1.6178389E0,1.4442492E-1,-1.6382091E0,1.5256518E0,-1.6591091E0,-1.706416E0,9.9102473E-1,3.786101E-1,1.5897613E0,-1.6672187E0,-1.0105692E0,1.666054E0,7.1551687E-1,1.6193179E0,2.1018784E-1,-5.6278133E-1,1.182165E0,1.6785198E0,5.213657E-1,-1.6489005E0,1.4590353E0,1.62681E0,2.08577E-5,-1.7304865E0,1.5674455E0,-2.3776308E-1,1.5976492E0,-1.5010194E0,1.1320032E0,1.5927091E0,-1.394624E0,-1.6703006E0,-7.193886E-1,-1.6233358E0,1.8340576E-1,8.680833E-1,1.6775955E0,6.8506366E-1,1.6526338E0,1.3840926E0,-1.4541684E-1,1.1700711E-1,1.6357261E0,1.6040392E0,-1.4552255E0,-9.864161E-1,-1.7527598E0,-6.882857E-1,1.5041393E0,-6.0794204E-1,1.5965711E0,-1.6733203E0,-7.4124503E-1,1.0433325E0,1.6853995E0,1.6770148E0,1.173081E0,1.5479245E0,3.5712284E-1,6.5262973E-1,1.6479968E0,1.6483988E0,-1.1604647E-1,8.229558E-1,1.6386278E0,1.1216135E0,1.6093987E0,-1.6779965E0,-1.0410593E0,1.0685675E0,1.6930075E0,1.648555E0,9.236457E-1,-7.111353E-1,1.577842E0,1.6562315E0,4.7704813E-1,1.6736329E0,-6.243839E-1,1.0730424E0,-1.6972375E0,-2.958751E-1,1.5623387E0,1.6118723E0,-1.3014622E-1],"categories":[],"categories_nodes":[],"categories_segments":[],"categories_sizes":[],"default_left":[true,true,true,true,true,true,true,false,true,true,true,true,true,true,true,false,false,true,true,true,true,true,true,true,true,true,true,true,true,true,true,false,false,false,false,false,true,true,true,false,true,true,true,true,true,true,true,true,true,true,false,true,true,false,false,false,false,false,true,true,true,true,false,true,true,false,true,true,false,true,true,false,false,true,true,true,true,true,true,true,true,false,false,true,true,false,false,false,false,true,true,false,false,false,false,true,true,false,true,false,true,false,false,true,true,true,true,true,true,true,true,true,true,false,true,true,true,true,false,true,true,true,true,true,true,true,true,true,false,false,false,false,false,false,false,false,false,false,false,false,false,false,false,false,false,false,true,false,false,false,true,true,true,true,true,false,true,false,true,false,true,false,false,true,true,false,false,false,true,true,true,true,true,false,false,true,false,true,true,true,false,true,false,true,true,false,true,false,false,true,false,true,true,false,false,true,false,false,false,false,true,false,true,false,false,true,true,false,false,false,false,true,false,true,true,true,false,false,false,true,true,false,false,false,false,true,true,true,false,false,false,true,false,false,false,false,false,false,false,false,false,false,false,false,true,true,false,false,false,false,false,false,true,false,false,true,true,false,false,true,false,false,true,true,true,true,true,true,false,true,false,false,true,false,false,false,false,true,false,false,true,false,false,true,true,true,false,true,false,false,false,false,true,false,true,true,false,false,true,true,false,false,false,false,true,false,true,true,false,false,true,true,true,true,false,true,true,true,true,false,false,true,true,false,false,true,true,false,false,false,false,false,false,false,false,false,false,false,false,false,false],"id":2,"left_children":[1,3,5,7,9,11,13,-1,15,17,19,21,23,25,27,-1,-1,29,31,33,35,37,39,41,43,45,47,49,51,53,55,-1,-1,-1,-1,-1,57,59,61,-1,63,65,67,69,71,73,75,77,79,81,-1,83,85,-1,-1,-1,-1,-1,87,89,91,93,-1,95,97,-1,99,101,-1,103,105,-1,-1,107,109,111,113,115,117,119,121,-1,-1,123,125,-1,-1,-1,-1,127,129,-1,-1,-1,-1,131,133,-1,135,-1,137,-1,-1,139,141,143,145,147,149,151,153,155,157,-1,159,161,163,165,-1,167,169,171,173,175,177,179,181,183,-1,-1,-1,-1,-1,-1,-1,-1,-1,-1,-1,-1,-1,-1,-1,-1,-1,-1,185,-1,-1,-1,187,189,191,193,195,-1,197,-1,199,-1,201,-1,-1,203,205,-1,-1,-1,207,209,211,213,215,-1,-1,217,-1,219,221,223,-1,225,-1,227,229,-1,231,-1,-1,233,-1,235,237,-1,-1,239,-1,-1,-1,-1,241,-1,243,-1,-1,245,247,-1,-1,-1,-1,249,-1,251,253,255,-1,-1,-1,257,259,-1,-1,-1,-1,261,263,265,-1,-1,-1,267,-1,-1,-1,-1,-1,-1,-1,-1,-1,-1,-1,-1,269,271,-1,-1,-1,-1,-1,-1,273,-1,-1,275,277,-1,-1,279,-1,-1,281,283,285,287,289,291,-1,293,-1,-1,295,-1,-1,-1,-1,297,-1,-1,299,-1,-1,301,303,305,-1,307,-1,-1,-1,-1,309,-1,-1,313,-1,-1,315,317,-1,-1,-1,-1,319,-1,321,323,-1,-1,-1,-1,-1,327,-1,329,331,333,335,-1,-1,337,339,-1,-1,-1,-1,-1,-1,-1,-1,-1,-1,-1,-1,-1,-1,-1,-1,-1,-1],"loss_changes":[2.8115227E4,2.0193555E2,9.220639E3,3.9179688E0,3.3485004E2,2.1064746E3,2.0664297E3,0E0,2.5818352E1,6.905475E1,1.3763805E2,1.1758931E3,4.604587E2,2.0069546E3,1.4935371E3,0E0,0E0,4.889978E1,2.8010637E1,6.0851097E0,6.8017456E1,6.4336865E2,2.830052E2,1.4428357E2,3.1157843E2,6.636677E2,6.530134E2,1.3509146E2,5.8584375E2,1.3980896E1,4.2648838E1,0E0,0E0,0E0,0E0,0E0,1.8127533E1,2.5475732E2,1.2570545E2,0E0,1.0499872E2,5.7621193E1,2.245224E1,1.6078137E2,1.2866394E1,4.3001642E2,2.5783807E2,2.808715E2,3.07688E2,2.2508942E1,0E0,3.853672E2,6.1755966E1,0E0,0E0,0E0,0E0,0E0,5.9447784E0,7.157666E1,3.83443E1,1.0387894E1,0E0,8.074778E1,1.5490509E1,0E0,3.545359E1,7.435974E0,0E0,6.656773E1,1.0294653E2,0E0,0E0,1.15451004E2,2.7736902E2,1.4197581E2,1.2011319E2,1.1043109E2,3.2653793E1,2.012316E2,1.6913086E2,0E0,0E0,7.0831976E2,1.5414258E2,0E0,0E0,0E0,0E0,3.9672363E1,5.2648075E1,0E0,0E0,0E0,0E0,6.3279343E0,8.17804E0,0E0,3.7410889E0,0E0,1.00282135E1,0E0,0E0,7.3241425E-1,1.4529859E1,3.8366104E1,3.740503E1,6.6502266E0,3.6595093E1,1.0408667E2,1.9097414E2,3.4523224E1,5.98599E1,0E0,6.6860016E1,1.9280182E1,7.1605446E1,3.0715942E0,0E0,4.7088882E1,8.761655E1,7.941699E1,7.465317E1,9.228781E1,3.439391E2,5.8720604E1,9.851367E1,2.5938965E1,0E0,0E0,0E0,0E0,0E0,0E0,0E0,0E0,0E0,0E0,0E0,0E0,0E0,0E0,0E0,0E0,0E0,0E0,1.5008057E1,0E0,0E0,0E0,3.3514404E0,8.304321E0,8.919792E1,1.2956627E1,3.5715996E1,0E0,4.5410275E1,0E0,2.1986736E1,0E0,5.2745758E1,0E0,0E0,3.4197922E0,5.3222847E1,0E0,0E0,0E0,6.464279E0,7.805044E0,2.3422348E1,7.825515E1,4.561206E1,0E0,0E0,1.574469E1,0E0,1.6930933E2,1.7688591E1,2.0756721E0,0E0,8.888867E1,0E0,1.3937012E1,7.30638E1,0E0,6.1793213E0,0E0,0E0,7.4262695E0,0E0,2.24934E0,2.4310265E0,0E0,0E0,1.2031403E1,0E0,0E0,0E0,0E0,1.9294357E0,0E0,2.3595276E1,0E0,0E0,4.2133263E1,1.3168831E1,0E0,0E0,0E0,0E0,4.848068E0,0E0,2.3799423E1,5.6145622E1,4.2460693E1,0E0,0E0,0E0,2.22964E1,1.0274353E2,0E0,0E0,0E0,0E0,6.4936104E1,8.543164E1,7.215332E0,0E0,0E0,0E0,5.889282E0,0E0,0E0,0E0,0E0,0E0,0E0,0E0,0E0,0E0,0E0,0E0,0E0,1.2885742E1,3.2316406E1,0E0,0E0,0E0,0E0,0E0,0E0,6.6353836E0,0E0,0E0,5.686893E1,1.9825684E1,0E0,0E0,9.7982544E1,0E0,0E0,1.8865461E1,8.725151E1,6.980664E1,4.4501953E0,1.741983E1,2.7167969E0,0E0,5.2456055E0,0E0,0E0,1.5265793E1,0E0,0E0,0E0,0E0,1.8096191E1,0E0,0E0,7.884656E1,0E0,0E0,5.661392E-1,3.0635895E1,6.6208984E1,0E0,4.168457E0,0E0,0E0,0E0,0E0,4.4714355E-1,0E0,3.3770752E-1,7.669815E0,0E0,0E0,1.5215088E1,5.2376587E1,0E0,0E0,0E0,0E0,2.003952E0,0E0,4.488086E1,3.932129E0,0E0,0E0,2.4902344E-1,0E0,0E0,1.106247E0,0E0,2.421698E1,1.2064453E1,3.9286987E1,3.5906376E1,0E0,0E0,1.2840933E2,3.2302734E1,0E0,0E0,0E0,0E0,0E0,0E0,0E0,0E0,0E0,0E0,0E0,0E0,0E0,0E0,0E0,0E0,0E0,0E0],"parents":[2147483647,0,0,1,1,2,2,3,3,4,4,5,5,6,6,8,8,9,9,10,10,11,11,12,12,13,13,14,14,17,17,18,18,19,19,20,20,21,21,22,22,23,23,24,24,25,25,26,26,27,27,28,28,29,29,30,30,36,36,37,37,38,38,40,40,41,41,42,42,43,43,44,44,45,45,46,46,47,47,48,48,49,49,51,51,52,52,58,58,59,59,60,60,61,61,63,63,64,64,66,66,67,67,69,69,70,70,73,73,74,74,75,75,76,76,77,77,78,78,79,79,80,80,83,83,84,84,89,89,90,90,95,95,96,96,98,98,100,100,103,103,104,104,105,105,106,106,107,107,108,108,109,109,110,110,111,111,112,112,114,114,115,115,116,116,117,117,119,119,120,120,121,121,122,122,123,123,124,124,125,125,126,126,127,127,146,146,150,150,151,151,152,152,153,153,154,154,156,156,158,158,160,160,163,163,164,164,168,168,169,169,170,170,171,171,172,172,175,175,177,177,178,178,179,179,181,181,183,183,184,184,186,186,189,189,191,191,192,192,195,195,200,200,202,202,205,205,206,206,211,211,213,213,214,214,215,215,219,219,220,220,225,225,226,226,227,227,231,231,244,244,245,245,252,252,255,255,256,256,259,259,262,262,263,263,264,264,265,265,266,266,267,267,269,269,272,272,277,277,280,280,283,283,284,284,285,285,287,287,292,292,294,294,295,295,298,298,299,299,304,304,306,306,307,307,310,310,313,313,315,315,316,316,317,317,318,318,321,321,322,322],"right_children":[2,4,6,8,10,12,14,-1,16,18,20,22,24,26,28,-1,-1,30,32,34,36,38,40,42,44,46,48,50,52,54,56,-1,-1,-1,-1,-1,58,60,62,-1,64,66,68,70,72,74,76,78,80,82,-1,84,86,-1,-1,-1,-1,-1,88,90,92,94,-1,96,98,-1,100,102,-1,104,106,-1,-1,108,110,112,114,116,118,120,122,-1,-1,124,126,-1,-1,-1,-1,128,130,-1,-1,-1,-1,132,134,-1,136,-1,138,-1,-1,140,142,144,146,148,150,152,154,156,158,-1,160,162,164,166,-1,168,170,172,174,176,178,180,182,184,-1,-1,-1,-1,-1,-1,-1,-1,-1,-1,-1,-1,-1,-1,-1,-1,-1,-1,186,-1,-1,-1,188,190,192,194,196,-1,198,-1,200,-1,202,-1,-1,204,206,-1,-1,-1,208,210,212,214,216,-1,-1,218,-1,220,222,224,-1,226,-1,228,230,-1,232,-1,-1,234,-1,236,238,-1,-1,240,-1,-1,-1,-1,242,-1,244,-1,-1,246,248,-1,-1,-1,-1,250,-1,252,254,256,-1,-1,-1,258,260,-1,-1,-1,-1,262,264,266,-1,-1,-1,268,-1,-1,-1,-1,-1,-1,-1,-1,-1,-1,-1,-1,270,272,-1,-1,-1,-1,-1,-1,274,-1,-1,276,278,-1,-1,280,-1,-1,282,284,286,288,290,292,-1,294,-1,-1,296,-1,-1,-1,-1,298,-1,-1,300,-1,-1,302,304,306,-1,308,-1,-1,-1,-1,310,-1,-1,314,-1,-1,316,318,-1,-1,-1,-1,320,-1,322,324,-1,-1,-1,-1,-1,328,-1,330,332,334,336,-1,-1,338,340,-1,-1,-1,-1,-1,-1,-1,-1,-1,-1,-1,-1,-1,-1,-1,-1,-1,-1],"split_conditions":[-1.6813989E-1,-2.4726334E-1,-2.3972926E-1,-2.612077E-1,1.0332029E0,-3.336029E-1,-4.2836702E-1,-1.6818376E-1,-8.974946E-1,-3.287678E-2,1.6422161E-1,-9.2314586E-2,3.0328357E-1,-3.3356017E-1,-6.15857E-1,3.9599795E-2,-1.5935878E-1,8.3618754E-1,-1.9845137E-1,-2.1313107E-1,-3.5915043E-2,-3.1794738E-2,-4.708931E-1,-3.1428546E-2,8.646439E-1,-1.7034808E-1,-4.3464756E-1,7.5370885E-2,1.9220828E0,-2.6854083E-2,7.992995E-2,-8.5752904E-2,1.4761479E-1,-1.6479348E-1,-4.9486127E-2,-1.4266263E-1,3.1801176E-1,6.3967247E0,1.8767613E0,-1.6765341E-1,-1.7062718E-1,-2.514016E-1,-2.878931E-2,-2.869423E-1,1.3480077E0,-1.6781152E0,-3.3856028E-1,-8.758928E-2,1.6606733E-1,-1.7818433E0,1.4437875E-1,-1.310324E-1,-1.4870877E0,-1.6813111E-1,-5.909083E-2,-1.5357806E-1,1.4221337E-1,-1.0521227E-2,4.0721118E-1,3.4115453E0,2.014028E0,-3.3274037E-1,-1.5975472E-1,5.596677E-1,-6.975423E-1,-1.5850644E-1,2.3161429E-1,-1.9343892E-1,-8.984182E-3,-4.4761956E-1,-3.9139825E-1,-1.6937712E-1,-1.8929893E-2,4.059314E-2,-1.7215976E-1,5.1718175E-1,-4.0828714E-1,-2.0644625E-1,-6.73172E-1,4.3874043E-1,2.082481E0,1.1941693E-2,-1.67944E-1,-6.3310957E-1,-1.2420367E0,7.698479E-2,-1.7733918E-1,1.6498576E-1,5.7282925E-2,8.395161E-3,4.469393E-1,-8.859885E-2,1.626647E-1,4.1683804E-2,1.6783535E-1,-2.8722465E-1,3.6880743E-2,1.1004592E-2,-5.574378E-1,-6.2605344E-2,2.8952008E-1,-1.6855444E-1,-5.238065E-2,-4.9058217E-1,-1.2265206E-1,6.924604E-2,-6.6217554E-1,-2.6883632E-1,-1.2783544E0,1.5894712E0,-3.0365205E-1,7.078399E-1,-6.5720105E-1,-1.499688E-1,-6.4071053E-1,1.255908E0,-6.4806116E-1,4.217412E-1,-5.7297397E-2,-3.5544318E-1,2.149097E-1,-5.5214006E-1,8.465805E-1,6.476135E-1,5.6723226E-3,-7.156811E-1,1.1103072E0,-2.8536826E-2,4.2449232E-2,-1.5322556E-1,1.4149469E-1,-1.6178612E-1,-4.29465E-2,2.3319088E-2,1.4929716E-1,7.542155E-2,1.6684598E-1,1.697654E-1,3.2285195E-2,-9.706857E-2,-1.7032593E-1,-2.2353949E-2,1.5341388E-1,9.8516636E-2,-1.6041794E-1,-5.1316675E-2,-3.886215E-1,-4.03005E-2,-1.6585526E-1,-6.885975E-2,-1.3129315E-1,2.595491E0,5.4731387E-1,2.1899241E-1,-9.04935E-2,-1.6730231E-1,-3.0623062E-2,-1.5021776E-1,-3.02925E-1,-1.3034917E-1,-6.0475594E-1,-1.8306313E-1,-4.817377E-2,-9.1711E-1,3.8953882E-1,1.687663E-1,7.979834E-2,7.2146095E-2,-6.948365E-2,-1.6128874E-1,-2.5056213E-1,-1.7725387E-1,3.129248E-1,-1.9499145E-1,1.3874537E-1,2.66763E-1,1.4052564E-1,-6.478186E-1,8.329237E-1,6.839116E-2,1.1604672E-1,-1.1008785E0,-1.6330788E-1,4.209899E0,-5.2879423E-2,1.5188015E-2,4.7904485E-1,7.7933185E-2,1.6858493E-1,2.2938385E0,-5.1312596E-2,-7.23109E-1,-1.904711E-1,-1.7155015E-1,-2.0704761E-2,-1.9546102E-1,-8.227395E-2,1.3739094E-1,-1.6084103E-1,-1.9818103E-2,8.854753E-2,-9.8601855E-2,-5.782024E-1,-7.785568E-2,-1.7566772E-1,-7.92066E-2,8.018335E-1,-1.8100768E-1,-8.178982E-2,-2.6148533E-2,-1.6714719E-1,-2.1532568E-1,6.583559E-3,-5.630989E-1,-1.5490441E0,-6.621926E-1,-8.510265E-2,-1.7357011E-1,-1.6484017E-2,-4.4927013E-1,7.6169425E-1,-1.6380891E-1,6.560924E-3,-1.6772695E-1,-8.075547E-2,8.318557E-2,-1.2201553E-1,2.0615044E0,-2.5746858E-2,-1.5553667E-1,1.4166187E-1,1.2847476E0,5.9164774E-2,-1.7063193E-1,-6.1727475E-2,-8.744858E-2,-1.8170893E-1,7.357362E-2,1.6248292E-1,1.6245906E-1,2.0297458E-2,8.4162824E-2,1.654164E-1,1.4129725E-2,1.1313151E0,-2.6779455E-1,-1.0968473E-1,-1.8659166E-1,-1.6454875E-2,1.695677E-1,6.770622E-2,-4.174837E-2,4.7646248E-1,1.269523E-1,-1.8585877E-1,-9.559706E-3,1.2416234E0,1.4442491E-2,-1.6382091E-1,-4.490906E-1,-1.6591091E-1,-1.706416E-1,-6.6696453E-1,8.735579E-1,2.7522087E0,2.0331933E0,6.1686957E-1,-7.88042E-1,7.155169E-2,-9.6537197E-1,2.1018784E-2,-5.6278136E-2,4.0924716E-1,1.6785198E-1,5.213657E-2,-1.6489005E-1,1.4590353E-1,-4.903376E-1,2.0857701E-6,-1.7304866E-1,9.045522E-2,-2.3776308E-2,1.5976493E-1,-3.637749E-1,-2.7518436E-1,-7.838346E-1,-1.394624E-1,1.9401449E0,-7.1938865E-2,-1.623336E-1,1.8340576E-2,8.680833E-2,-9.3455905E-1,6.850637E-2,1.6526338E-1,3.8306403E-1,-1.4541685E-2,1.1700711E-2,-4.5063943E-1,2.3928958E-1,-1.4552255E-1,-9.864161E-2,-1.7527598E-1,-6.8828575E-2,1.14948064E-1,-6.0794204E-2,-4.0924197E-1,-1.7121643E-2,-7.412451E-2,1.04333244E-1,1.6853996E-1,1.6770148E-1,1.173081E-1,5.1499844E-1,3.5712283E-2,-3.021897E-1,1.4980168E0,7.3537755E-1,1.1328319E-1,8.229558E-2,1.6386278E-1,-2.0391019E-1,3.7539592E0,-1.6779965E-1,-1.0410593E-1,1.06856756E-1,1.6930075E-1,1.6485551E-1,9.236457E-2,-7.1113534E-2,1.5778421E-1,1.6562316E-1,4.7704812E-2,1.6736329E-1,-6.2438395E-2,1.0730424E-1,-1.6972375E-1,-2.9587511E-2,1.5623388E-1,1.6118723E-1,-1.3014622E-2],"split_indices":[690,690,578,690,521,718,626,0,572,1527,445,1520,690,718,643,0,0,855,872,753,704,2075,733,718,718,896,702,2422,548,1220,666,0,0,0,0,0,718,812,2075,0,896,86,1527,563,26,528,703,1220,690,367,0,687,552,0,0,0,0,0,417,878,757,500,0,690,578,0,555,654,0,578,685,0,0,594,709,690,677,686,602,565,995,0,0,576,535,0,0,0,0,1550,614,0,0,0,0,561,679,0,621,0,682,0,0,619,739,718,619,581,527,566,1189,1243,619,0,587,321,569,619,0,702,348,555,577,2070,781,569,1430,1791,0,0,0,0,0,0,0,0,0,0,0,0,0,0,0,0,0,0,643,0,0,0,685,999,1122,743,662,0,823,0,837,0,566,0,0,175,430,0,0,0,711,577,581,560,675,0,0,1019,0,511,536,1145,0,569,0,1765,1283,0,968,0,0,1520,0,200,840,0,0,447,0,0,0,0,86,0,389,0,0,602,164,0,0,0,0,781,0,682,528,619,0,0,0,553,668,0,0,0,0,615,690,626,0,0,0,73,0,0,0,0,0,0,0,0,0,0,0,0,829,565,0,0,0,0,0,0,481,0,0,1192,602,0,0,686,0,0,577,522,763,1050,204,664,0,449,0,0,416,0,0,0,0,587,0,0,1378,0,0,595,733,621,0,1445,0,0,0,0,388,0,90,818,0,0,589,505,0,0,0,0,140,0,587,725,0,0,314,2147483647,2147483647,553,0,777,1865,500,682,0,0,621,836,0,0,2147483647,2147483647,0,0,0,0,0,0,0,0,0,0,0,0,0,0],"split_type":[0,0,0,0,0,0,0,0,0,0,0,0,0,0,0,0,0,0,0,0,0,0,0,0,0,0,0,0,0,0,0,0,0,0,0,0,0,0,0,0,0,0,0,0,0,0,0,0,0,0,0,0,0,0,0,0,0,0,0,0,0,0,0,0,0,0,0,0,0,0,0,0,0,0,0,0,0,0,0,0,0,0,0,0,0,0,0,0,0,0,0,0,0,0,0,0,0,0,0,0,0,0,0,0,0,0,0,0,0,0,0,0,0,0,0,0,0,0,0,0,0,0,0,0,0,0,0,0,0,0,0,0,0,0,0,0,0,0,0,0,0,0,0,0,0,0,0,0,0,0,0,0,0,0,0,0,0,0,0,0,0,0,0,0,0,0,0,0,0,0,0,0,0,0,0,0,0,0,0,0,0,0,0,0,0,0,0,0,0,0,0,0,0,0,0,0,0,0,0,0,0,0,0,0,0,0,0,0,0,0,0,0,0,0,0,0,0,0,0,0,0,0,0,0,0,0,0,0,0,0,0,0,0,0,0,0,0,0,0,0,0,0,0,0,0,0,0,0,0,0,0,0,0,0,0,0,0,0,0,0,0,0,0,0,0,0,0,0,0,0,0,0,0,0,0,0,0,0,0,0,0,0,0,0,0,0,0,0,0,0,0,0,0,0,0,0,0,0,0,0,0,0,0,0,0,0,0,0,0,0,0,0,0,0,0,0,0,0,0,0,0,0,0,0,0,0,0,0,0,0,0,0,0,0,0,0,0,0,0,0,0],"sum_hessian":[2.2546877E4,7.184494E3,1.5362384E4,6.683352E3,5.0114203E2,3.1888296E3,1.2173554E4,6.628365E3,5.498711E1,3.8578943E2,1.15352615E2,2.4341448E3,7.546849E2,3.1846619E3,8.988892E3,7.1209145E0,4.7866196E1,3.6705038E2,1.8739037E1,2.8772276E1,8.658034E1,2.1683083E3,2.6583636E2,1.6279755E2,5.918873E2,1.2262091E3,1.9584528E3,1.9060986E2,8.798282E3,3.4942825E2,1.762212E1,8.815271E0,9.923764E0,2.164702E1,7.125256E0,8.729708E0,7.785063E1,2.0729048E3,9.540347E1,3.9064976E1,2.2677138E2,5.5830837E1,1.0696671E2,5.4909204E2,4.2795315E1,8.297292E2,3.9647992E2,2.979177E2,1.6605352E3,1.7555151E2,1.5058341E1,8.727388E3,7.0894356E1,3.3580356E2,1.36247015E1,8.037051E0,9.585068E0,7.137583E0,7.071305E1,2.0383711E3,3.453379E1,8.1360725E1,1.40427475E1,5.1230186E1,1.755412E2,9.731469E0,4.609937E1,9.597416E1,1.0992551E1,4.391855E1,5.051735E2,3.575019E1,7.0451245E0,1.0122784E2,7.2850134E2,1.4059938E2,2.5588055E2,2.2299753E2,7.492015E1,1.6196767E2,1.4985674E3,7.1202054E0,1.6843132E2,9.0532043E2,7.8220674E3,1.0725807E1,6.016855E1,6.3646076E1,7.0669723E0,2.0156492E3,2.2721996E1,7.023986E0,2.7509804E1,8.014348E0,7.3346375E1,2.4979067E1,2.6251118E1,7.090063E0,1.6845114E2,1.0040885E1,3.6058483E1,8.890826E1,7.0659027E0,2.511611E1,1.8802439E1,2.2148508E1,4.8302496E2,1.9835985E1,8.1391846E1,6.1942426E2,1.0907713E2,8.636561E1,5.4233772E1,1.5555034E1,2.4032552E2,9.393511E1,1.2906242E2,6.7795395E1,7.124751E0,6.590627E1,9.606139E1,1.4697305E3,2.8836964E1,1.2113303E2,7.841874E2,3.5272247E1,7.786795E3,2.00665E3,8.999137E0,9.662016E0,1.305998E1,1.7916563E1,7.0625043E0,7.545432E0,1.8705687E1,7.033781E0,1.6141736E2,2.8954813E1,7.103671E0,7.0065484E0,1.8109562E1,7.109498E0,1.1692941E1,8.555992E0,1.3592516E1,7.9892626E0,4.750357E2,7.303734E0,1.253225E1,7.0672135E0,7.432464E1,5.788059E2,4.0618343E1,4.2623474E1,6.645366E1,6.793654E1,1.8429068E1,9.264082E0,4.4969692E1,8.750521E0,2.31575E2,8.07686E1,1.3166512E1,2.9827984E1,9.9234436E1,6.0770638E1,7.0247607E0,9.278411E0,5.662786E1,1.6315641E1,7.974575E1,7.508231E1,1.3946482E3,1.9795424E1,9.041541E0,1.1095513E2,1.01779E1,7.37231E2,4.6956367E1,2.2675411E1,1.2596837E1,7.77796E3,8.835039E0,1.9638529E3,4.2797066E1,7.1422253E0,4.678935E2,7.0446315E0,6.728001E1,5.7169977E2,7.1061025E0,1.9417526E1,2.1200815E1,3.5525208E1,7.098264E0,5.938362E1,7.070038E0,9.202986E0,9.226083E0,9.03461E0,3.593508E1,8.252996E0,2.2332199E2,7.081626E0,2.2746357E1,7.989699E1,1.9337442E1,4.609866E1,1.0529203E1,7.0626388E0,9.253002E0,6.804703E1,1.1698728E1,5.013375E1,2.4948566E1,1.387562E3,7.08615E0,1.0392537E2,7.029768E0,2.8656523E1,7.0857446E2,3.988321E1,7.07316E0,1.5633459E1,7.0419526E0,3.674094E1,7.741219E3,1.9563418E3,7.511139E0,3.269699E1,1.0100076E1,4.6085233E2,7.0411453E0,5.638919E2,7.8079057E0,7.1347036E0,1.2282822E1,7.3051977E0,1.3895618E1,5.2334576E1,7.0490475E0,7.044423E0,2.8890657E1,1.2382065E1,2.1093993E2,6.7643616E1,1.2253375E1,1.2025521E1,7.3119206E0,6.101643E1,7.0305924E0,7.0975075E0,4.3036243E1,7.498995E0,1.7449572E1,2.2541172E1,1.3650209E3,1.1004886E1,1.7651638E1,6.9907367E2,9.500843E0,1.2941795E1,2.3799143E1,5.941406E1,7.681805E3,1.9339391E3,2.2402744E1,4.5212436E2,8.727982E0,2.039063E2,7.033632E0,1.2448518E1,5.51951E1,3.5988247E1,7.0479956E0,8.829367E0,1.3711805E1,1.3574878E3,7.5330343E0,8.347087E0,6.9072656E2,8.0668545E0,1.5732287E1,1.6716347E1,4.2697712E1,7.674691E3,7.1140647E0,1.9269113E3,7.027714E0,1.4567082E1,7.8356614E0,7.5327044E0,4.4459164E2,7.7634826E0,1.9614282E2,4.787123E1,7.323866E0,8.052523E0,1.3494353E3,6.8292804E2,7.7984853E0,7.106911E0,9.609435E0,7.1031885E0,3.5594524E1,1.31713505E1,7.6615195E3,1.9198702E3,7.0411267E0,7.040918E0,4.3755072E2,1.8427695E2,1.186587E1,4.0847565E1,7.023666E0,1.7303562E1,1.3321317E3,6.657994E2,1.7128708E1,7.042657E0,2.8551868E1,2.0380609E2,7.4577134E3,1.9041329E3,1.5737228E1,7.054355E0,4.3049637E2,3.3764214E1,7.0833516E0,7.087682E0,1.0215879E1,1.3224174E3,9.714363E0,6.587491E2,7.050296E0,9.95997E0,7.168737E0,4.8416027E1,1.5539006E2,7.4471973E3,1.0516057E1],"tree_param":{"num_deleted":"4","num_feature":"4225","num_nodes":"341","size_leaf_vector":"0"}},{"base_weights":[-6.0315523E-4,-1.2152797E0,7.9133385E-1,-1.3570527E0,1.3685533E0,-8.3089374E-2,1.2112162E0,-1.5158898E0,-3.7632155E-1,-1.5330153E0,1.577563E0,-8.444447E-1,5.37304E-1,-1.3171773E0,1.3254808E0,-1.5551134E0,2.4001576E-1,-1.5087205E0,3.235167E-1,-1.6723138E0,-9.3091977E-1,6.5448195E-1,1.5919763E0,-1.1261886E0,1.20434E0,-5.380893E-1,1.0222021E0,-1.4243685E0,4.360148E-1,5.5820156E-2,1.4188192E0,-1.5613135E0,4.424212E-1,-1.2690706E0,1.2783296E0,-1.5482638E0,-2.4854253E-1,7.344352E-1,-1.4312456E0,-1.2180151E0,1.2537981E0,1.4766818E0,-1.2749914E0,-1.0484726E0,8.25298E-1,-4.947957E-1,1.3264314E0,-1.528753E0,3.9297265E-1,-1.4283077E0,1.653728E0,-8.4264225E-1,1.0171082E0,-8.852139E-1,1.4392111E0,-1.5655334E0,1.1053463E0,-1.410469E0,1.4872565E0,-1.5704802E0,1.0119456E0,-1.487001E0,1.5373268E0,-1.5737069E0,-6.556095E-1,-9.03478E-1,1.0164601E0,-1.5253968E0,2.3755385E-3,-1.2843323E0,1.5538985E0,-1.0230671E0,1.556179E0,-2.1767965E-1,1.5374347E0,-1.6336489E0,-5.252929E-1,-1.2868799E0,4.6881643E-1,-1.1144377E0,1.4126005E0,-1.108789E0,1.5292487E0,-3.2051504E-1,1.3834683E0,-1.5855354E0,-6.166584E-1,-1.3439182E0,1.3999423E0,-1.497717E0,7.5796986E-1,-7.481695E-1,1.2245989E0,-1.5302532E0,1.4169189E0,-1.4559228E0,1.4467248E0,-1.569061E0,-1.3269144E-1,7.744706E-1,1.5986768E0,-1.5645092E0,1.2412508E0,1.2909837E0,-2.602569E-1,-1.5649385E0,-7.5691944E-1,-1.3866713E0,5.3139144E-1,1.5914817E0,4.5670252E-2,-1.4122477E0,6.504374E-1,-7.7248424E-1,1.4383004E0,-1.7371265E0,4.5911363E-1,1.5461257E0,-1.1498297E0,-1.4197512E0,4.721532E-1,9.1112655E-1,1.5903702E0,-1.0445081E0,9.081475E-1,1.4265738E0,-3.0540282E-1,8.7618273E-1,-1.4605676E0,2.4846949E-2,-1.5585811E0,1.3334384E0,-1.4897606E0,-1.6844522E0,3.5765916E-1,1.362191E0,-7.413527E-1,-1.6898396E0,-8.6994255E-1,1.0360788E0,1.4917051E0,-1.5733231E0,-7.66673E-1,-1.4300038E0,1.4428806E0,6.0617244E-1,1.5303396E0,-1.4559288E0,1.3863637E0,-9.7069335E-1,1.4816284E0,-1.4414786E0,1.1576414E0,-1.6984935E0,1.426958E0,1.6070982E0,1.0313119E0,-1.5149996E0,1.0596436E0,-1.4559406E0,1.5336483E0,-1.4851367E0,9.893868E-1,5.7457405E-1,1.6013176E0,1.6051579E0,3.4655526E-1,-1.5504955E0,1.0663254E0,-1.477697E0,1.2116696E0,5.946048E-1,-1.6459367E0,4.3478113E-2,1.4903827E0,-1.5319676E0,1.4486561E0,9.560985E-1,-1.7429396E0,-1.6054038E0,-2.7462503E-1,1.525044E0,-3.4671825E-1,-9.294206E-1,-1.7508265E0,1.4289875E0,-6.9815004E-1,3.8441977E-1,-1.5850008E0,-6.431939E-1,1.2753727E0,1.4954456E0,-1.4981104E0,-1.5747961E0,-5.5829763E-1,-1.4635962E0,1.2651035E0,1.4869615E0,-6.5333337E-1,1.404168E0,-1.2974035E0,-1.4710772E0,1.4620277E0,1.5265812E0,-1.4066851E-1,1.5754277E-1,1.5882689E0,-1.5616533E0,3.2394648E-1,3.131174E-1,1.5204309E0,-9.563323E-1,-1.6773257E0,-1.604209E0,-4.382484E-1,1.5387666E0,2.9708782E-1,-4.2279795E-1,1.4668647E0,1.7284647E-1,1.4427991E0,9.123066E-1,1.5853381E0,-4.3327582E-1,1.4966804E0,-1.3347418E0,1.1733708E0,1.3385742E0,-1.5062277E0,-4.9589476E-1,1.4996326E0,-1.5763358E0,-6.477244E-1,-9.838267E-1,-1.5786743E0,1.5454217E0,-1.3206875E0,7.271372E-1,-1.5431317E0,-1.5202779E0,-2.2957392E-1,-1.4852116E0,1.2080044E0,-1.5276514E-1,-1.5872918E0,-1.6662784E0,-1.1985289E0,1.073254E0,1.5401348E0,7.815604E-2,1.5431983E0,-1.5651505E0,3.5457963E-1,1.5781571E0,-2.0947873E-3,4.2770737E-1,1.4890456E0,6.0441643E-1,-1.5298052E0,1.5036451E0,-1.9369991E-1,-1.577498E0,-5.82506E-1,1.57114E0,2.1382688E-1,-1.5144463E0,-2.8662434E-1,-1.6072588E0,-5.470176E-1,-3.5338187E-1,-1.5206804E0,1.2616905E0,-1.3154804E0,1.5497757E0,1.1202347E-1,7.7516156E-1,1.5720696E0,-1.629464E0,-9.301834E-1,-5.857358E-1,1.3500576E0,-1.8684857E-2,1.5093967E0,9.189299E-1,1.5123245E0,-1.4704231E0,1.457056E0,-1.5786098E0,-6.1478317E-1,1.5927696E0,4.481962E-1,-1.5276694E0,9.6819437E-1,-1.7027967E0,7.21713E-1,-7.3629975E-1,1.3802403E0,-1.5755477E0,-8.9459836E-1,1.5598161E0,3.844503E-1,1.5903987E0,9.305513E-1,-1.6113747E0,3.1226456E-1,1.6133746E0,-2.3232651E-1,1.5305573E0,5.461013E-1,-9.829571E-1,1.1569064E0,1.5147845E0,-7.5249636E-1,-1.5795687E0,-6.318568E-1,1.6036441E0,9.359768E-1,-1.5419391E0,1.7237347E-1,1.365349E0,-5.136724E-1,1.4909317E0,2.3355624E-1,4.5786417E-1,1.5670775E0,1.1801965E0,-8.1242007E-1,1.5448911E0,3.7831575E-1,1.3316392E0,-5.696568E-1,1.5210723E0,8.7186676E-1,-1.5807419E0,-7.9151064E-1,-1.5528483E0,-5.141366E-1,1.567038E0,6.633745E-1,-1.0780001E0,1.3417821E0,1.5734619E0,5.753283E-1,1.5590504E0,4.1585714E-1,2.0529087E-1,1.4305611E0,1.5231347E0,-3.9781928E-1,1.3482585E0,-1.0629469E0],"categories":[],"categories_nodes":[],"categories_segments":[],"categories_sizes":[],"default_left":[true,true,true,true,true,true,true,true,true,true,true,true,true,true,true,true,true,true,true,false,false,false,false,true,true,true,true,true,true,true,true,true,true,true,true,true,false,true,true,true,true,true,true,true,true,true,true,true,true,false,false,true,true,true,true,true,false,false,false,false,false,false,true,false,false,true,true,true,false,true,false,false,false,false,true,false,false,true,true,true,true,true,true,true,true,false,true,false,false,true,true,true,true,false,false,true,true,true,true,false,false,false,true,true,true,false,false,true,true,true,false,true,true,true,true,false,false,true,false,true,true,false,false,true,true,true,true,false,false,false,true,true,true,false,false,true,true,false,false,true,true,true,true,false,false,false,false,false,true,true,false,true,true,false,true,true,true,true,true,false,false,true,false,false,false,false,false,true,false,false,true,false,false,false,false,false,true,true,false,false,false,true,false,false,false,true,false,false,false,true,true,true,false,true,false,true,false,true,true,false,true,true,false,false,false,false,false,true,false,false,false,false,false,true,false,false,false,false,true,false,false,false,false,false,true,true,true,true,false,true,true,true,false,true,true,true,false,false,false,false,false,true,false,false,true,false,true,true,true,false,true,true,false,false,false,true,true,false,false,true,true,true,false,true,false,true,true,false,false,false,false,true,true,true,false,false,true,false,false,true,true,false,true,true,true,false,false,true,false,true,false,true,false,false,true,false,true,true,true,true,false,false,false,false,true,false,false,true,false,false,true,true,false,true,false,false,false,true,false,false,false,true,true,false,true,false,false,true,false,true,false,true,true,false,false,false,false,false,false,false,false,false,false,false,false,false,false,false,false,false,false],"id":3,"left_children":[1,3,5,7,9,11,13,15,17,19,21,23,25,27,29,31,33,35,37,-1,-1,-1,-1,39,41,43,45,47,49,51,53,55,57,59,61,63,-1,65,67,69,71,73,75,77,79,81,83,85,87,-1,-1,89,91,93,95,97,-1,-1,-1,-1,-1,-1,99,-1,-1,101,103,105,-1,107,-1,-1,-1,-1,109,-1,-1,111,113,115,117,119,121,123,125,-1,127,-1,-1,129,131,133,135,-1,-1,137,139,141,143,-1,-1,-1,145,147,149,-1,-1,151,153,-1,-1,157,159,161,163,-1,-1,165,-1,167,169,-1,-1,171,173,175,177,-1,-1,-1,179,181,183,-1,-1,185,187,-1,-1,189,191,193,195,-1,-1,-1,-1,-1,197,199,-1,201,203,-1,205,-1,-1,207,209,-1,-1,211,-1,-1,-1,-1,-1,213,-1,-1,215,-1,-1,-1,-1,-1,217,219,-1,-1,-1,221,-1,-1,-1,223,-1,-1,-1,225,227,229,-1,231,-1,-1,-1,235,237,-1,239,241,-1,-1,-1,-1,-1,243,-1,-1,-1,-1,-1,245,-1,-1,-1,-1,247,-1,-1,-1,-1,-1,249,251,253,255,-1,257,259,261,-1,-1,-1,263,-1,-1,-1,-1,-1,265,-1,-1,267,-1,269,271,273,-1,275,277,-1,-1,-1,279,281,-1,-1,283,285,287,-1,289,-1,291,293,-1,-1,-1,-1,295,-1,299,-1,-1,301,-1,-1,303,305,-1,307,309,311,-1,-1,313,-1,315,-1,317,-1,-1,319,-1,321,-1,-1,323,-1,-1,-1,-1,325,-1,-1,327,-1,-1,329,331,-1,333,-1,-1,-1,335,-1,-1,-1,337,339,-1,341,-1,-1,343,-1,345,-1,347,349,-1,-1,-1,-1,-1,-1,-1,-1,-1,-1,-1,-1,-1,-1,-1,-1,-1,-1],"loss_changes":[2.0960363E4,3.1520146E3,4.842869E3,1.2694307E3,2.7399182E2,2.0220045E3,2.5762227E3,4.8358887E2,9.0209924E2,1.0093765E0,4.5220947E0,1.1108046E3,1.2305889E3,7.312421E1,1.0103584E3,8.568555E1,2.4318733E2,2.1278198E1,5.086518E2,0E0,0E0,0E0,0E0,3.7090698E2,1.5910266E2,5.114286E2,7.511389E2,6.9616455E1,5.4565285E1,5.0604544E2,3.7443652E2,7.872266E1,4.471755E1,4.513669E1,6.805373E1,8.536987E0,0E0,2.6470523E2,1.8078339E1,3.0124316E2,4.5160294E1,2.197815E1,5.4825935E0,1.9388129E2,2.298882E2,3.4017957E2,1.2770532E2,1.6851501E1,3.7835556E1,0E0,0E0,3.187207E2,1.0458606E2,1.06556755E2,1.7336914E2,3.4320312E1,0E0,0E0,0E0,0E0,0E0,0E0,2.7144623E0,0E0,0E0,1.2161651E2,1.712479E2,2.63385E0,0E0,2.9626416E2,0E0,0E0,0E0,0E0,1.6302734E1,0E0,0E0,1.1313367E2,8.930681E1,4.6983624E1,5.45636E1,1.0369E2,9.61853E-1,4.200934E1,9.5773926E1,0E0,2.8758862E1,0E0,0E0,1.998703E1,1.16624214E2,3.206697E1,6.962091E1,0E0,0E0,1.3917122E0,1.4350977E2,2.209961E1,3.8589737E1,0E0,0E0,0E0,2.8259392E0,1.0721399E2,1.0926122E2,0E0,0E0,2.1165112E2,1.7332672E2,5.69458E-2,0E0,1.1190338E2,5.5748466E1,4.2639282E1,4.9230194E0,0E0,0E0,9.857727E0,0E0,5.865265E1,5.253796E1,0E0,0E0,3.0069717E1,8.820732E0,8.565967E1,6.226663E1,0E0,0E0,0E0,1.2003845E1,2.3414131E1,1.0845108E0,0E0,0E0,3.3670563E1,1.6981632E1,0E0,0E0,3.136764E2,8.137109E1,9.253906E0,5.559845E1,0E0,0E0,0E0,0E0,0E0,8.069702E1,5.030915E1,0E0,1.2886963E2,1.5690075E1,0E0,1.2363831E1,0E0,0E0,3.631079E1,5.687998E0,0E0,0E0,8.092079E-1,0E0,0E0,0E0,0E0,0E0,9.274353E0,0E0,0E0,7.3405914E0,0E0,0E0,0E0,0E0,0E0,4.3837402E1,6.7816467E0,0E0,0E0,0E0,9.180298E-1,0E0,0E0,0E0,2.967807E1,0E0,0E0,0E0,1.2438994E2,1.2187537E2,5.966797E1,0E0,8.638672E0,0E0,3.2859802E-2,0E0,6.2868103E1,2.440792E1,0E0,1.2848785E1,5.7085205E1,0E0,0E0,0E0,0E0,0E0,1.4465881E1,0E0,0E0,0E0,0E0,0E0,2.005005E0,0E0,0E0,0E0,0E0,3.4576904E1,0E0,0E0,0E0,0E0,0E0,1.4556732E1,2.8299942E1,1.3083378E1,9.0805176E1,0E0,1.864881E1,4.8211914E1,6.8847656E0,0E0,0E0,0E0,1.2112366E1,0E0,0E0,0E0,0E0,0E0,5.0476562E1,0E0,0E0,7.425049E0,0E0,6.1747627E0,9.188585E1,1.4376709E1,0E0,3.555725E0,1.0533752E0,0E0,0E0,0E0,9.051859E1,1.758496E1,0E0,0E0,3.4319336E1,3.9148216E1,6.25E0,0E0,7.9437866E0,0E0,4.803247E1,5.239013E1,0E0,0E0,0E0,0E0,4.514383E1,2.4833488E-1,1.16813965E1,0E0,0E0,9.486084E-1,0E0,0E0,4.3270493E1,2.1440247E1,0E0,1.0672363E1,4.8870796E1,3.975879E1,0E0,0E0,5.1191406E0,0E0,9.939575E-1,0E0,3.449463E1,0E0,0E0,1.7899805E1,0E0,2.2018341E1,0E0,0E0,7.6069336E0,0E0,0E0,0E0,0E0,2.5943817E1,0E0,0E0,8.5303955E0,0E0,0E0,2.9175964E1,2.6666992E1,0E0,4.9726562E0,0E0,0E0,0E0,1.4891602E1,0E0,0E0,0E0,9.070129E0,2.571777E1,0E0,5.6359863E0,0E0,0E0,8.060669E0,0E0,9.270416E0,0E0,2.7738281E1,6.541073E1,0E0,0E0,0E0,0E0,0E0,0E0,0E0,0E0,0E0,0E0,0E0,0E0,0E0,0E0,0E0,0E0,0E0,0E0],"parents":[2147483647,0,0,1,1,2,2,3,3,4,4,5,5,6,6,7,7,8,8,9,9,10,10,11,11,12,12,13,13,14,14,15,15,16,16,17,17,18,18,23,23,24,24,25,25,26,26,27,27,28,28,29,29,30,30,31,31,32,32,33,33,34,34,35,35,37,37,38,38,39,39,40,40,41,41,42,42,43,43,44,44,45,45,46,46,47,47,48,48,51,51,52,52,53,53,54,54,55,55,62,62,65,65,66,66,67,67,69,69,74,74,77,77,78,78,79,79,80,80,81,81,82,82,83,83,84,84,86,86,89,89,90,90,91,91,92,92,95,95,96,96,97,97,98,98,102,102,103,103,104,104,107,107,108,108,109,109,111,111,112,112,113,113,114,114,117,117,119,119,120,120,123,123,124,124,125,125,126,126,130,130,131,131,132,132,135,135,136,136,139,139,140,140,141,141,142,142,148,148,149,149,151,151,152,152,154,154,157,157,158,158,161,161,167,167,170,170,176,176,177,177,181,181,185,185,189,189,190,190,191,191,193,193,195,195,197,197,198,198,200,200,201,201,207,207,213,213,218,218,224,224,225,225,226,226,227,227,229,229,230,230,231,231,235,235,241,241,244,244,246,246,247,247,248,248,250,250,251,251,255,255,256,256,259,259,260,260,261,261,263,263,265,265,266,266,271,271,272,272,273,273,276,276,279,279,280,280,282,282,283,283,284,284,287,287,289,289,291,291,294,294,296,296,299,299,304,304,307,307,310,310,311,311,313,313,317,317,321,321,322,322,324,324,327,327,329,329,331,331,332,332],"right_children":[2,4,6,8,10,12,14,16,18,20,22,24,26,28,30,32,34,36,38,-1,-1,-1,-1,40,42,44,46,48,50,52,54,56,58,60,62,64,-1,66,68,70,72,74,76,78,80,82,84,86,88,-1,-1,90,92,94,96,98,-1,-1,-1,-1,-1,-1,100,-1,-1,102,104,106,-1,108,-1,-1,-1,-1,110,-1,-1,112,114,116,118,120,122,124,126,-1,128,-1,-1,130,132,134,136,-1,-1,138,140,142,144,-1,-1,-1,146,148,150,-1,-1,152,154,-1,-1,158,160,162,164,-1,-1,166,-1,168,170,-1,-1,172,174,176,178,-1,-1,-1,180,182,184,-1,-1,186,188,-1,-1,190,192,194,196,-1,-1,-1,-1,-1,198,200,-1,202,204,-1,206,-1,-1,208,210,-1,-1,212,-1,-1,-1,-1,-1,214,-1,-1,216,-1,-1,-1,-1,-1,218,220,-1,-1,-1,222,-1,-1,-1,224,-1,-1,-1,226,228,230,-1,232,-1,-1,-1,236,238,-1,240,242,-1,-1,-1,-1,-1,244,-1,-1,-1,-1,-1,246,-1,-1,-1,-1,248,-1,-1,-1,-1,-1,250,252,254,256,-1,258,260,262,-1,-1,-1,264,-1,-1,-1,-1,-1,266,-1,-1,268,-1,270,272,274,-1,276,278,-1,-1,-1,280,282,-1,-1,284,286,288,-1,290,-1,292,294,-1,-1,-1,-1,296,-1,300,-1,-1,302,-1,-1,304,306,-1,308,310,312,-1,-1,314,-1,316,-1,318,-1,-1,320,-1,322,-1,-1,324,-1,-1,-1,-1,326,-1,-1,328,-1,-1,330,332,-1,334,-1,-1,-1,336,-1,-1,-1,338,340,-1,342,-1,-1,344,-1,346,-1,348,350,-1,-1,-1,-1,-1,-1,-1,-1,-1,-1,-1,-1,-1,-1,-1,-1,-1,-1],"split_conditions":[-1.1444217E-1,-3.7815835E-2,-2.3870754E-1,-2.2978866E-1,-1.9062069E-1,-4.8417622E-1,-1.7356971E-1,-6.451984E-2,-2.333805E-1,4.102108E-1,-2.2566956E-1,1.7173007E0,-4.2836702E-1,5.740086E-1,-5.955987E-1,-9.956115E-3,-1.6658041E-1,1.1925851E0,-4.465235E-3,-1.6723138E-1,-9.309198E-2,6.5448195E-2,1.5919763E-1,3.127771E-2,-2.4916035E-1,-1.2618285E-1,9.067635E-2,9.899991E-2,7.2172925E-2,-1.6993873E-1,-6.099644E-1,4.4946012E0,-3.5870716E-2,1.3346245E0,-4.1281456E-1,1.484493E-1,-2.4854254E-2,-3.482641E-1,-5.2963156E-2,1.8895735E1,6.3984674E-1,-1.9037446E-1,-2.7634287E-1,1.5638002E0,-1.8914264E-1,1.2635435E0,-8.895389E-1,-1.8866557E-1,1.0759182E0,-1.4283077E-1,1.653728E-1,-3.5102844E-1,9.648761E-2,2.0589106E0,-8.069315E-1,1.1602379E-1,1.1053463E-1,-1.4104691E-1,1.4872566E-1,-1.5704803E-1,1.0119456E-1,-1.487001E-1,-3.5688022E-1,-1.5737069E-1,-6.556095E-2,1.9012041E0,-1.2046242E-1,6.4937544E-1,2.3755385E-4,2.9854236E0,1.5538985E-1,-1.02306716E-1,1.5561791E-1,-2.1767965E-2,1.5479689E0,-1.6336489E-1,-5.2529287E-2,-5.2051138E-2,3.632671E-2,7.084863E-1,7.482958E-1,7.489954E-1,1.2762275E0,-1.7693724E-1,1.5760916E0,-1.5855354E-1,-3.058122E-1,-1.3439183E-1,1.3999423E-1,-1.9849505E-1,-2.0221053E-1,5.9803322E-2,8.887402E-1,-1.5302531E-1,1.416919E-1,3.9076662E-1,-1.966769E-1,7.5216365E-1,2.508235E0,7.7447064E-2,1.5986769E-1,-1.5645091E-1,-3.005387E-2,-7.0968336E-1,-1.8343098E-2,-1.5649386E-1,-7.5691946E-2,6.579715E0,-1.7441747E-1,1.5914817E-1,4.567025E-3,-3.4401637E-2,-5.2879423E-2,-2.2145537E-1,7.2801185E-1,-1.7371266E-1,4.5911364E-2,-7.484367E-1,-1.1498298E-1,4.9727187E-2,-7.3778355E-1,9.111266E-2,1.5903702E-1,-5.7252496E-1,7.2960305E-1,-7.8738856E-1,-6.784632E-2,8.761828E-2,-1.4605676E-1,2.4846948E-3,4.185489E0,-3.210196E-1,-9.110678E-1,-1.6844521E-1,3.5765916E-2,8.150456E-1,-7.120061E-1,-1.6898397E-1,-8.699425E-2,-7.409384E-1,1.0993425E0,4.729022E0,-1.1898647E-1,-1.4300038E-1,1.4428806E-1,6.0617246E-2,1.5303396E-1,-1.4559288E-1,-7.713999E-2,-1.21229246E-1,1.4816284E-1,3.1837877E1,6.8303423E0,-1.6984935E-1,1.2684386E0,1.6070983E-1,1.0313119E-1,2.1298221E-1,-4.6369374E-2,-1.4559406E-1,1.5336482E-1,-4.404942E-1,9.893868E-2,5.7457406E-2,1.6013177E-1,1.6051579E-1,3.4655526E-2,1.1912798E-1,1.06632546E-1,-1.477697E-1,-4.5101274E-2,5.946048E-2,-1.6459368E-1,4.3478115E-3,1.4903827E-1,-1.5319677E-1,-6.4089835E-1,-9.95505E-2,-1.7429397E-1,-1.6054039E-1,-2.7462503E-2,-3.4897098E-1,-3.4671824E-2,-9.294206E-2,-1.7508265E-1,-4.0363866E-1,-6.9815E-2,3.844198E-2,-1.5850008E-1,-1.1390695E-1,9.3226445E-1,-6.828869E-1,-1.4981104E-1,5.7623535E-1,-5.5829763E-2,-1.4635962E-1,1.2651035E-1,4.2367113E-1,4.588871E-1,1.404168E-1,1.1851902E0,3.7894278E0,1.4620277E-1,1.5265812E-1,-1.4066852E-2,1.5754277E-2,1.5882689E-1,-3.0457342E-1,3.2394648E-2,3.1311743E-2,1.5204309E-1,-9.563323E-2,-1.6773258E-1,1.9979508E-1,-4.382484E-2,1.5387666E-1,2.9708782E-2,-4.2279795E-2,3.3611584E-1,1.7284647E-2,1.4427991E-1,9.123066E-2,1.5853381E-1,-4.332758E-2,8.095905E-2,1.5020599E0,-2.6160246E-1,2.3126358E-1,-1.5062277E-1,-1.0816929E-1,1.2267711E0,1.1094021E-1,-6.477244E-2,-9.8382674E-2,-1.5786743E-1,-4.9783126E-2,-1.3206875E-1,7.2713725E-2,-1.5431318E-1,-1.5202779E-1,-2.2957392E-2,1.5288357E0,1.20800436E-1,-1.5276514E-2,6.727128E-1,-1.6662784E-1,-1.1517001E-1,4.8582312E-1,3.286544E-1,7.815604E-3,-7.9402393E-1,1.2489336E0,3.5457965E-2,1.5781571E-1,-2.0947873E-4,-3.0643165E-1,-1.0926578E0,6.0441643E-2,-1.5298052E-1,-1.3274622E0,2.072511E-1,3.533959E0,-5.8250602E-2,6.2365377E-1,2.1382688E-2,1.626108E1,6.838445E-1,-1.6072588E-1,-5.4701757E-2,-3.533819E-2,-1.5206805E-1,-6.3312846E-1,-1.3154803E-1,1.9976888E0,1.1202347E-2,7.751616E-2,6.2369704E-1,-1.629464E-1,-9.3018346E-2,3.0100918E-1,9.3261456E-1,-1.8684857E-3,1.343854E0,-2.3562999E-1,2.8378706E0,-1.4704232E-1,1.4570561E-1,4.1090317E0,-6.1478317E-2,-2.538735E-1,4.481962E-2,2.0803278E-2,9.681944E-2,-1.7027967E-1,-5.965215E-1,-7.3629975E-2,1.2004821E0,-1.5755478E-1,-8.945984E-2,-1.6577044E0,3.844503E-2,1.5903987E-1,9.305513E-2,-1.6113748E-1,-9.93153E-2,1.6133747E-1,-2.3232652E-2,5.9169495E-1,5.461013E-2,-9.829571E-2,-2.553002E-2,6.1108994E-1,-7.5249635E-2,3.9554935E0,-6.3185684E-2,1.6036442E-1,9.359768E-2,-1.3491614E-3,1.7237348E-2,1.3653491E-1,-5.1367242E-2,2.6592904E-1,1.5452374E0,4.5786418E-2,7.3238015E-1,1.18019655E-1,-8.124201E-2,7.195689E-1,3.7831575E-2,-9.818524E-1,-5.696568E-2,2.0306718E0,2.1802782E-1,-1.5807419E-1,-7.9151064E-2,-1.5528484E-1,-5.1413663E-2,1.5670381E-1,6.633745E-2,-1.0780001E-1,1.341782E-1,1.5734619E-1,5.753283E-2,1.5590505E-1,4.1585714E-2,2.0529088E-2,1.4305611E-1,1.5231347E-1,-3.9781928E-2,1.3482586E-1,-1.0629469E-1],"split_indices":[687,3045,681,739,1005,614,691,773,691,565,691,575,626,1575,575,1850,1128,855,781,0,0,0,0,2383,510,995,691,840,1191,614,592,2036,874,960,780,1883,0,752,902,2554,1080,617,640,546,884,1745,569,691,1,0,0,577,504,838,604,2134,0,0,0,0,0,0,687,0,0,527,823,527,0,1259,0,0,0,0,617,0,0,2321,645,577,526,575,517,842,548,0,543,0,0,681,529,595,779,0,0,199,578,1541,516,0,0,0,577,553,1832,0,0,812,842,644,0,1263,1283,515,615,0,0,646,0,1288,1290,0,0,548,691,599,821,0,0,0,693,626,646,0,0,601,462,0,0,1290,1430,3638,659,0,0,0,0,0,734,739,0,2291,812,0,546,2147483647,2147483647,726,514,0,0,467,0,0,0,0,0,1641,0,0,640,0,0,0,0,0,578,518,0,0,0,328,0,0,0,517,0,0,0,1192,529,542,0,2374,0,609,0,563,739,0,196,564,0,0,0,0,0,614,0,0,0,0,0,515,0,0,0,0,691,0,0,0,0,0,691,439,829,691,0,539,665,2553,0,2147483647,2147483647,900,0,0,0,0,0,535,0,0,1346,0,786,503,1430,0,467,60,0,0,0,809,34,0,0,178,614,1773,0,640,0,3719,691,0,0,0,0,755,547,553,0,0,630,0,0,555,809,0,574,689,779,0,0,2243,0,604,0,1753,0,0,194,0,995,2147483647,2147483647,245,0,0,0,0,560,0,0,823,0,0,666,630,0,1030,0,0,0,1961,0,0,0,637,527,0,630,0,0,518,0,258,0,540,657,0,0,0,0,0,0,0,0,0,0,0,0,0,0,0,0,0,0],"split_type":[0,0,0,0,0,0,0,0,0,0,0,0,0,0,0,0,0,0,0,0,0,0,0,0,0,0,0,0,0,0,0,0,0,0,0,0,0,0,0,0,0,0,0,0,0,0,0,0,0,0,0,0,0,0,0,0,0,0,0,0,0,0,0,0,0,0,0,0,0,0,0,0,0,0,0,0,0,0,0,0,0,0,0,0,0,0,0,0,0,0,0,0,0,0,0,0,0,0,0,0,0,0,0,0,0,0,0,0,0,0,0,0,0,0,0,0,0,0,0,0,0,0,0,0,0,0,0,0,0,0,0,0,0,0,0,0,0,0,0,0,0,0,0,0,0,0,0,0,0,0,0,0,0,0,0,0,0,0,0,0,0,0,0,0,0,0,0,0,0,0,0,0,0,0,0,0,0,0,0,0,0,0,0,0,0,0,0,0,0,0,0,0,0,0,0,0,0,0,0,0,0,0,0,0,0,0,0,0,0,0,0,0,0,0,0,0,0,0,0,0,0,0,0,0,0,0,0,0,0,0,0,0,0,0,0,0,0,0,0,0,0,0,0,0,0,0,0,0,0,0,0,0,0,0,0,0,0,0,0,0,0,0,0,0,0,0,0,0,0,0,0,0,0,0,0,0,0,0,0,0,0,0,0,0,0,0,0,0,0,0,0,0,0,0,0,0,0,0,0,0,0,0,0,0,0,0,0,0,0,0,0,0,0,0,0,0,0,0,0,0,0,0,0,0,0,0,0,0,0,0,0,0,0,0,0,0,0,0,0,0,0,0,0,0,0,0,0,0,0,0,0],"sum_hessian":[2.1787512E4,8.598523E3,1.3188988E4,8.151719E3,4.4680386E2,4.2788657E3,8.910123E3,7.015034E3,1.1366853E3,2.9596544E1,4.172073E2,1.921012E3,2.3578535E3,3.8480542E2,8.525317E3,6.861867E3,1.5316696E2,4.3372495E2,7.029603E2,2.2592207E1,7.004338E0,7.1276903E0,4.1007962E2,1.6891715E3,2.318405E2,7.327257E2,1.6251278E3,3.6281052E2,2.19949E1,5.839246E2,7.9413926E3,6.8408525E3,2.1014767E1,6.2339878E1,9.082708E1,4.2030743E2,1.3417498E1,5.700511E2,1.3290929E2,1.6268898E3,6.2281673E1,2.0925888E2,2.2581612E1,5.333117E2,1.9941402E2,2.7136697E2,1.3537609E3,3.432535E2,1.9557018E1,8.621861E0,1.3373038E1,3.0188913E2,2.8203552E2,6.92969E1,7.8720957E3,6.8304565E3,1.0395998E1,7.451133E0,1.3563635E1,5.533898E1,7.0008984E0,7.3722005E0,8.345488E1,4.0791772E2,1.2389716E1,8.341265E1,4.8663843E2,1.2465848E2,8.250802E0,1.5894005E3,3.7489235E1,7.0222487E0,5.5259426E1,7.154037E0,2.0210484E2,1.4476803E1,8.104808E0,4.610242E2,7.228752E1,4.61367E1,1.5327731E2,2.0855428E2,6.281269E1,4.5159393E1,1.3086014E3,3.224416E2,2.0811913E1,7.0544305E0,1.2502587E1,2.1426302E2,8.7626114E1,2.9389687E1,2.5264583E2,5.4391987E1,1.4904914E1,1.987811E1,7.852218E3,6.8135864E3,1.6869984E1,7.226076E0,7.6228806E1,6.3967598E1,1.944505E1,4.0050864E2,8.612979E1,1.1757242E2,7.086059E0,1.5048212E3,8.457944E1,1.9497404E2,7.130799E0,4.332582E2,2.7765997E1,3.1788982E1,4.0498543E1,3.2981316E1,1.3155383E1,1.4606277E2,7.2145376E0,1.7436053E2,3.4193745E1,7.0835476E0,5.572914E1,2.8509794E1,1.66496E1,1.2761844E3,3.2417E1,7.5023384E0,1.3309574E1,8.258619E0,2.060044E2,7.008864E1,1.7537472E1,1.5631535E1,1.3758152E1,2.3640738E2,1.6238457E1,1.2860545E1,7.0175667E0,7.7755927E2,7.074658E3,6.7766294E3,3.695702E1,9.302651E0,7.567332E0,7.05133E0,1.2393719E1,1.2961368E1,3.8754727E2,6.1492508E1,2.4637285E1,1.4735134E3,3.1307709E1,2.3978485E1,6.0600956E1,1.8786768E2,7.106367E0,4.1633887E2,1.6919338E1,8.011302E0,1.9754694E1,2.274572E1,9.043262E0,7.1483817E0,3.335016E1,1.3888974E2,7.1730294E0,1.6600647E2,8.354061E0,9.128042E0,2.5065702E1,7.6559315E0,2.0853863E1,7.1322575E0,9.517342E0,8.94821E0,1.2672363E3,1.7444017E1,1.4972981E1,1.9851471E2,7.48969E0,6.2996784E1,7.0918527E0,7.0232286E0,1.0514244E1,2.2928049E2,7.1268835E0,7.1893086E0,9.049148E0,9.677085E1,6.807884E2,7.066318E3,8.34076E0,6.7662593E3,1.0370192E1,2.7726242E1,9.23078E0,3.6959012E2,1.7957163E1,7.037669E0,5.4454838E1,1.4591323E3,1.4381128E1,2.4242823E1,7.064886E0,7.055469E0,5.3545486E1,4.0618484E2,1.0154011E1,7.098506E0,9.820832E0,7.6560993E0,1.5089621E1,1.5793695E2,8.06952E0,1.7959917E1,7.105785E0,1.1996924E1,1.2552394E3,7.2046466E0,1.023937E1,7.088733E0,5.5908054E1,7.8525453E0,2.2142795E2,7.028087E1,2.648998E1,6.661709E2,1.461746E1,1.458E1,7.051738E3,6.7543413E3,1.19178915E1,7.2112384E0,2.0515003E1,3.6249194E2,7.0981555E0,7.109693E0,1.0847469E1,4.4701214E1,9.753622E0,1.4519178E3,7.2144694E0,7.3839264E0,3.9880093E2,1.3428401E2,2.3652943E1,1.99447E2,1.0557924E3,7.115878E0,2.1431207E2,6.1910343E1,8.370527E0,1.9449665E1,7.040316E0,9.4991295E1,5.711796E2,7.264432E0,7.3155684E0,7.035179E3,1.6558577E1,6.7458657E3,8.475623E0,3.5544696E2,7.044991E0,1.4170901E3,3.4827686E1,3.9075577E2,8.045147E0,7.1064653E0,1.6546478E1,1.8530125E2,1.4145758E1,1.048628E3,7.164323E0,8.773277E0,2.0553879E2,5.4794216E1,7.116129E0,4.543453E1,4.955677E1,7.6081014E0,5.6357153E2,1.0446432E2,6.930715E3,9.398702E0,7.159876E0,6.7374443E3,8.421509E0,3.4831943E2,7.1275377E0,1.409965E3,7.125144E0,1.4198169E1,2.0629517E1,1.00870695E1,1.7521419E2,7.047556E0,7.0982018E0,1.0393346E3,9.293418E0,1.9839137E2,7.1474113E0,2.0839067E1,2.4595459E1,4.2469963E1,7.0868073E0,5.5088153E2,1.26900015E1,1.1269443E1,9.319488E1,6.923526E3,7.18897E0,6.72996E3,7.484329E0,3.412281E2,7.091331E0,1.3983208E3,1.1644152E1,1.349396E1,7.135556E0,1.5951564E2,1.5698534E1,7.2231865E0,1.0321115E3,1.3854458E1,1.0741001E1,5.4377625E2,7.1053143E0,8.48378E1,8.357078E0,6.855115E3,6.84104E1,6.718951E3,1.1008406E1,1.3831293E3,1.519154E1,1.4526295E2,1.4252696E1,7.202197E0,8.496337E0,1.0249269E3,7.184546E0,5.366649E2,7.1112742E0,7.097645E0,7.774015E1,6.8479614E3,7.1537566E0,5.513754E1,1.32728615E1],"tree_param":{"num_deleted":"6","num_feature":"4225","num_nodes":"351","size_leaf_vector":"0"}},{"base_weights":[-6.914897E-4,-1.4477445E0,6.685349E-1,-1.4927301E0,-9.1691977E-1,-2.1755241E-1,1.1445563E0,-1.3290292E0,2.3185426E-1,6.1592937E-1,-7.658083E-1,-7.176397E-1,1.2293612E0,-1.3857297E0,7.6689523E-1,-1.4863461E0,8.212488E-1,-4.104208E-1,9.015633E-1,-1.1668386E0,4.8523962E-1,-1.3163788E0,7.2511125E-1,9.8982796E-2,1.2998185E0,-1.4487752E0,2.5118157E-1,1.074554E0,-1.4909087E0,-1.2307665E0,7.584531E-1,-1.1650548E0,1.0271662E0,-1.2748493E0,1.0331569E0,-1.1724555E0,8.6123383E-1,-1.433303E0,8.422076E-1,-9.9784553E-1,1.1426737E0,-9.414674E-1,8.999011E-1,8.88911E-1,1.387441E0,-1.4971519E0,-1.9896741E-1,-3.5531974E-1,1.3130057E0,-1.3908437E0,1.404093E0,-1.4580879E0,1.2263758E0,7.262326E-1,-1.3762261E0,6.6829836E-1,1.380608E0,-1.3650477E0,1.6251937E-2,-1.4469087E0,1.2931796E0,-1.3182609E0,1.1583658E0,-9.415166E-1,1.0955737E0,-1.4944607E0,-6.012176E-1,1.2555252E-1,1.4414499E0,1.6335267E-1,-1.4912723E0,-3.216041E-1,1.3523644E0,-1.2394141E0,4.7082362E-1,2.2069108E-2,1.3179455E0,-1.2268499E0,1.0737351E0,7.6773787E-1,1.4178861E0,7.114497E-2,1.4333696E0,-1.437037E0,9.415075E-2,-9.722283E-1,-1.5612949E0,1.3975452E0,-1.2565136E0,-1.5301976E0,1.8407047E-1,-9.1802335E-1,1.0229934E0,1.4199467E0,-7.3878026E-1,-1.3917979E0,1.201815E0,-7.5583E-1,9.836439E-1,-4.9153754E-1,1.4395362E0,-1.4276279E0,4.8967537E-1,1.2939999E0,-1.4553888E0,1.6640358E-2,1.2498846E0,-8.556505E-1,-1.509234E0,-1.4011109E0,7.717363E-1,1.4522582E0,2.1855752E-1,-1.5159756E0,-7.110547E-2,-1.2720704E0,1.2530099E0,-1.1608889E0,1.109699E0,-3.146258E-1,1.3790078E0,4.2492647E-2,-1.4859082E0,1.191788E0,-7.3866975E-1,1.0496575E0,-1.2717674E0,1.4222859E0,-1.4349484E0,1.5092082E0,6.4382327E-1,-1.4766194E0,-1.7079131E-1,1.4787365E0,1.3729137E-1,-1.2941055E0,1.1010197E0,-9.7366476E-1,1.1667526E0,-5.071646E-1,1.4418072E0,-1.4544445E0,-3.7971467E-1,6.715947E-1,1.4125798E0,-1.3362014E0,4.1510364E-1,-8.870324E-1,1.2309548E0,1.5104723E0,5.45075E-1,-1.5126654E0,-3.8456637E-2,-4.578709E-1,-1.5893772E0,-1.012074E0,9.404583E-1,-1.6085225E0,1.3015598E0,1.5272186E0,7.7349824E-1,-1.56841E0,-6.9863737E-1,-1.5298498E0,1.0236424E0,4.5616528E-1,1.4930048E0,-1.4322554E0,2.659879E-1,1.4538773E0,-4.669306E-1,1.4307001E0,1.5065955E-1,-1.3041143E0,1.0136501E0,-1.543312E0,-7.131257E-1,1.2436702E0,-1.4340926E0,-1.0834827E0,1.4431113E0,-2.846671E-1,1.1955411E0,-1.5137091E0,-3.1860724E-1,-1.6310519E0,1.4258778E0,1.027811E0,1.5606433E0,-1.5233183E0,-9.1779184E-1,6.3035864E-1,1.5218405E0,-1.4500226E0,3.6468777E-1,3.276071E-1,1.4616207E0,-1.5896304E0,2.3914696E-1,1.241668E0,-8.575603E-1,-9.236867E-2,1.4578766E0,-1.4666442E0,1.0256301E0,-1.487682E0,8.1538033E-1,-2.878378E-1,-1.4892989E0,1.3349053E0,-8.4368277E-1,-7.078809E-2,1.4474231E0,-1.553409E0,-9.8981684E-1,-1.5375715E0,-5.2368557E-3,1.311827E0,-4.2041692E-1,1.3384854E0,-7.1323746E-1,2.3615636E-1,1.4524894E0,-1.520967E0,-9.1029507E-1,1.4661224E0,4.69312E-1,1.3044684E0,-7.960713E-1,-8.603632E-1,-1.6213864E0,-1.4453034E0,2.3404549E-1,9.917826E-1,-1.2826103E0,1.2651098E0,-7.9215324E-1,1.4289563E0,-1.239599E0,-1.394818E0,-1.7439991E-1,-1.5673424E0,1.0139002E-1,8.6013675E-2,1.3462896E0,7.133068E-1,-1.7339246E0,1.4723042E0,1.785337E-2,-1.4760203E0,8.633306E-1,-1.0252819E0,1.2847872E0,1.5458888E0,7.6029587E-1,1.4982595E0,6.7060965E-1,-4.340334E-1,1.368083E0,1.4869158E0,8.468807E-1,1.3527639E0,-8.0276346E-1,1.0338337E0,-1.5054333E0,-1.5392506E0,-7.3647475E-1,-1.0350688E0,1.2802664E0,-1.6840726E0,-6.486227E-1,-3.15916E-1,1.3267996E0,4.8825356E-1,1.4377183E0,-1.6611624E0,-7.2040296E-1,-1.0804455E0,1.1417372E0,1.3899543E0,-1.1444596E0,1.3782248E-1,1.485598E0,-1.4830076E0,-1.1841561E-2,1.3286357E-1,1.4893608E0,1.4046625E0,-2.1792082E-3,1.381392E0,-5.333073E-1,-1.4522569E0,4.148176E-1,-4.4637196E-2,1.3724493E0,-1.5091165E0,9.7563154E-1,1.4409758E0,-2.0046677E-1,-1.7043825E0,-1.0297197E0,-1.7368013E0,2.6118016E-1,1.4515549E0,3.292923E-1,-5.4654926E-1,1.4203088E0,1.4984835E0,2.236794E-1,-1.4883147E0,-3.366211E-1,1.4682332E0,8.6279875E-1,-1.14757E0,1.4016901E0,-1.6042058E0,1.0251461E0,1.9138663E-1,1.4085251E0,1.2935784E0,-8.617919E-1,1.4458153E0,4.97577E-1,1.4416095E0,7.6307096E-2,5.618219E-1,1.507499E0,-1.4929757E0,-7.468505E-1,1.4857358E0,5.1059633E-1,-5.630349E-1,1.3459738E0,7.0845026E-1,1.4518669E0,1.4639865E0,7.997052E-1,1.4612006E0,3.759656E-1,-1.452863E-1,1.4494444E0,1.160993E0,-1.6747928E0,1.4718034E0,4.713413E-1,7.126829E-1,1.5148678E0,-1.495979E0,-7.176887E-1,1.503866E0,6.908176E-1,6.885117E-1,1.484612E0,-8.93201E-1,1.2920136E0,6.155462E-2,1.4665953E0,1.4929898E0,5.785414E-1,1.3041211E0,-1.8151754E-1,1.1541353E0,-1.460387E0,1.4514673E0,-1.8853572E-1,1.4327416E0,4.4780767E-1],"categories":[],"categories_nodes":[],"categories_segments":[],"categories_sizes":[],"default_left":[true,true,true,false,true,true,true,true,true,true,true,true,true,true,false,false,true,true,true,true,true,true,true,true,true,true,false,true,false,true,true,true,true,true,true,true,true,true,true,true,true,true,true,true,true,false,false,false,true,true,false,true,true,false,true,true,true,true,true,false,true,true,false,true,true,true,true,false,false,false,false,false,true,true,true,true,true,true,true,true,true,false,true,true,false,true,true,true,false,false,false,true,true,true,false,true,true,true,true,false,true,true,false,false,true,true,true,false,false,false,false,true,false,true,true,false,true,true,true,false,true,true,true,true,true,true,true,true,false,true,false,true,false,true,false,true,true,true,true,false,true,true,true,false,false,true,true,false,true,false,false,true,false,false,false,true,true,false,true,false,false,false,false,false,true,false,false,true,false,false,false,true,false,false,false,false,false,true,true,true,false,true,true,false,false,false,true,true,true,false,true,false,false,true,false,false,false,false,false,true,true,false,true,true,false,false,true,false,false,false,false,false,true,false,false,false,false,true,false,true,false,false,false,false,false,true,false,true,true,false,false,true,true,false,true,true,false,true,false,false,false,true,false,true,true,false,false,true,false,true,false,false,true,false,false,false,false,false,true,false,false,true,true,false,false,false,false,false,false,false,false,false,true,true,true,true,false,true,true,true,false,false,true,true,false,false,false,true,false,true,true,false,false,false,true,false,true,true,false,false,false,false,false,false,false,false,true,true,false,true,false,true,true,false,true,false,false,false,true,true,false,true,true,true,false,false,true,true,false,true,false,false,true,true,true,true,true,false,false,true,true,true,false,false,false,false,false,false,false,false,false,false,false,false,false,false,false,false,false,false,false,false,false,false,false,false,false],"id":4,"left_children":[1,3,5,-1,7,9,11,13,15,17,19,21,23,25,-1,-1,27,29,31,33,35,37,39,41,43,45,-1,47,-1,49,51,53,55,57,59,61,63,65,67,69,71,73,75,77,79,-1,-1,-1,81,83,-1,-1,87,-1,89,91,93,95,97,-1,99,101,-1,103,105,107,109,-1,-1,-1,-1,-1,111,113,115,117,119,121,123,125,127,-1,129,131,-1,-1,-1,133,-1,-1,-1,135,137,139,-1,141,143,145,147,-1,149,151,-1,-1,153,155,157,-1,-1,-1,-1,159,-1,161,163,-1,165,167,169,-1,171,173,175,177,179,181,183,185,-1,-1,-1,189,-1,191,-1,193,195,197,199,-1,201,203,205,-1,-1,207,209,-1,211,-1,-1,213,-1,-1,-1,215,217,-1,219,-1,-1,-1,-1,-1,221,-1,-1,223,-1,-1,-1,225,-1,-1,-1,-1,-1,227,229,231,-1,233,235,-1,-1,-1,237,-1,-1,-1,239,-1,-1,241,-1,-1,-1,-1,-1,243,245,-1,247,249,-1,-1,251,-1,-1,-1,-1,-1,253,-1,-1,-1,-1,255,-1,257,-1,-1,-1,-1,-1,259,-1,261,263,-1,-1,265,267,-1,269,271,-1,273,-1,-1,-1,275,-1,277,279,-1,-1,281,-1,283,-1,-1,285,-1,-1,-1,-1,-1,287,-1,-1,289,291,-1,-1,-1,-1,-1,-1,-1,-1,-1,293,295,297,299,-1,301,303,305,-1,-1,307,309,-1,-1,-1,311,-1,313,315,-1,-1,-1,317,-1,319,321,-1,-1,-1,-1,-1,-1,-1,-1,323,325,-1,327,-1,329,331,-1,333,-1,-1,-1,335,337,-1,339,341,343,-1,-1,345,347,-1,349,-1,-1,351,353,355,357,359,-1,-1,361,363,365,-1,-1,-1,-1,-1,-1,-1,-1,-1,-1,-1,-1,-1,-1,-1,-1,-1,-1,-1,-1,-1,-1,-1,-1,-1],"loss_changes":[2.0212857E4,1.562461E2,6.020086E3,0E0,2.4566074E2,2.2800212E3,1.4671064E3,4.640869E1,1.4065173E2,5.808059E2,1.5104922E3,3.5083148E2,7.071338E2,3.8741577E1,0E0,0E0,6.202134E1,4.1492026E2,4.0332397E2,5.4293384E2,4.5679108E2,7.354111E1,8.7066025E1,4.3594257E2,2.9974023E2,2.1361511E1,0E0,3.236502E1,0E0,1.0911621E2,1.8709549E2,3.6636208E1,1.8438367E2,2.5309009E2,7.101452E1,4.7617126E1,2.5308481E2,1.2955322E1,6.413741E0,1.3898792E1,3.0095978E1,9.63512E1,1.0842386E2,5.769408E2,1.288711E2,0E0,0E0,0E0,1.191539E1,1.660019E1,0E0,6.661224E-2,6.468355E1,0E0,1.9648026E1,4.0991022E2,6.2337524E1,1.411438E2,1.0746908E2,0E0,2.619429E1,2.60289E1,0E0,8.134707E1,8.796393E1,1.095581E0,2.3388805E1,0E0,0E0,0E0,0E0,0E0,9.274918E0,6.070694E1,5.6634823E1,1.2526069E2,2.0389435E1,3.9104095E1,2.9064453E2,1.8805403E2,8.443652E1,0E0,3.4138947E0,1.1418152E1,0E0,0E0,0E0,1.4018738E1,0E0,0E0,0E0,1.0268074E2,1.7178088E2,3.1149658E1,0E0,1.2693408E2,1.4524479E0,5.4942924E1,3.0634956E1,0E0,4.914612E0,1.4241898E1,0E0,0E0,6.852539E0,6.475624E1,7.038336E1,0E0,0E0,0E0,0E0,2.7699432E0,0E0,5.42453E0,6.0774376E1,0E0,4.744652E0,1.8441666E1,2.8197033E1,0E0,1.2048584E1,2.8910236E1,3.2747192E0,1.7505688E2,6.4333176E1,5.5983307E1,8.716644E0,7.421484E1,0E0,3.2104492E-2,0E0,4.4907837E0,0E0,3.8119812E0,0E0,2.9721039E1,5.5114727E0,3.0616512E1,8.5236084E1,0E0,1.774231E1,5.8783936E1,1.5820007E2,0E0,0E0,8.197868E0,3.2718044E1,0E0,1.6113571E1,0E0,0E0,8.918457E-1,0E0,0E0,0E0,1.7053692E1,1.8690271E1,0E0,3.4780823E1,0E0,0E0,0E0,0E0,0E0,7.0121727E0,0E0,0E0,4.373932E-1,0E0,0E0,0E0,5.6198425E0,0E0,0E0,0E0,0E0,0E0,1.5577515E2,1.302906E0,3.4957138E1,0E0,3.81878E1,3.666104E1,0E0,0E0,0E0,5.5499023E1,0E0,0E0,0E0,6.8201942E0,0E0,0E0,1.8974182E1,0E0,0E0,0E0,0E0,0E0,6.464526E1,2.9318947E1,0E0,1.4659668E1,4.243921E1,0E0,0E0,5.1156353E1,0E0,0E0,0E0,0E0,0E0,2.1240387E0,0E0,0E0,0E0,0E0,2.39497E0,0E0,2.4035828E1,0E0,0E0,0E0,0E0,0E0,1.0350037E0,0E0,1.2443237E2,4.9242065E1,0E0,0E0,2.6697083E0,2.3242655E1,0E0,3.158329E0,2.4757294E1,0E0,5.3208984E1,0E0,0E0,0E0,6.4447174E0,0E0,5.730616E1,5.500128E1,0E0,0E0,1.2210815E1,0E0,1.9186523E1,0E0,0E0,1.0737717E1,0E0,0E0,0E0,0E0,0E0,2.204419E1,0E0,0E0,6.473291E1,2.2573717E1,0E0,0E0,0E0,0E0,0E0,0E0,0E0,0E0,0E0,1.510907E1,6.1705017E1,3.486621E1,5.8683777E-1,0E0,1.995504E1,5.660576E0,2.917279E1,0E0,0E0,1.0930664E1,1.0865234E1,0E0,0E0,0E0,1.3486877E1,0E0,6.1554688E1,3.2424572E1,0E0,0E0,0E0,9.643005E0,0E0,3.0526413E1,2.880664E1,0E0,0E0,0E0,0E0,0E0,0E0,0E0,0E0,1.3514343E1,4.942993E0,0E0,5.310547E0,0E0,5.642578E0,3.341102E1,0E0,3.9284668E1,0E0,0E0,0E0,6.4466553E0,6.113495E0,0E0,3.73584E1,5.1710022E1,1.302948E1,0E0,0E0,2.8945312E0,3.2260742E0,0E0,4.3588257E0,0E0,0E0,2.2314606E0,7.609122E1,2.202002E1,4.4150696E0,1.0649812E1,0E0,0E0,2.825724E1,2.1541016E1,4.5995865E0,0E0,0E0,0E0,0E0,0E0,0E0,0E0,0E0,0E0,0E0,0E0,0E0,0E0,0E0,0E0,0E0,0E0,0E0,0E0,0E0,0E0,0E0,0E0,0E0,0E0],"parents":[2147483647,0,0,1,1,2,2,4,4,5,5,6,6,7,7,8,8,9,9,10,10,11,11,12,12,13,13,16,16,17,17,18,18,19,19,20,20,21,21,22,22,23,23,24,24,25,25,27,27,29,29,30,30,31,31,32,32,33,33,34,34,35,35,36,36,37,37,38,38,39,39,40,40,41,41,42,42,43,43,44,44,48,48,49,49,51,51,52,52,54,54,55,55,56,56,57,57,58,58,60,60,61,61,63,63,64,64,65,65,66,66,72,72,73,73,74,74,75,75,76,76,77,77,78,78,79,79,80,80,82,82,83,83,87,87,91,91,92,92,93,93,95,95,96,96,97,97,98,98,100,100,101,101,104,104,105,105,106,106,111,111,113,113,114,114,116,116,117,117,118,118,120,120,121,121,122,122,123,123,124,124,125,125,126,126,127,127,129,129,131,131,133,133,135,135,136,136,137,137,138,138,140,140,141,141,142,142,145,145,146,146,148,148,151,151,155,155,156,156,158,158,164,164,167,167,171,171,177,177,178,178,179,179,181,181,182,182,186,186,190,190,193,193,199,199,200,200,202,202,203,203,206,206,212,212,217,217,219,219,225,225,227,227,228,228,231,231,232,232,234,234,235,235,237,237,241,241,243,243,244,244,247,247,249,249,252,252,258,258,261,261,262,262,272,272,273,273,274,274,275,275,277,277,278,278,279,279,282,282,283,283,287,287,289,289,290,290,294,294,296,296,297,297,306,306,307,307,309,309,311,311,312,312,314,314,318,318,319,319,321,321,322,322,323,323,326,326,327,327,329,329,332,332,333,333,334,334,335,335,336,336,339,339,340,340,341,341],"right_children":[2,4,6,-1,8,10,12,14,16,18,20,22,24,26,-1,-1,28,30,32,34,36,38,40,42,44,46,-1,48,-1,50,52,54,56,58,60,62,64,66,68,70,72,74,76,78,80,-1,-1,-1,82,84,-1,-1,88,-1,90,92,94,96,98,-1,100,102,-1,104,106,108,110,-1,-1,-1,-1,-1,112,114,116,118,120,122,124,126,128,-1,130,132,-1,-1,-1,134,-1,-1,-1,136,138,140,-1,142,144,146,148,-1,150,152,-1,-1,154,156,158,-1,-1,-1,-1,160,-1,162,164,-1,166,168,170,-1,172,174,176,178,180,182,184,186,-1,-1,-1,190,-1,192,-1,194,196,198,200,-1,202,204,206,-1,-1,208,210,-1,212,-1,-1,214,-1,-1,-1,216,218,-1,220,-1,-1,-1,-1,-1,222,-1,-1,224,-1,-1,-1,226,-1,-1,-1,-1,-1,228,230,232,-1,234,236,-1,-1,-1,238,-1,-1,-1,240,-1,-1,242,-1,-1,-1,-1,-1,244,246,-1,248,250,-1,-1,252,-1,-1,-1,-1,-1,254,-1,-1,-1,-1,256,-1,258,-1,-1,-1,-1,-1,260,-1,262,264,-1,-1,266,268,-1,270,272,-1,274,-1,-1,-1,276,-1,278,280,-1,-1,282,-1,284,-1,-1,286,-1,-1,-1,-1,-1,288,-1,-1,290,292,-1,-1,-1,-1,-1,-1,-1,-1,-1,294,296,298,300,-1,302,304,306,-1,-1,308,310,-1,-1,-1,312,-1,314,316,-1,-1,-1,318,-1,320,322,-1,-1,-1,-1,-1,-1,-1,-1,324,326,-1,328,-1,330,332,-1,334,-1,-1,-1,336,338,-1,340,342,344,